{"learner":{"attributes":{"best_iteration":"43","best_score":"0.5954076828641682","scikit_learn":"{\"_estimator_type\": \"regressor\"}"},"feature_names":[],"feature_types":[],"gradient_booster":{"model":{"gbtree_model_param":{"num_parallel_tree":"1","num_trees":"74"},"iteration_indptr":[0,1,2,3,4,5,6,7,8,9,10,11,12,13,14,15,16,17,18,19,20,21,22,23,24,25,26,27,28,29,30,31,32,33,34,35,36,37,38,39,40,41,42,43,44,45,46,47,48,49,50,51,52,53,54,55,56,57,58,59,60,61,62,63,64,65,66,67,68,69,70,71,72,73,74],"tree_info":[0,0,0,0,0,0,0,0,0,0,0,0,0,0,0,0,0,0,0,0,0,0,0,0,0,0,0,0,0,0,0,0,0,0,0,0,0,0,0,0,0,0,0,0,0,0,0,0,0,0,0,0,0,0,0,0,0,0,0,0,0,0,0,0,0,0,0,0,0,0,0,0,0,0],"trees":[{"base_weights":[5.8252816E-3,5.34824E-1,-6.7321575E-1,1.5209208E0,2.7384797E-1,7.257738E-1,-8.231816E-1,1.9497747E0,1.2719144E0,7.94462E-1,4.865992E-2,1.9951859E0,2.5988823E-1,-3.6716303E-1,-9.2887765E-1,4.1205075E-1,1.9764563E0,1.4718931E0,1.0579339E0,-5.262657E-1,9.363821E-1,7.339591E-1,-1.4355303E-1,2.838011E-1,2.7777474E0,-1.7305838E-1,5.227302E-1,7.668798E-1,-5.09066E-1,-9.0135026E-1,-1.7645117E0,-1.4463698E-2,6.262042E-1,3.6178277E0,1.9202151E0,1.1075699E0,1.5633E0,1.3070742E0,8.8498574E-1,1.4169897E0,-6.8618906E-1,1.2905998E0,6.9343555E-1,5.5203354E-1,1.3874011E0,2.1594992E-1,-3.819707E-1,-4.202549E-1,3.4550195E0,3.7756703E0,2.6663988E0,-5.832556E-1,8.265304E-1,6.031725E-1,-8.438756E-2,-2.6970634E-1,8.7868947E-1,-7.7256046E-2,-7.932752E-1,-9.614793E-1,-6.4339155E-1,-1.101375E-1,-1.5578158E0,3.4013838E-2,3.7504833E-3,9.031837E-2,1.893227E-1,9.79779E-2,6.0506165E-2,-1.4439883E-2,5.700153E-2,1.3816294E-1,7.729802E-2,5.1592913E-2,6.9269344E-2,4.922619E-2,3.580288E-2,1.0556592E-1,-4.4874987E-3,-3.5692703E-2,5.27965E-2,7.130197E-2,4.6217754E-2,3.790587E-2,7.6285726E-3,7.112156E-2,1.7224204E-2,7.311317E-2,-7.2189714E-3,1.6289135E-2,-2.57426E-2,-1.301554E-2,-3.251581E-2,-2.1501409E-2,1.4659787E-2,8.349487E-2,1.8714726E-1,1.9265316E-1,4.7956087E-2,1.3009982E-1,1.9116452E-1,1.5259235E-1,-3.2216992E-2,9.8559126E-2,-9.618977E-4,5.764423E-2,2.8366596E-2,-3.8995955E-2,2.5904417E-2,5.652378E-2,2.3951719E-2,-2.4762163E-2,4.947982E-3,-5.183651E-2,-2.2897638E-2,1.08520664E-1,-4.8246354E-2,1.2883471E-2,-4.1124716E-2,-8.769976E-2,-7.2358005E-2],"categories":[],"categories_nodes":[],"categories_segments":[],"categories_sizes":[],"default_left":[0,0,0,0,0,0,0,0,0,0,0,0,0,0,0,0,0,0,0,0,0,0,0,0,0,0,0,0,0,0,0,0,0,0,0,0,0,0,0,0,0,0,0,0,0,0,0,0,0,0,0,0,0,0,0,0,0,0,0,0,0,0,0,0,0,0,0,0,0,0,0,0,0,0,0,0,0,0,0,0,0,0,0,0,0,0,0,0,0,0,0,0,0,0,0,0,0,0,0,0,0,0,0,0,0,0,0,0,0,0,0,0,0,0,0,0,0,0,0,0,0],"id":0,"left_children":[1,3,5,7,9,11,13,15,17,19,21,23,25,27,29,31,33,35,37,39,41,43,45,47,49,51,53,55,57,59,61,-1,63,65,67,69,71,73,75,77,79,81,83,85,87,89,91,93,95,97,99,101,103,105,-1,107,109,111,113,115,117,-1,119,-1,-1,-1,-1,-1,-1,-1,-1,-1,-1,-1,-1,-1,-1,-1,-1,-1,-1,-1,-1,-1,-1,-1,-1,-1,-1,-1,-1,-1,-1,-1,-1,-1,-1,-1,-1,-1,-1,-1,-1,-1,-1,-1,-1,-1,-1,-1,-1,-1,-1,-1,-1,-1,-1,-1,-1,-1,-1],"loss_changes":[1.2560561E4,5.057751E3,3.2130664E3,4.3673633E2,1.8221614E3,8.7652893E2,6.6625586E2,6.1097656E1,1.0991455E2,8.801384E2,1.4294357E3,5.322388E2,1.2367351E2,4.194365E2,2.566631E2,4.2363043E0,1.2995264E2,4.302588E1,5.3220825E1,1.4268434E2,3.638103E2,2.8180676E2,7.264905E2,2.827741E2,2.0267578E1,1.690038E2,1.2122177E2,3.384807E1,2.840456E2,1.68E2,2.8906372E1,0E0,5.7486725E-1,7.8223267E0,3.7746094E1,1.2703522E1,1.8033203E1,9.670227E0,1.1872498E1,3.6805527E1,2.1092392E1,8.414966E1,8.7904175E1,3.3570062E2,5.9496826E1,2.714668E2,1.6619922E2,8.512478E-1,5.5712585E0,1.7539673E0,8.604004E0,6.680428E1,1.16211174E2,1.2211334E1,0E0,1.20604105E1,2.5822906E1,6.781243E1,1.1348895E2,9.72666E1,3.3233704E2,0E0,2.801941E0,0E0,0E0,0E0,0E0,0E0,0E0,0E0,0E0,0E0,0E0,0E0,0E0,0E0,0E0,0E0,0E0,0E0,0E0,0E0,0E0,0E0,0E0,0E0,0E0,0E0,0E0,0E0,0E0,0E0,0E0,0E0,0E0,0E0,0E0,0E0,0E0,0E0,0E0,0E0,0E0,0E0,0E0,0E0,0E0,0E0,0E0,0E0,0E0,0E0,0E0,0E0,0E0,0E0,0E0,0E0,0E0,0E0,0E0],"parents":[2147483647,0,0,1,1,2,2,3,3,4,4,5,5,6,6,7,7,8,8,9,9,10,10,11,11,12,12,13,13,14,14,15,15,16,16,17,17,18,18,19,19,20,20,21,21,22,22,23,23,24,24,25,25,26,26,27,27,28,28,29,29,30,30,32,32,33,33,34,34,35,35,36,36,37,37,38,38,39,39,40,40,41,41,42,42,43,43,44,44,45,45,46,46,47,47,48,48,49,49,50,50,51,51,52,52,53,53,55,55,56,56,57,57,58,58,59,59,60,60,62,62],"right_children":[2,4,6,8,10,12,14,16,18,20,22,24,26,28,30,32,34,36,38,40,42,44,46,48,50,52,54,56,58,60,62,-1,64,66,68,70,72,74,76,78,80,82,84,86,88,90,92,94,96,98,100,102,104,106,-1,108,110,112,114,116,118,-1,120,-1,-1,-1,-1,-1,-1,-1,-1,-1,-1,-1,-1,-1,-1,-1,-1,-1,-1,-1,-1,-1,-1,-1,-1,-1,-1,-1,-1,-1,-1,-1,-1,-1,-1,-1,-1,-1,-1,-1,-1,-1,-1,-1,-1,-1,-1,-1,-1,-1,-1,-1,-1,-1,-1,-1,-1,-1,-1],"split_conditions":[1.4252386E-3,-1.4172418E0,-8.898131E-1,-1.8314588E0,-3.4017656E-3,-3.9227908E0,2.7482092E-1,-1.9486135E0,3.5592744E-1,-1.5335615E0,-6.945751E-1,-3.3769987E0,-2.3383878E-1,-9.684723E-1,1.5390978E0,-1.141929E0,9.263701E-1,-1.269422E0,-1.6044636E0,-3.6827183E-1,-5.037204E-1,7.533378E-1,-9.0452594E-1,-3.1657467E0,-1.0995644E0,-9.2867327E-1,-1.1284263E0,4.1494587E-1,-4.0661722E-1,7.8236234E-1,-1.0777657E0,-1.4463698E-2,-2.1408703E0,-1.4020344E0,-8.045654E-1,-1.9486135E0,3.7314534E-1,-1.1262583E0,1.5319839E0,-6.192518E-1,3.36245E-1,-3.4800917E-1,-1.065264E0,-1.9460458E0,-6.718221E-1,1.6853483E0,-4.0690756E-1,1.3209491E0,-2.6771615E0,-2.6838048E0,1.3588542E0,-1.2771223E0,-2.9997375E0,-1.4438725E0,-8.438756E-2,-1.4252864E0,1.5133831E-1,-5.8820987E-1,5.308084E-1,-1.0553193E0,1.366565E-1,-1.101375E-1,1.2014725E0,3.4013838E-2,3.7504833E-3,9.031837E-2,1.893227E-1,9.79779E-2,6.0506165E-2,-1.4439883E-2,5.700153E-2,1.3816294E-1,7.729802E-2,5.1592913E-2,6.9269344E-2,4.922619E-2,3.580288E-2,1.0556592E-1,-4.4874987E-3,-3.5692703E-2,5.27965E-2,7.130197E-2,4.6217754E-2,3.790587E-2,7.6285726E-3,7.112156E-2,1.7224204E-2,7.311317E-2,-7.2189714E-3,1.6289135E-2,-2.57426E-2,-1.301554E-2,-3.251581E-2,-2.1501409E-2,1.4659787E-2,8.349487E-2,1.8714726E-1,1.9265316E-1,4.7956087E-2,1.3009982E-1,1.9116452E-1,1.5259235E-1,-3.2216992E-2,9.8559126E-2,-9.618977E-4,5.764423E-2,2.8366596E-2,-3.8995955E-2,2.5904417E-2,5.652378E-2,2.3951719E-2,-2.4762163E-2,4.947982E-3,-5.183651E-2,-2.2897638E-2,1.08520664E-1,-4.8246354E-2,1.2883471E-2,-4.1124716E-2,-8.769976E-2,-7.2358005E-2],"split_indices":[5,5,7,5,0,2,5,6,0,0,7,7,1,0,0,2,6,3,5,2,5,1,5,3,1,0,0,3,6,3,1,0,5,6,1,6,6,1,6,1,3,0,0,3,6,0,5,5,6,7,5,1,2,0,0,0,6,1,3,2,7,0,1,0,0,0,0,0,0,0,0,0,0,0,0,0,0,0,0,0,0,0,0,0,0,0,0,0,0,0,0,0,0,0,0,0,0,0,0,0,0,0,0,0,0,0,0,0,0,0,0,0,0,0,0,0,0,0,0,0,0],"split_type":[0,0,0,0,0,0,0,0,0,0,0,0,0,0,0,0,0,0,0,0,0,0,0,0,0,0,0,0,0,0,0,0,0,0,0,0,0,0,0,0,0,0,0,0,0,0,0,0,0,0,0,0,0,0,0,0,0,0,0,0,0,0,0,0,0,0,0,0,0,0,0,0,0,0,0,0,0,0,0,0,0,0,0,0,0,0,0,0,0,0,0,0,0,0,0,0,0,0,0,0,0,0,0,0,0,0,0,0,0,0,0,0,0,0,0,0,0,0,0,0,0],"sum_hessian":[3.4965E4,1.9654E4,1.5311E4,4.112E3,1.5542E4,1.482E3,1.3829E4,1.508E3,2.604E3,4.692E3,1.085E4,3.97E2,1.085E3,2.603E3,1.1226E4,2.6E1,1.482E3,1.343E3,1.261E3,4.55E2,4.237E3,2.376E3,8.474E3,1.25E2,2.72E2,4.1E2,6.75E2,2.89E2,2.314E3,1.087E4,3.56E2,6E0,2E1,4.7E1,1.435E3,2.72E2,1.071E3,5.14E2,7.47E2,3.4E1,4.21E2,1.722E3,2.515E3,1.86E3,5.16E2,3.379E3,5.095E3,1.03E2,2.2E1,2.4E1,2.48E2,2.91E2,1.19E2,6.52E2,2.3E1,2.8E1,2.61E2,9.19E2,1.395E3,8.813E3,2.057E3,1.11E2,2.45E2,1.8E1,2E0,5E0,4.2E1,1.358E3,7.7E1,6E0,2.66E2,1.3E1,1.058E3,1.17E2,3.97E2,4.67E2,2.8E2,2.3E1,1.1E1,4.15E2,6E0,1.255E3,4.67E2,2.246E3,2.69E2,3.57E2,1.503E3,4.92E2,2.4E1,2.938E3,4.41E2,3.507E3,1.588E3,1.02E2,1E0,4E0,1.8E1,2.3E1,1E0,2.38E2,1E1,4E0,2.87E2,5E1,6.9E1,3.8E1,6.14E2,1.7E1,1.1E1,1.59E2,1.02E2,2.72E2,6.47E2,8.07E2,5.88E2,9E0,8.804E3,3.41E2,1.716E3,8.3E1,1.62E2],"tree_param":{"num_deleted":"0","num_feature":"9","num_nodes":"121","size_leaf_vector":"1"}},{"base_weights":[-1.5398002E-3,-4.4008896E-1,3.4910956E-1,6.152086E-1,-6.7263526E-1,1.076928E0,-1.2984495E-1,7.452366E-1,-6.4672375E-1,-2.752895E-1,-9.199006E-1,1.3385789E0,6.058694E-1,5.343811E-1,-2.8120396E-1,1.6275982E0,7.1955067E-1,-8.4163857E-1,-3.902531E-1,-6.5724206E-1,4.146704E-1,-7.138952E-1,-9.693463E-1,1.4992553E0,7.846736E-1,-2.1990298E-1,8.827042E-1,1.256435E0,2.8002563E-1,-7.710285E-2,-5.699696E-1,2.8685882E0,1.0846885E0,6.6908413E-1,1.0039012E0,-2.219305E-2,-4.449352E-2,-4.7820827E-1,-5.4486085E-2,6.8089586E-1,-7.917171E-1,-6.5141404E-1,7.823631E-1,-9.382815E-1,-2.7462897E-1,-9.027946E-1,-1.0114945E0,1.0172752E0,1.6600087E0,-3.6568248E-1,9.6681476E-1,2.53828E-1,-3.4727645E-1,9.048089E-1,-8.281537E-2,1.4684861E0,9.294756E-1,1.5157068E0,1.4129873E-1,2.4042763E-2,-6.051842E-1,-1.7538509E0,-4.7375283E-1,1.666073E-1,8.493941E-2,2.7172437E-2,5.658525E-2,-4.1858394E-2,3.39073E-2,4.9248498E-2,1.4957543E-1,-1.50476685E-2,-2.5600497E-2,3.0441845E-3,-1.3317639E-2,4.1865394E-2,-4.281527E-2,-4.407995E-2,-1.7680071E-2,-2.3772288E-2,-4.1107047E-2,2.0807875E-2,6.515323E-2,-4.3832954E-2,-5.2918352E-2,-1.7093105E-2,6.856856E-3,-5.7157416E-2,-4.358578E-2,-5.1298734E-2,-4.156468E-2,7.780772E-2,2.134913E-2,9.0239555E-2,7.156246E-2,-2.0141022E-2,5.5920552E-2,6.313523E-2,1.1897106E-2,4.4937313E-2,4.3857316E-3,-1.3361613E-2,-5.6718465E-2,6.102386E-2,3.9702334E-2,2.4939347E-3,-8.7319575E-3,7.8109615E-2,6.009025E-2,4.1496668E-2,5.2968513E-2,7.2380655E-2,1.682161E-1,1.9395428E-2,-1.2859466E-2,1.27638355E-2,-3.620845E-3,8.1486896E-2,-3.1483535E-2,-6.264564E-2,-9.6997224E-2,-3.0548325E-2,4.64595E-3],"categories":[],"categories_nodes":[],"categories_segments":[],"categories_sizes":[],"default_left":[0,0,0,0,0,0,0,0,0,0,0,0,0,0,0,0,0,0,0,0,0,0,0,0,0,0,0,0,0,0,0,0,0,0,0,0,0,0,0,0,0,0,0,0,0,0,0,0,0,0,0,0,0,0,0,0,0,0,0,0,0,0,0,0,0,0,0,0,0,0,0,0,0,0,0,0,0,0,0,0,0,0,0,0,0,0,0,0,0,0,0,0,0,0,0,0,0,0,0,0,0,0,0,0,0,0,0,0,0,0,0,0,0,0,0,0,0,0,0,0,0,0,0],"id":1,"left_children":[1,3,5,7,9,11,13,15,17,19,21,23,25,27,29,31,33,35,37,39,41,43,45,47,49,51,53,55,57,59,61,63,65,67,69,-1,-1,71,73,75,77,79,81,83,85,87,89,91,93,95,97,99,101,103,105,107,109,111,113,115,117,119,121,-1,-1,-1,-1,-1,-1,-1,-1,-1,-1,-1,-1,-1,-1,-1,-1,-1,-1,-1,-1,-1,-1,-1,-1,-1,-1,-1,-1,-1,-1,-1,-1,-1,-1,-1,-1,-1,-1,-1,-1,-1,-1,-1,-1,-1,-1,-1,-1,-1,-1,-1,-1,-1,-1,-1,-1,-1,-1,-1,-1],"loss_changes":[5.363895E3,3.8037087E3,6.756898E3,4.5976013E2,1.2475195E3,9.4737305E2,1.1755236E3,5.635083E1,1.2768921E1,1.2844636E3,7.904443E1,4.3892676E2,6.2862244E2,3.9818683E2,5.6115796E2,4.4724396E1,3.474463E1,2.4444733E0,3.3701744E0,5.6503015E2,6.813989E2,1.4946307E2,1.6786621E1,2.9521387E2,2.3376685E2,4.178361E1,4.4019165E1,3.780768E1,2.7508987E2,2.980597E2,4.4831323E2,5.727066E0,6.827736E-1,2.9218079E1,1.097583E1,0E0,0E0,3.9113617E-1,6.272918E-1,6.972235E1,1.1195691E2,1.3008072E1,2.458211E2,6.5091553E0,1.4304317E1,1.734961E1,9.206299E0,3.0502612E2,9.2538574E1,8.883295E0,2.0717029E2,1.5669208E1,3.403306E1,6.9413574E1,5.8138084E-1,6.644104E0,2.0300598E0,1.5522156E1,1.4210147E2,1.0449393E2,5.011496E1,2.5162964E1,2.8370746E2,0E0,0E0,0E0,0E0,0E0,0E0,0E0,0E0,0E0,0E0,0E0,0E0,0E0,0E0,0E0,0E0,0E0,0E0,0E0,0E0,0E0,0E0,0E0,0E0,0E0,0E0,0E0,0E0,0E0,0E0,0E0,0E0,0E0,0E0,0E0,0E0,0E0,0E0,0E0,0E0,0E0,0E0,0E0,0E0,0E0,0E0,0E0,0E0,0E0,0E0,0E0,0E0,0E0,0E0,0E0,0E0,0E0,0E0,0E0,0E0],"parents":[2147483647,0,0,1,1,2,2,3,3,4,4,5,5,6,6,7,7,8,8,9,9,10,10,11,11,12,12,13,13,14,14,15,15,16,16,17,17,18,18,19,19,20,20,21,21,22,22,23,23,24,24,25,25,26,26,27,27,28,28,29,29,30,30,31,31,32,32,33,33,34,34,37,37,38,38,39,39,40,40,41,41,42,42,43,43,44,44,45,45,46,46,47,47,48,48,49,49,50,50,51,51,52,52,53,53,54,54,55,55,56,56,57,57,58,58,59,59,60,60,61,61,62,62],"right_children":[2,4,6,8,10,12,14,16,18,20,22,24,26,28,30,32,34,36,38,40,42,44,46,48,50,52,54,56,58,60,62,64,66,68,70,-1,-1,72,74,76,78,80,82,84,86,88,90,92,94,96,98,100,102,104,106,108,110,112,114,116,118,120,122,-1,-1,-1,-1,-1,-1,-1,-1,-1,-1,-1,-1,-1,-1,-1,-1,-1,-1,-1,-1,-1,-1,-1,-1,-1,-1,-1,-1,-1,-1,-1,-1,-1,-1,-1,-1,-1,-1,-1,-1,-1,-1,-1,-1,-1,-1,-1,-1,-1,-1,-1,-1,-1,-1,-1,-1,-1,-1,-1,-1],"split_conditions":[-1.6313063E-1,-8.2850826E-1,7.150218E-1,7.303483E-1,-8.0981874E-1,3.6816442E-1,-6.945751E-1,-1.4252864E0,-8.030264E-1,1.5133831E-1,-7.463556E-1,7.1785825E-1,1.0247478E0,6.794364E-1,-4.4033155E-2,-5.451006E-1,-3.581839E-1,-1.8156948E0,-3.7891296E-1,-1.6552461E0,-1.5335615E0,2.7649793E-1,-1.6272753E-2,-2.938336E-1,-3.1657467E0,-5.6523178E-2,1.3565943E0,-7.5476414E-1,-1.2366613E0,1.6853483E0,-6.5630856E-3,-7.5476414E-1,-6.6487426E-1,-1.7802109E0,-1.1881841E0,-2.219305E-2,-4.449352E-2,-1.1796839E0,-1.099539E0,2.1070106E-1,-4.1284996E-1,4.8941782E-1,-1.087774E0,8.5167056E-1,9.4582456E-1,-1.0727286E0,1.2897506E0,-1.2680554E0,6.1603077E-2,-1.0352067E0,-4.5123076E-1,-1.0230045E0,-2.3202404E-1,1.2932403E-1,1.0795324E0,-8.6558634E-1,4.2580202E-1,1.06914E0,1.0025353E0,-1.3305055E0,6.666331E-1,-4.3784297E-1,1.266771E0,1.666073E-1,8.493941E-2,2.7172437E-2,5.658525E-2,-4.1858394E-2,3.39073E-2,4.9248498E-2,1.4957543E-1,-1.50476685E-2,-2.5600497E-2,3.0441845E-3,-1.3317639E-2,4.1865394E-2,-4.281527E-2,-4.407995E-2,-1.7680071E-2,-2.3772288E-2,-4.1107047E-2,2.0807875E-2,6.515323E-2,-4.3832954E-2,-5.2918352E-2,-1.7093105E-2,6.856856E-3,-5.7157416E-2,-4.358578E-2,-5.1298734E-2,-4.156468E-2,7.780772E-2,2.134913E-2,9.0239555E-2,7.156246E-2,-2.0141022E-2,5.5920552E-2,6.313523E-2,1.1897106E-2,4.4937313E-2,4.3857316E-3,-1.3361613E-2,-5.6718465E-2,6.102386E-2,3.9702334E-2,2.4939347E-3,-8.7319575E-3,7.8109615E-2,6.009025E-2,4.1496668E-2,5.2968513E-2,7.2380655E-2,1.682161E-1,1.9395428E-2,-1.2859466E-2,1.27638355E-2,-3.620845E-3,8.1486896E-2,-3.1483535E-2,-6.264564E-2,-9.6997224E-2,-3.0548325E-2,4.64595E-3],"split_indices":[4,7,0,8,0,0,7,0,6,6,0,8,4,4,8,1,6,7,1,8,0,6,3,8,3,8,1,6,6,0,8,6,6,1,0,0,0,7,7,7,6,7,4,7,6,1,6,8,7,1,3,1,3,7,4,7,3,0,0,8,6,7,6,0,0,0,0,0,0,0,0,0,0,0,0,0,0,0,0,0,0,0,0,0,0,0,0,0,0,0,0,0,0,0,0,0,0,0,0,0,0,0,0,0,0,0,0,0,0,0,0,0,0,0,0,0,0,0,0,0,0,0,0],"split_type":[0,0,0,0,0,0,0,0,0,0,0,0,0,0,0,0,0,0,0,0,0,0,0,0,0,0,0,0,0,0,0,0,0,0,0,0,0,0,0,0,0,0,0,0,0,0,0,0,0,0,0,0,0,0,0,0,0,0,0,0,0,0,0,0,0,0,0,0,0,0,0,0,0,0,0,0,0,0,0,0,0,0,0,0,0,0,0,0,0,0,0,0,0,0,0,0,0,0,0,0,0,0,0,0,0,0,0,0,0,0,0,0,0,0,0,0,0,0,0,0,0,0,0],"sum_hessian":[3.4879E4,1.5497E4,1.9382E4,2.798E3,1.2699E4,7.692E3,1.169E4,2.537E3,2.61E2,4.872E3,7.827E3,4.944E3,2.748E3,2.169E3,9.521E3,7E1,2.467E3,1.47E2,1.14E2,3.136E3,1.736E3,1.518E3,6.309E3,3.831E3,1.113E3,6.9E2,2.058E3,5.64E2,1.605E3,5.579E3,3.942E3,2E1,5E1,2.098E3,3.69E2,1.7E1,1.3E2,9E1,2.4E1,2.86E2,2.85E3,4.45E2,1.291E3,1.004E3,5.14E2,2.455E3,3.854E3,9.6E2,2.871E3,1.52E2,9.61E2,1.46E2,5.44E2,2.012E3,4.6E1,3.4E2,2.24E2,1.61E2,1.444E3,4.683E3,8.96E2,2.95E2,3.647E3,1.3E1,7E0,5E0,4.5E1,1.2E1,2.086E3,3.67E2,2E0,1.6E1,7.4E1,1.6E1,8E0,2.6E2,2.6E1,2.364E3,4.86E2,2.21E2,2.24E2,7.59E2,5.32E2,6.69E2,3.35E2,4.42E2,7.2E1,2.77E2,2.178E3,3.563E3,2.91E2,5.01E2,4.59E2,1.754E3,1.117E3,1.49E2,3E0,6.83E2,2.78E2,2.9E1,1.17E2,4.95E2,4.9E1,5.2E2,1.492E3,1.9E1,2.7E1,2.48E2,9.2E1,1.31E2,9.3E1,1.57E2,4E0,8.92E2,5.52E2,1.378E3,3.305E3,9E0,8.87E2,8.2E1,2.13E2,2.936E3,7.11E2],"tree_param":{"num_deleted":"0","num_feature":"9","num_nodes":"123","size_leaf_vector":"1"}},{"base_weights":[-3.678374E-3,4.809989E-1,-6.1525285E-1,1.3765239E0,2.4637166E-1,1.7079084E0,-6.900572E-1,1.7549733E0,1.1544313E0,7.202812E-1,4.1650146E-2,1.0896787E-1,2.3955564E0,-1.8029626E-1,-8.3808076E-1,1.4848016E-1,1.7777756E0,1.3311236E0,9.669933E-1,-4.9548307E-1,8.453136E-1,6.5494347E-1,-1.3521424E-1,-3.7195593E-1,3.1573856E0,4.3775156E-1,2.498197E0,4.8519737E-1,-4.5321524E-1,-8.12942E-1,-1.6202906E0,-1.7162578E-2,4.5398766E-1,2.874148E0,1.7506546E0,1.0128908E0,1.4058939E0,1.1935519E0,8.1425077E-1,1.3499345E0,-6.3551384E-1,1.1574703E0,6.270413E-1,2.4286021E-1,9.0499485E-1,1.9769266E-1,-3.5505652E-1,-3.9527434E-1,4.4390392E-1,8.2037546E-2,1.7767736E-1,1.125034E-1,-2.161877E-2,2.8245869E0,2.2658923E0,6.339683E-1,-4.5069438E-1,9.12211E-2,-5.912289E-1,-6.1545163E-1,-8.710329E-1,-9.963238E-2,-1.4570525E0,2.6000772E-2,-1.010933E-2,1.733539E-1,4.2094484E-2,7.513141E-2,9.3426436E-2,-2.1648703E-3,5.3283036E-2,6.838499E-2,9.62993E-2,4.7296256E-2,6.314758E-2,3.6500584E-2,4.7085587E-2,9.694887E-2,-4.047661E-3,-3.330238E-2,4.814911E-2,6.479403E-2,4.1904427E-2,3.5143152E-2,1.2385059E-2,6.7348175E-2,-1.4984064E-2,5.5579927E-2,2.580647E-2,1.5292952E-3,2.994783E-2,-4.9772244E-2,-1.50876045E-2,-1.989872E-2,-7.6857246E-3,6.130123E-3,2.5506845E-2,1.6625236E-1,1.1975618E-1,5.6153156E-2,1.1390451E-1,2.6663199E-2,4.0542312E-2,-3.916571E-2,-1.406297E-2,1.331231E-2,-5.7503015E-2,-4.621932E-2,-2.2039754E-2,-1.4027804E-2,-4.176751E-2,-4.469936E-2,-1.2526586E-2,-8.647348E-2,-6.60932E-2],"categories":[],"categories_nodes":[],"categories_segments":[],"categories_sizes":[],"default_left":[0,0,0,0,0,0,0,0,0,0,0,0,0,0,0,0,0,0,0,0,0,0,0,0,0,0,0,0,0,0,0,0,0,0,0,0,0,0,0,0,0,0,0,0,0,0,0,0,0,0,0,0,0,0,0,0,0,0,0,0,0,0,0,0,0,0,0,0,0,0,0,0,0,0,0,0,0,0,0,0,0,0,0,0,0,0,0,0,0,0,0,0,0,0,0,0,0,0,0,0,0,0,0,0,0,0,0,0,0,0,0,0,0,0,0],"id":2,"left_children":[1,3,5,7,9,11,13,15,17,19,21,23,25,27,29,31,33,35,37,39,41,43,45,47,49,51,53,55,57,59,61,-1,63,65,67,69,71,73,75,77,79,81,83,85,87,89,91,93,95,-1,-1,-1,-1,97,99,101,103,105,107,109,111,-1,113,-1,-1,-1,-1,-1,-1,-1,-1,-1,-1,-1,-1,-1,-1,-1,-1,-1,-1,-1,-1,-1,-1,-1,-1,-1,-1,-1,-1,-1,-1,-1,-1,-1,-1,-1,-1,-1,-1,-1,-1,-1,-1,-1,-1,-1,-1,-1,-1,-1,-1,-1,-1],"loss_changes":[1.035293E4,4.0937422E3,2.684731E3,3.3795996E2,1.4980476E3,5.2970215E2,1.1287549E3,5.4463867E1,8.323218E1,7.084812E2,1.1698263E3,2.1521869E2,6.6626465E1,6.119357E2,2.2666504E2,3.460842E0,3.8768066E1,2.9770264E1,4.200769E1,1.1326853E2,2.870774E2,2.4852356E2,6.127186E2,2.5915813E0,6.186157E0,2.9357891E1,1.7862793E1,1.3673453E2,1.7956259E2,1.2835547E2,1.8978455E1,0E0,7.1169996E-1,3.805063E1,3.9291504E1,1.4147095E1,1.8402344E1,7.3635864E0,7.311737E0,2.6285439E1,2.0408707E1,7.569922E1,7.138629E1,5.473106E2,1.2009851E2,2.2327121E2,1.7181091E2,1.9702911E-2,2.2579014E-2,0E0,0E0,0E0,0E0,1.9762085E1,1.1804199E-1,1.4636871E1,7.3879395E0,1.054578E2,9.5117676E1,1.880708E2,1.2339307E2,0E0,7.068115E0,0E0,0E0,0E0,0E0,0E0,0E0,0E0,0E0,0E0,0E0,0E0,0E0,0E0,0E0,0E0,0E0,0E0,0E0,0E0,0E0,0E0,0E0,0E0,0E0,0E0,0E0,0E0,0E0,0E0,0E0,0E0,0E0,0E0,0E0,0E0,0E0,0E0,0E0,0E0,0E0,0E0,0E0,0E0,0E0,0E0,0E0,0E0,0E0,0E0,0E0,0E0,0E0],"parents":[2147483647,0,0,1,1,2,2,3,3,4,4,5,5,6,6,7,7,8,8,9,9,10,10,11,11,12,12,13,13,14,14,15,15,16,16,17,17,18,18,19,19,20,20,21,21,22,22,23,23,24,24,25,25,26,26,27,27,28,28,29,29,30,30,32,32,33,33,34,34,35,35,36,36,37,37,38,38,39,39,40,40,41,41,42,42,43,43,44,44,45,45,46,46,47,47,48,48,53,53,54,54,55,55,56,56,57,57,58,58,59,59,60,60,62,62],"right_children":[2,4,6,8,10,12,14,16,18,20,22,24,26,28,30,32,34,36,38,40,42,44,46,48,50,52,54,56,58,60,62,-1,64,66,68,70,72,74,76,78,80,82,84,86,88,90,92,94,96,-1,-1,-1,-1,98,100,102,104,106,108,110,112,-1,114,-1,-1,-1,-1,-1,-1,-1,-1,-1,-1,-1,-1,-1,-1,-1,-1,-1,-1,-1,-1,-1,-1,-1,-1,-1,-1,-1,-1,-1,-1,-1,-1,-1,-1,-1,-1,-1,-1,-1,-1,-1,-1,-1,-1,-1,-1,-1,-1,-1,-1,-1,-1],"split_conditions":[1.4252386E-3,-1.4172418E0,-2.9997375E0,-1.8314588E0,-3.4017656E-3,-3.3769987E0,2.7482092E-1,-2.879962E0,3.4599653E-1,-1.5335615E0,-6.795459E-1,1.3588542E0,-9.684723E-1,-9.684723E-1,1.5390978E0,-1.141929E0,-1.0359359E0,-1.269422E0,-1.6044636E0,-3.6827183E-1,-5.037204E-1,-9.51453E-1,-9.0452594E-1,1.3209491E0,1.4031628E0,-3.9525177E0,-2.5950875E0,-8.748481E-1,-7.158101E-1,-1.2175148E0,-1.0777657E0,-1.7162578E-2,-2.0756328E-2,9.1368574E-1,9.8323095E-1,-1.0553193E0,1.7429274E0,-1.1237738E0,-1.0449467E0,-6.192518E-1,3.36245E-1,-5.8537036E-1,2.4417078E-1,-1.896946E0,-8.6558634E-1,4.7941405E-1,-3.385616E-2,1.2953528E0,-1.0937308E0,8.2037546E-2,1.7767736E-1,1.125034E-1,-2.161877E-2,-3.9525177E0,3.8076672E-1,-9.456831E-1,-2.3202404E-1,1.4171628E0,1.0795347E-1,-1.0412931E0,1.2242666E0,-9.963238E-2,-2.9407483E-1,2.6000772E-2,-1.010933E-2,1.733539E-1,4.2094484E-2,7.513141E-2,9.3426436E-2,-2.1648703E-3,5.3283036E-2,6.838499E-2,9.62993E-2,4.7296256E-2,6.314758E-2,3.6500584E-2,4.7085587E-2,9.694887E-2,-4.047661E-3,-3.330238E-2,4.814911E-2,6.479403E-2,4.1904427E-2,3.5143152E-2,1.2385059E-2,6.7348175E-2,-1.4984064E-2,5.5579927E-2,2.580647E-2,1.5292952E-3,2.994783E-2,-4.9772244E-2,-1.50876045E-2,-1.989872E-2,-7.6857246E-3,6.130123E-3,2.5506845E-2,1.6625236E-1,1.1975618E-1,5.6153156E-2,1.1390451E-1,2.6663199E-2,4.0542312E-2,-3.916571E-2,-1.406297E-2,1.331231E-2,-5.7503015E-2,-4.621932E-2,-2.2039754E-2,-1.4027804E-2,-4.176751E-2,-4.469936E-2,-1.2526586E-2,-8.647348E-2,-6.60932E-2],"split_indices":[5,5,2,5,0,7,5,7,0,0,7,5,0,0,0,2,7,3,5,2,5,2,5,5,5,2,7,4,2,0,1,0,0,2,2,2,3,1,1,1,3,0,7,3,7,7,4,5,1,0,0,0,0,2,5,7,3,0,3,4,0,0,7,0,0,0,0,0,0,0,0,0,0,0,0,0,0,0,0,0,0,0,0,0,0,0,0,0,0,0,0,0,0,0,0,0,0,0,0,0,0,0,0,0,0,0,0,0,0,0,0,0,0,0,0],"split_type":[0,0,0,0,0,0,0,0,0,0,0,0,0,0,0,0,0,0,0,0,0,0,0,0,0,0,0,0,0,0,0,0,0,0,0,0,0,0,0,0,0,0,0,0,0,0,0,0,0,0,0,0,0,0,0,0,0,0,0,0,0,0,0,0,0,0,0,0,0,0,0,0,0,0,0,0,0,0,0,0,0,0,0,0,0,0,0,0,0,0,0,0,0,0,0,0,0,0,0,0,0,0,0,0,0,0,0,0,0,0,0,0,0,0,0],"sum_hessian":[3.4925E4,1.9484E4,1.5441E4,4.044E3,1.544E4,4.81E2,1.496E4,1.493E3,2.551E3,4.657E3,1.0783E4,1.45E2,3.36E2,3.367E3,1.1593E4,2.1E1,1.472E3,1.31E3,1.241E3,4.34E2,4.223E3,2.413E3,8.37E3,1.26E2,1.9E1,1.7E1,3.19E2,9.79E2,2.388E3,1.1234E4,3.59E2,8E0,1.3E1,3.3E1,1.439E3,2.52E2,1.058E3,4.97E2,7.44E2,3E1,4.04E2,1.736E3,2.487E3,9.12E2,1.501E3,3.329E3,5.041E3,1.23E2,3E0,5E0,1.4E1,5E0,1.2E1,1.28E2,1.91E2,8.45E2,1.34E2,4.83E2,1.905E3,2.556E3,8.678E3,1.06E2,2.53E2,1.2E1,1E0,2.5E1,8E0,4.68E2,9.71E2,1.2E1,2.4E2,9.89E2,6.9E1,1.12E2,3.85E2,4.52E2,2.92E2,2.1E1,9E0,3.97E2,7E0,1.209E3,5.27E2,2.072E3,4.15E2,3E2,6.12E2,9.79E2,5.22E2,2.351E3,9.78E2,3.86E2,4.655E3,1.21E2,2E0,1E0,2E0,5.6E1,7.2E1,3E0,1.88E2,5.41E2,3.04E2,4.4E1,9E1,4.24E2,5.9E1,5.91E2,1.314E3,1.014E3,1.542E3,8.368E3,3.1E2,8E1,1.73E2],"tree_param":{"num_deleted":"0","num_feature":"9","num_nodes":"115","size_leaf_vector":"1"}},{"base_weights":[-1.3738951E-3,-3.032243E-1,6.701875E-1,6.1788344E-1,-6.210191E-1,3.906652E-1,1.1529E0,1.6060742E0,5.252131E-1,-7.712762E-1,-3.8048685E-1,1.4681756E0,2.652523E-1,1.5578853E0,9.804393E-1,7.826154E-1,2.3960118E0,1.4740865E-1,6.857141E-1,-5.115655E-1,-8.603752E-1,-1.994039E-1,-7.772123E-1,1.6106609E0,1.1497022E-1,7.601142E-1,1.5226634E-1,1.6337633E0,1.2053796E0,7.9519737E-1,1.4371169E0,1.1020978E-1,6.7029946E-2,2.6997318E0,1.0827761E-1,8.401335E-1,-1.944746E-1,1.4015862E0,6.0613656E-1,6.4935225E-1,-6.266404E-1,1.5771179E0,-8.6325127E-1,-3.1382722E-1,5.3708486E-2,-1.303067E0,-5.6126845E-1,3.091716E0,1.5283028E0,3.6140848E-2,3.468403E-2,-3.9534014E-2,8.0421644E-1,3.901701E-1,-2.3072268E-1,8.712456E-2,1.5121691E0,1.0847002E0,1.4003414E0,3.3289194E0,7.624068E-1,1.3944823E0,1.379653E-1,-1.8473212E-2,2.7857974E-2,1.6450946E-1,1.2165674E-1,1.4959104E-2,6.405547E-2,8.004172E-4,-4.645661E-2,-3.5616286E-2,7.291716E-2,-3.6316957E-2,3.2620087E-2,3.9757054E-2,-3.904606E-2,-3.9521184E-2,-1.348223E-2,1.428157E-1,-1.3667031E-2,-4.3350663E-2,3.1947818E-2,-2.700589E-2,-8.761355E-3,1.8542862E-2,-9.065392E-3,4.3227933E-2,-6.752233E-2,-1.7162321E-2,-3.0223329E-2,2.910328E-2,1.6174263E-1,7.12484E-2,1.0073382E-1,8.138867E-3,-9.479747E-3,2.2552779E-2,4.506725E-2,4.126697E-2,9.326871E-4,-2.0489356E-2,-9.3633094E-4,8.5888766E-2,6.933696E-2,6.766402E-2,4.564066E-2,7.51883E-2,4.100655E-2,5.991397E-2,1.782497E-1,4.255705E-2,2.8422922E-2,7.09449E-2,2.454873E-2],"categories":[],"categories_nodes":[],"categories_segments":[],"categories_sizes":[],"default_left":[0,0,0,0,0,0,0,0,0,0,0,0,0,0,0,0,0,0,0,0,0,0,0,0,0,0,0,0,0,0,0,0,0,0,0,0,0,0,0,0,0,0,0,0,0,0,0,0,0,0,0,0,0,0,0,0,0,0,0,0,0,0,0,0,0,0,0,0,0,0,0,0,0,0,0,0,0,0,0,0,0,0,0,0,0,0,0,0,0,0,0,0,0,0,0,0,0,0,0,0,0,0,0,0,0,0,0,0,0,0,0,0,0,0,0],"id":3,"left_children":[1,3,5,7,9,11,13,15,17,19,21,23,25,27,29,31,33,35,37,39,41,43,45,47,49,51,53,55,57,59,61,63,-1,65,-1,67,69,71,73,75,77,79,81,83,85,87,89,91,93,-1,95,-1,97,99,101,-1,103,105,107,109,111,113,-1,-1,-1,-1,-1,-1,-1,-1,-1,-1,-1,-1,-1,-1,-1,-1,-1,-1,-1,-1,-1,-1,-1,-1,-1,-1,-1,-1,-1,-1,-1,-1,-1,-1,-1,-1,-1,-1,-1,-1,-1,-1,-1,-1,-1,-1,-1,-1,-1,-1,-1,-1,-1],"loss_changes":[7.060021E3,7.0339385E3,1.4567817E3,5.6363086E2,6.4537744E2,9.240602E2,2.7505518E2,3.4157874E2,3.417152E2,2.5398389E2,4.9345917E2,1.3728967E2,3.4257166E2,2.9619385E1,2.3403345E2,9.740201E1,1.29823E1,3.9851312E2,2.2451318E2,3.7593536E2,5.874121E1,1.3668834E2,2.4375269E2,7.394995E1,3.342247E0,7.8536194E1,4.5484268E2,1.0175781E1,3.4924927E0,1.619646E2,4.1305298E1,2.5718279E1,0E0,9.624939E0,0E0,1.322486E2,1.7428613E2,4.8430542E1,2.2006128E2,5.3584457E1,1.4935297E2,2.4451736E1,4.6759766E1,1.0183804E2,1.0963389E2,6.5458496E1,1.4183411E1,9.971466E0,2.7938232E1,0E0,1.812037E0,0E0,3.7600037E1,4.9777423E2,7.261164E1,0E0,9.609863E0,5.0431976E0,3.447342E0,8.3029175E0,3.317859E1,1.6465698E1,0E0,0E0,0E0,0E0,0E0,0E0,0E0,0E0,0E0,0E0,0E0,0E0,0E0,0E0,0E0,0E0,0E0,0E0,0E0,0E0,0E0,0E0,0E0,0E0,0E0,0E0,0E0,0E0,0E0,0E0,0E0,0E0,0E0,0E0,0E0,0E0,0E0,0E0,0E0,0E0,0E0,0E0,0E0,0E0,0E0,0E0,0E0,0E0,0E0,0E0,0E0,0E0,0E0],"parents":[2147483647,0,0,1,1,2,2,3,3,4,4,5,5,6,6,7,7,8,8,9,9,10,10,11,11,12,12,13,13,14,14,15,15,16,16,17,17,18,18,19,19,20,20,21,21,22,22,23,23,24,24,25,25,26,26,27,27,28,28,29,29,30,30,31,31,33,33,35,35,36,36,37,37,38,38,39,39,40,40,41,41,42,42,43,43,44,44,45,45,46,46,47,47,48,48,50,50,52,52,53,53,54,54,56,56,57,57,58,58,59,59,60,60,61,61],"right_children":[2,4,6,8,10,12,14,16,18,20,22,24,26,28,30,32,34,36,38,40,42,44,46,48,50,52,54,56,58,60,62,64,-1,66,-1,68,70,72,74,76,78,80,82,84,86,88,90,92,94,-1,96,-1,98,100,102,-1,104,106,108,110,112,114,-1,-1,-1,-1,-1,-1,-1,-1,-1,-1,-1,-1,-1,-1,-1,-1,-1,-1,-1,-1,-1,-1,-1,-1,-1,-1,-1,-1,-1,-1,-1,-1,-1,-1,-1,-1,-1,-1,-1,-1,-1,-1,-1,-1,-1,-1,-1,-1,-1,-1,-1,-1,-1],"split_conditions":[7.6671195E-1,-7.3670495E-1,1.3005284E0,-3.9227908E0,4.696131E-1,-3.5027546E-1,-6.689549E-1,-3.3769987E0,-7.3609406E-1,-1.1074233E0,1.5390978E0,3.611679E-1,-1.3929557E0,1.5789399E0,1.9858335E0,2.250924E-1,-2.5950875E0,-1.2366613E0,-7.897303E-1,-1.6552461E0,-1.0553193E0,1.2672844E0,-8.483169E-3,5.6976676E-1,-9.6997344E-1,-4.1314676E-1,-8.045654E-1,-2.510842E-1,1.469976E0,1.0164056E0,2.586382E-1,-9.684723E-1,6.7029946E-2,-1.0866214E0,1.0827761E-1,1.1729766E0,-1.5261494E0,-1.5777686E0,-1.2771223E0,2.1070106E-1,1.8015096E-1,-2.2439733E-1,9.987887E-1,9.541033E-1,-1.9502895E-1,-8.030264E-1,6.666331E-1,-1.2771223E0,9.943082E-1,3.6140848E-2,1.0400599E0,-3.9534014E-2,-1.0679222E0,3.0926827E-1,1.1665974E0,8.712456E-2,1.469976E0,5.8715093E-1,1.73813E0,-5.3718096E-1,1.5634915E0,1.3346208E0,1.379653E-1,-1.8473212E-2,2.7857974E-2,1.6450946E-1,1.2165674E-1,1.4959104E-2,6.405547E-2,8.004172E-4,-4.645661E-2,-3.5616286E-2,7.291716E-2,-3.6316957E-2,3.2620087E-2,3.9757054E-2,-3.904606E-2,-3.9521184E-2,-1.348223E-2,1.428157E-1,-1.3667031E-2,-4.3350663E-2,3.1947818E-2,-2.700589E-2,-8.761355E-3,1.8542862E-2,-9.065392E-3,4.3227933E-2,-6.752233E-2,-1.7162321E-2,-3.0223329E-2,2.910328E-2,1.6174263E-1,7.12484E-2,1.0073382E-1,8.138867E-3,-9.479747E-3,2.2552779E-2,4.506725E-2,4.126697E-2,9.326871E-4,-2.0489356E-2,-9.3633094E-4,8.5888766E-2,6.933696E-2,6.766402E-2,4.564066E-2,7.51883E-2,4.100655E-2,5.991397E-2,1.782497E-1,4.255705E-2,2.8422922E-2,7.09449E-2,2.454873E-2],"split_indices":[2,7,2,2,4,7,0,7,2,0,0,0,8,2,2,4,7,6,6,8,2,0,6,6,1,4,1,7,6,6,0,0,0,1,0,4,7,0,1,7,2,6,1,4,7,6,6,1,2,0,4,0,1,7,1,0,6,7,6,6,6,7,0,0,0,0,0,0,0,0,0,0,0,0,0,0,0,0,0,0,0,0,0,0,0,0,0,0,0,0,0,0,0,0,0,0,0,0,0,0,0,0,0,0,0,0,0,0,0,0,0,0,0,0,0],"split_type":[0,0,0,0,0,0,0,0,0,0,0,0,0,0,0,0,0,0,0,0,0,0,0,0,0,0,0,0,0,0,0,0,0,0,0,0,0,0,0,0,0,0,0,0,0,0,0,0,0,0,0,0,0,0,0,0,0,0,0,0,0,0,0,0,0,0,0,0,0,0,0,0,0,0,0,0,0,0,0,0,0,0,0,0,0,0,0,0,0,0,0,0,0,0,0,0,0,0,0,0,0,0,0,0,0,0,0,0,0,0,0,0,0,0,0],"sum_hessian":[3.4826E4,2.4027E4,1.0799E4,6.163E3,1.7864E4,6.84E3,3.959E3,5.27E2,5.636E3,1.0994E4,6.87E3,7.12E2,6.128E3,1.18E3,2.779E3,2.59E2,2.68E2,1.681E3,3.955E3,2.81E3,8.184E3,4.718E3,2.152E3,6.44E2,6.8E1,1.138E3,4.99E3,9.68E2,2.12E2,1.979E3,8E2,1.18E2,1.41E2,1.11E2,1.57E2,5.55E2,1.126E3,3.94E2,3.561E3,2.53E2,2.557E3,9E0,8.175E3,3.249E3,1.469E3,6.25E2,1.527E3,3.2E1,6.12E2,7E0,6.1E1,3.1E1,1.107E3,3.078E3,1.912E3,5.04E2,4.64E2,1.35E2,7.7E1,2.4E1,1.955E3,7.77E2,2.3E1,5.7E1,6.1E1,3.1E1,8E1,2.5E2,3.05E2,8.76E2,2.5E2,1E1,3.84E2,1.19E2,3.442E3,2.3E2,2.3E1,1.752E3,8.05E2,5E0,4E0,8.155E3,2E1,1.233E3,2.016E3,6.25E2,8.44E2,1.3E1,6.12E2,2.54E2,1.273E3,2E0,3E1,5.08E2,1.04E2,3.9E1,2.2E1,2.4E2,8.67E2,1.417E3,1.661E3,1.036E3,8.76E2,1.71E2,2.93E2,5E1,8.5E1,6.4E1,1.3E1,3E0,2.1E1,1.339E3,6.16E2,7.56E2,2.1E1],"tree_param":{"num_deleted":"0","num_feature":"9","num_nodes":"115","size_leaf_vector":"1"}},{"base_weights":[1.3175643E-3,4.3699366E-1,-5.602708E-1,1.2489179E0,2.2206903E-1,5.870438E-1,-6.8111837E-1,1.5560194E0,1.0136095E0,6.466187E-1,3.5609946E-2,2.4436855E-1,1.7524377E0,4.4174846E-2,-7.3936117E-1,2.0863381E-1,1.5774095E0,1.1893103E0,8.3429915E-1,-4.2662242E-1,7.5954604E-1,5.9316593E-1,-1.235822E-1,1.548465E-1,2.9456224E0,2.13823E0,-1.2683413E0,5.789489E-1,-5.896833E-1,-3.8415617E-1,-8.1026596E-1,2.6198609E-2,-1.775041E-2,3.0228856E0,1.53671E0,7.360262E-1,1.249913E0,9.6281594E-1,6.926774E-1,-6.135238E-1,1.4124986E0,1.0506035E0,5.5918115E-1,5.579748E-2,8.4102213E-1,1.7902291E-1,-3.2459494E-1,4.757803E-1,-3.106752E-1,8.959554E-1,1.7496216E-1,1.2828642E0,2.2063432E0,-1.1141014E-1,-7.2012894E-2,7.603145E-1,3.5801822E-1,-7.5068927E-1,-1.4393002E-3,-8.63657E-1,-2.0199522E-1,-7.861263E-1,-1.4838352E0,7.5081E-2,1.5841179E-1,8.142516E-2,6.664799E-2,4.122588E-2,-3.1134416E-3,1.1900572E-1,6.1716445E-2,1.04210235E-1,4.692499E-2,3.8015094E-2,2.6772667E-2,-2.2614015E-2,-3.898685E-2,8.8086635E-2,-3.1887267E-3,2.041812E-2,5.7504345E-2,3.1288885E-2,4.2218897E-3,8.079577E-3,-1.2737391E-2,5.2439243E-2,6.718997E-3,1.1742209E-3,2.7171085E-2,-1.0817611E-2,-2.8387904E-2,2.2687519E-2,1.2094154E-1,-2.465744E-2,3.2873467E-2,2.0957312E-3,5.669896E-2,6.719423E-2,2.0388031E-2,1.2255571E-1,1.03084326E-1,-1.2813473E-2,5.9436164E-3,4.611637E-2,2.9773433E-2,2.756307E-2,8.546996E-3,2.8394127E-2,-3.7790775E-2,-8.92512E-3,1.789685E-2,-3.6721073E-2,-5.4981656E-2,2.9035171E-2,-1.5390952E-2,-3.8817704E-2,-7.054513E-2,-9.2413194E-2,-6.6033125E-2],"categories":[],"categories_nodes":[],"categories_segments":[],"categories_sizes":[],"default_left":[0,0,0,0,0,0,0,0,0,0,0,0,0,0,0,0,0,0,0,0,0,0,0,0,0,0,0,0,0,0,0,0,0,0,0,0,0,0,0,0,0,0,0,0,0,0,0,0,0,0,0,0,0,0,0,0,0,0,0,0,0,0,0,0,0,0,0,0,0,0,0,0,0,0,0,0,0,0,0,0,0,0,0,0,0,0,0,0,0,0,0,0,0,0,0,0,0,0,0,0,0,0,0,0,0,0,0,0,0,0,0,0,0,0,0,0,0,0,0],"id":4,"left_children":[1,3,5,7,9,11,13,15,17,19,21,23,25,27,29,31,33,35,37,39,41,43,45,47,49,51,53,55,57,59,61,-1,-1,63,65,67,69,71,73,75,77,79,81,83,85,87,89,91,93,95,-1,97,99,101,-1,103,105,107,109,111,113,115,117,-1,-1,-1,-1,-1,-1,-1,-1,-1,-1,-1,-1,-1,-1,-1,-1,-1,-1,-1,-1,-1,-1,-1,-1,-1,-1,-1,-1,-1,-1,-1,-1,-1,-1,-1,-1,-1,-1,-1,-1,-1,-1,-1,-1,-1,-1,-1,-1,-1,-1,-1,-1,-1,-1,-1,-1],"loss_changes":[8.536313E3,3.428174E3,2.1137056E3,2.955703E2,1.2298246E3,5.798297E2,5.825654E2,5.1029297E1,7.2446045E1,5.749253E2,9.583104E2,2.7135156E2,3.87292E2,3.4812552E2,3.2118457E2,5.340415E0,9.854297E1,3.1357544E1,2.0391357E1,1.5623447E2,2.4959521E2,3.1934296E2,5.1094818E2,1.6284622E2,3.7715393E1,1.4240234E1,7.3975677E0,2.2046356E1,4.4512985E1,1.855238E2,1.7183643E2,0E0,0E0,5.6349487E0,2.9773682E1,1.0011887E1,1.529187E1,1.4513733E1,5.483124E0,1.066246E1,2.1766075E1,1.1121411E2,8.034729E1,2.494438E1,2.4078076E2,1.9002872E2,1.3271747E2,2.6511856E1,7.893829E1,1.7820091E0,0E0,7.335968E-1,4.506714E0,2.3061472E-1,0E0,7.596466E0,9.052128E0,2.9234009E0,6.554385E0,1.7032867E1,1.27899765E2,6.1632324E1,1.938263E1,0E0,0E0,0E0,0E0,0E0,0E0,0E0,0E0,0E0,0E0,0E0,0E0,0E0,0E0,0E0,0E0,0E0,0E0,0E0,0E0,0E0,0E0,0E0,0E0,0E0,0E0,0E0,0E0,0E0,0E0,0E0,0E0,0E0,0E0,0E0,0E0,0E0,0E0,0E0,0E0,0E0,0E0,0E0,0E0,0E0,0E0,0E0,0E0,0E0,0E0,0E0,0E0,0E0,0E0,0E0,0E0],"parents":[2147483647,0,0,1,1,2,2,3,3,4,4,5,5,6,6,7,7,8,8,9,9,10,10,11,11,12,12,13,13,14,14,15,15,16,16,17,17,18,18,19,19,20,20,21,21,22,22,23,23,24,24,25,25,26,26,27,27,28,28,29,29,30,30,33,33,34,34,35,35,36,36,37,37,38,38,39,39,40,40,41,41,42,42,43,43,44,44,45,45,46,46,47,47,48,48,49,49,51,51,52,52,53,53,55,55,56,56,57,57,58,58,59,59,60,60,61,61,62,62],"right_children":[2,4,6,8,10,12,14,16,18,20,22,24,26,28,30,32,34,36,38,40,42,44,46,48,50,52,54,56,58,60,62,-1,-1,64,66,68,70,72,74,76,78,80,82,84,86,88,90,92,94,96,-1,98,100,102,-1,104,106,108,110,112,114,116,118,-1,-1,-1,-1,-1,-1,-1,-1,-1,-1,-1,-1,-1,-1,-1,-1,-1,-1,-1,-1,-1,-1,-1,-1,-1,-1,-1,-1,-1,-1,-1,-1,-1,-1,-1,-1,-1,-1,-1,-1,-1,-1,-1,-1,-1,-1,-1,-1,-1,-1,-1,-1,-1,-1,-1,-1],"split_conditions":[1.1859815E-2,-1.4172418E0,-8.898131E-1,-1.7733989E0,-3.4017656E-3,-6.387939E-1,-1.1806252E0,-2.3937886E0,3.4599653E-1,-1.5335615E0,-6.795459E-1,1.2953528E0,-1.0150286E0,1.366565E-1,2.629312E-1,-4.1873384E-1,9.263701E-1,-1.3760082E0,1.4866154E0,-1.4395334E-1,-5.037204E-1,-2.313835E-1,-9.0452594E-1,6.8038815E-1,-2.6771615E0,2.629312E-1,-9.378349E-1,9.740787E-1,-1.6552461E0,1.7563887E-1,1.5390978E0,2.6198609E-2,-1.775041E-2,-1.4020344E0,-1.8899195E0,-1.8836848E-1,3.7314534E-1,5.620748E-1,-1.4752799E0,4.8941782E-1,-6.192518E-1,-1.005765E0,-1.065264E0,-1.5026577E-1,1.5421997E0,4.7941405E-1,-4.0690756E-1,4.9526635E-1,-9.2867327E-1,-1.0937308E0,1.7496216E-1,-1.0293846E0,-2.4779162E0,-1.0582559E0,-7.2012894E-2,4.4031224E-1,3.187994E-1,-1.1519412E0,1.4503638E0,1.5390978E0,-9.684723E-1,1.8311415E0,-1.0866214E0,7.5081E-2,1.5841179E-1,8.142516E-2,6.664799E-2,4.122588E-2,-3.1134416E-3,1.1900572E-1,6.1716445E-2,1.04210235E-1,4.692499E-2,3.8015094E-2,2.6772667E-2,-2.2614015E-2,-3.898685E-2,8.8086635E-2,-3.1887267E-3,2.041812E-2,5.7504345E-2,3.1288885E-2,4.2218897E-3,8.079577E-3,-1.2737391E-2,5.2439243E-2,6.718997E-3,1.1742209E-3,2.7171085E-2,-1.0817611E-2,-2.8387904E-2,2.2687519E-2,1.2094154E-1,-2.465744E-2,3.2873467E-2,2.0957312E-3,5.669896E-2,6.719423E-2,2.0388031E-2,1.2255571E-1,1.03084326E-1,-1.2813473E-2,5.9436164E-3,4.611637E-2,2.9773433E-2,2.756307E-2,8.546996E-3,2.8394127E-2,-3.7790775E-2,-8.92512E-3,1.789685E-2,-3.6721073E-2,-5.4981656E-2,2.9035171E-2,-1.5390952E-2,-3.8817704E-2,-7.054513E-2,-9.2413194E-2,-6.6033125E-2],"split_indices":[5,5,7,5,0,0,8,6,0,0,7,5,6,7,5,8,6,3,6,8,5,8,5,8,6,5,6,0,8,3,0,0,0,6,5,0,6,6,5,7,1,8,0,5,8,7,5,5,0,1,0,1,3,1,0,5,5,1,3,0,0,7,1,0,0,0,0,0,0,0,0,0,0,0,0,0,0,0,0,0,0,0,0,0,0,0,0,0,0,0,0,0,0,0,0,0,0,0,0,0,0,0,0,0,0,0,0,0,0,0,0,0,0,0,0,0,0,0,0],"split_type":[0,0,0,0,0,0,0,0,0,0,0,0,0,0,0,0,0,0,0,0,0,0,0,0,0,0,0,0,0,0,0,0,0,0,0,0,0,0,0,0,0,0,0,0,0,0,0,0,0,0,0,0,0,0,0,0,0,0,0,0,0,0,0,0,0,0,0,0,0,0,0,0,0,0,0,0,0,0,0,0,0,0,0,0,0,0,0,0,0,0,0,0,0,0,0,0,0,0,0,0,0,0,0,0,0,0,0,0,0,0,0,0,0,0,0,0,0,0,0],"sum_hessian":[3.4887E4,1.9646E4,1.5241E4,4.111E3,1.5535E4,1.452E3,1.3789E4,1.781E3,2.33E3,4.74E3,1.0795E4,1.123E3,3.29E2,1.025E3,1.2764E4,2.8E1,1.753E3,1.174E3,1.156E3,4.51E2,4.289E3,2.397E3,8.398E3,1.088E3,3.5E1,2.92E2,3.7E1,5.56E2,4.69E2,2.125E3,1.0639E4,1.8E1,1E1,4.6E1,1.707E3,1.4E2,1.034E3,6.03E2,5.53E2,4.1E2,4.1E1,1.747E3,2.542E3,7.57E2,1.64E3,3.352E3,5.046E3,6.44E2,4.44E2,8E0,2.7E1,2.3E1,2.69E2,5E0,3.2E1,3.04E2,2.52E2,3.68E2,1.01E2,5.84E2,1.541E3,1.0273E4,3.66E2,5E0,4.1E1,1.172E3,5.35E2,1.26E2,1.4E1,1.2E1,1.022E3,1.1E1,5.92E2,3.84E2,1.69E2,2.1E2,2E2,3.3E1,8E0,2.35E2,1.512E3,2.229E3,3.13E2,5.65E2,1.92E2,1.267E3,3.73E2,2.35E3,1.002E3,3.493E3,1.553E3,6.38E2,6E0,3.74E2,7E1,2E0,6E0,2.1E1,2E0,9.4E1,1.75E2,3E0,2E0,1.51E2,1.53E2,1.23E2,1.29E2,1E0,3.67E2,6.8E1,3.3E1,3.8E2,2.04E2,1.83E2,1.358E3,1.0117E4,1.56E2,1.1E2,2.56E2],"tree_param":{"num_deleted":"0","num_feature":"9","num_nodes":"119","size_leaf_vector":"1"}},{"base_weights":[2.64551E-3,3.8004032E-1,-5.8289397E-1,1.0191238E0,1.3486873E-1,1.461675E0,-6.5906316E-1,1.3703973E0,7.45532E-1,5.029478E-1,-7.102356E-2,3.7270832E-1,2.0689304E0,6.3350804E-2,-7.1656066E-1,1.566799E0,1.1969364E0,1.0300432E0,5.5327153E-1,5.648647E-1,-4.034878E-1,-3.2387626E-1,2.612084E-1,-3.3142865E-1,2.2719812E0,-2.0040369E-2,2.1596143E0,3.3923498E-1,-5.93052E-1,-3.370141E-1,-7.6485395E-1,1.5003434E0,2.5749419E0,1.3153596E0,1.0472362E0,7.1287143E-1,1.1768538E0,8.5959846E-1,4.55964E-1,6.2259197E-2,5.036575E-1,-5.3106034E-1,2.4980457E0,-2.4217227E-1,-5.5620813E-1,6.153657E-1,-4.4310503E-2,-3.6288685E-1,5.276039E-1,9.761355E-2,1.5849453E-1,2.0505166E0,1.6475622E-1,5.108908E-1,-6.24639E-1,-7.041505E-1,2.3014963E-1,3.13337E-1,-5.7404923E-1,-7.4210083E-1,-1.4074528E0,-6.9168495E-4,7.62422E-2,1.4023684E-1,6.493002E-2,6.287571E-2,8.562194E-2,9.937471E-2,5.07645E-2,4.6489894E-2,3.1259302E-2,1.666731E-1,5.7821084E-2,3.126077E-2,4.8451256E-2,4.2052697E-3,2.7932977E-2,3.3828627E-2,8.528906E-3,1.832213E-2,-3.130572E-2,1.5440184E-1,6.913109E-2,2.9986098E-3,-1.8979494E-2,-4.4761524E-2,-2.676238E-2,-3.4375433E-2,3.7309166E-2,9.143704E-3,-9.16106E-3,-1.7465284E-2,-2.3139954E-2,3.245144E-2,1.1515554E-2,1.062752E-1,8.4865965E-2,1.979893E-2,4.0705502E-2,-3.5670362E-2,-1.4950975E-2,3.1306554E-2,-3.5594165E-2,-2.8689576E-3,1.3455053E-2,2.7377164E-2,-1.8396344E-2,-1.17936265E-2,-4.060145E-2,-3.783524E-2,-4.6228557E-3,-8.116463E-2,-5.7120796E-2],"categories":[],"categories_nodes":[],"categories_segments":[],"categories_sizes":[],"default_left":[0,0,0,0,0,0,0,0,0,0,0,0,0,0,0,0,0,0,0,0,0,0,0,0,0,0,0,0,0,0,0,0,0,0,0,0,0,0,0,0,0,0,0,0,0,0,0,0,0,0,0,0,0,0,0,0,0,0,0,0,0,0,0,0,0,0,0,0,0,0,0,0,0,0,0,0,0,0,0,0,0,0,0,0,0,0,0,0,0,0,0,0,0,0,0,0,0,0,0,0,0,0,0,0,0,0,0,0,0,0,0,0,0],"id":5,"left_children":[1,3,5,7,9,11,13,15,17,19,21,23,25,27,29,31,33,35,37,39,41,43,45,47,49,-1,51,53,55,57,59,61,63,65,67,69,71,73,75,-1,77,79,81,83,85,87,89,91,93,-1,-1,95,-1,97,99,101,103,105,107,109,111,-1,-1,-1,-1,-1,-1,-1,-1,-1,-1,-1,-1,-1,-1,-1,-1,-1,-1,-1,-1,-1,-1,-1,-1,-1,-1,-1,-1,-1,-1,-1,-1,-1,-1,-1,-1,-1,-1,-1,-1,-1,-1,-1,-1,-1,-1,-1,-1,-1,-1,-1,-1],"loss_changes":[7.703127E3,3.321117E3,2.1285894E3,5.63791E2,1.1611323E3,3.2391772E2,5.471709E2,8.574756E1,1.8026929E2,3.086836E2,8.25525E2,2.3746362E2,7.1414795E1,1.7622179E2,2.2338135E2,7.673364E1,2.2909912E1,6.118445E1,5.8478638E1,2.1361292E2,1.316215E2,1.0578735E2,4.5956006E2,3.7045298E0,7.590912E0,0E0,3.0903198E1,1.13655464E2,2.650151E1,2.1276111E2,1.572002E2,4.1979004E1,1.7768463E1,1.5326294E1,1.6305115E1,7.483734E0,3.619934E1,1.1576843E1,5.727353E1,0E0,2.718452E2,2.9064644E1,5.6017685E0,1.7150017E2,9.831787E0,3.357666E2,7.201814E1,9.315491E-3,3.1015277E-2,0E0,0E0,3.8082275E0,0E0,1.9956604E1,2.7927628E0,3.0585861E0,4.0742874E-1,5.9077724E1,8.117297E1,9.9120605E1,1.9254272E1,0E0,0E0,0E0,0E0,0E0,0E0,0E0,0E0,0E0,0E0,0E0,0E0,0E0,0E0,0E0,0E0,0E0,0E0,0E0,0E0,0E0,0E0,0E0,0E0,0E0,0E0,0E0,0E0,0E0,0E0,0E0,0E0,0E0,0E0,0E0,0E0,0E0,0E0,0E0,0E0,0E0,0E0,0E0,0E0,0E0,0E0,0E0,0E0,0E0,0E0,0E0,0E0],"parents":[2147483647,0,0,1,1,2,2,3,3,4,4,5,5,6,6,7,7,8,8,9,9,10,10,11,11,12,12,13,13,14,14,15,15,16,16,17,17,18,18,19,19,20,20,21,21,22,22,23,23,24,24,26,26,27,27,28,28,29,29,30,30,31,31,32,32,33,33,34,34,35,35,36,36,37,37,38,38,40,40,41,41,42,42,43,43,44,44,45,45,46,46,47,47,48,48,51,51,53,53,54,54,55,55,56,56,57,57,58,58,59,59,60,60],"right_children":[2,4,6,8,10,12,14,16,18,20,22,24,26,28,30,32,34,36,38,40,42,44,46,48,50,-1,52,54,56,58,60,62,64,66,68,70,72,74,76,-1,78,80,82,84,86,88,90,92,94,-1,-1,96,-1,98,100,102,104,106,108,110,112,-1,-1,-1,-1,-1,-1,-1,-1,-1,-1,-1,-1,-1,-1,-1,-1,-1,-1,-1,-1,-1,-1,-1,-1,-1,-1,-1,-1,-1,-1,-1,-1,-1,-1,-1,-1,-1,-1,-1,-1,-1,-1,-1,-1,-1,-1,-1,-1,-1,-1,-1,-1],"split_conditions":[1.406653E-1,-1.2736559E0,-2.9997375E0,-1.6044636E0,-2.2439733E-1,-3.1657467E0,-1.1806252E0,-1.8899195E0,4.0365973E-1,1.5421997E0,8.650227E-1,-2.2001278E0,-9.684723E-1,-2.4188493E-1,2.7482092E-1,2.3969065E-2,1.1142397E0,-1.005765E0,1.0164056E0,-2.0716333E0,1.501839E0,1.582936E0,5.418883E-1,1.3209491E0,4.5024765E-1,-2.0040369E-2,1.4031628E0,7.0826423E-1,1.3005284E0,-9.311959E-1,1.5390978E0,-9.51453E-1,-1.9232714E0,-1.8836848E-1,5.620748E-1,-1.4752799E0,-6.563428E-1,-8.441073E-1,-4.5123076E-1,6.2259197E-2,7.230112E-1,-1.1530892E0,-5.047009E-1,-7.1711165E-1,-1.484838E0,-1.5462154E0,-5.6523178E-2,-9.2867327E-1,2.6587127E-2,9.761355E-2,1.5849453E-1,-3.9227908E0,1.6475622E-1,1.1686837E-1,2.586382E-1,-1.2777448E0,1.365321E0,2.3770858E-1,-5.172145E-1,7.1631503E-1,6.837705E-2,-6.9168495E-4,7.62422E-2,1.4023684E-1,6.493002E-2,6.287571E-2,8.562194E-2,9.937471E-2,5.07645E-2,4.6489894E-2,3.1259302E-2,1.666731E-1,5.7821084E-2,3.126077E-2,4.8451256E-2,4.2052697E-3,2.7932977E-2,3.3828627E-2,8.528906E-3,1.832213E-2,-3.130572E-2,1.5440184E-1,6.913109E-2,2.9986098E-3,-1.8979494E-2,-4.4761524E-2,-2.676238E-2,-3.4375433E-2,3.7309166E-2,9.143704E-3,-9.16106E-3,-1.7465284E-2,-2.3139954E-2,3.245144E-2,1.1515554E-2,1.062752E-1,8.4865965E-2,1.979893E-2,4.0705502E-2,-3.5670362E-2,-1.4950975E-2,3.1306554E-2,-3.5594165E-2,-2.8689576E-3,1.3455053E-2,2.7377164E-2,-1.8396344E-2,-1.17936265E-2,-4.060145E-2,-3.783524E-2,-4.6228557E-3,-8.116463E-2,-5.7120796E-2],"split_indices":[5,5,2,5,6,3,8,5,0,8,2,6,0,6,5,0,4,8,6,3,4,0,0,5,5,0,5,5,2,4,0,2,5,0,6,5,4,2,3,0,4,5,3,5,3,0,8,0,4,0,0,2,0,2,0,0,2,6,6,2,8,0,0,0,0,0,0,0,0,0,0,0,0,0,0,0,0,0,0,0,0,0,0,0,0,0,0,0,0,0,0,0,0,0,0,0,0,0,0,0,0,0,0,0,0,0,0,0,0,0,0,0,0],"split_type":[0,0,0,0,0,0,0,0,0,0,0,0,0,0,0,0,0,0,0,0,0,0,0,0,0,0,0,0,0,0,0,0,0,0,0,0,0,0,0,0,0,0,0,0,0,0,0,0,0,0,0,0,0,0,0,0,0,0,0,0,0,0,0,0,0,0,0,0,0,0,0,0,0,0,0,0,0,0,0,0,0,0,0,0,0,0,0,0,0,0,0,0,0,0,0,0,0,0,0,0,0,0,0,0,0,0,0,0,0,0,0,0,0],"sum_hessian":[3.4857E4,2.1196E4,1.3661E4,5.876E3,1.532E4,4.9E2,1.3171E4,2.571E3,3.305E3,5.495E3,9.825E3,1.76E2,3.14E2,9.71E2,1.22E4,1.202E3,1.369E3,1.331E3,1.974E3,5.144E3,3.51E2,5.579E3,4.246E3,1.29E2,4.7E1,1.1E1,3.03E2,6.84E2,2.87E2,1.378E3,1.0822E4,1.13E3,7.2E1,7.6E2,6.09E2,4.23E2,9.08E2,4.74E2,1.5E3,4.23E2,4.721E3,3.37E2,1.4E1,4.129E3,1.45E3,1.966E3,2.28E3,1.25E2,4E0,3.7E1,1E1,2.79E2,2.4E1,5.81E2,1.03E2,2.53E2,3.4E1,3.68E2,1.01E3,1.0454E4,3.68E2,1.8E1,1.112E3,6E1,1.2E1,6.67E2,9.3E1,1.8E1,5.91E2,1.19E2,3.04E2,7E0,9.01E2,1.53E2,3.21E2,3.25E2,1.175E3,3.107E3,1.614E3,3.2E1,3.05E2,8E0,6E0,1.291E3,2.838E3,8.2E1,1.368E3,1.79E2,1.787E3,8.65E2,1.415E3,1.14E2,1.1E1,2E0,2E0,2.26E2,5.3E1,4.23E2,1.58E2,8E1,2.3E1,1E0,2.52E2,4E0,3E1,2.74E2,9.4E1,4.18E2,5.92E2,1.0224E4,2.3E2,2E2,1.68E2],"tree_param":{"num_deleted":"0","num_feature":"9","num_nodes":"113","size_leaf_vector":"1"}},{"base_weights":[3.5716506E-4,3.9902368E-1,-5.0472057E-1,1.1371533E0,2.0107882E-1,1.3632107E0,-5.67114E-1,1.4154086E0,9.189859E-1,5.539185E-1,4.1492652E-2,2.656866E-1,1.9675598E0,-1.4153926E-1,-6.811825E-1,1.8643016E-1,1.4360054E0,1.0689003E0,7.558421E-1,1.1827828E0,4.8957402E-1,-3.2952774E-1,3.2053337E-1,-3.1304488E-1,2.2071319E0,2.1380074E0,1.3019528E0,1.8146564E-1,-4.976337E-1,-6.674004E-2,-7.2241086E-1,2.4626283E-2,-1.6963243E-2,2.8254526E0,1.3900928E0,1.0420842E0,8.273617E-2,8.6777204E-1,6.253467E-1,1.1692221E0,1.3932368E-1,-1.7151648E-1,6.247697E-1,-2.2852683E-1,-5.280204E-1,5.235289E-1,-5.8479358E-2,-1.7071E-2,5.100166E-1,1.5129031E-1,9.227184E-2,2.031236E0,1.5610255E-1,-2.3082139E-2,1.8534753E0,5.178635E-1,-5.416482E-2,-7.552172E-1,-1.2099936E-1,3.130718E-1,-5.0487536E-1,-7.4709576E-1,-3.2514918E-1,6.717606E-2,1.4721982E-1,5.9928138E-2,7.467221E-2,5.4406203E-2,3.767219E-2,-1.881916E-2,4.4374444E-2,3.967663E-2,2.8251419E-2,5.944071E-2,1.8405104E-2,2.9925171E-2,-1.3360786E-2,3.816557E-2,1.989792E-2,-4.054065E-3,-1.7357914E-2,-4.9443714E-2,-2.3182468E-2,8.763387E-3,3.4578092E-2,3.559288E-2,-8.934032E-3,4.9401284E-3,2.9405976E-2,1.3965614E-1,9.790012E-2,4.6438407E-2,9.455678E-2,4.0944032E-2,2.2794867E-2,2.655745E-3,-3.0604217E-2,-5.226183E-2,-3.554167E-2,2.4042958E-2,-1.557068E-2,2.2604978E-2,-2.6207406E-2,5.3616375E-2,-2.9507497E-2,-3.6753464E-2,-5.872926E-2,-4.419036E-2,-5.7034576E-3],"categories":[],"categories_nodes":[],"categories_segments":[],"categories_sizes":[],"default_left":[0,0,0,0,0,0,0,0,0,0,0,0,0,0,0,0,0,0,0,0,0,0,0,0,0,0,0,0,0,0,0,0,0,0,0,0,0,0,0,0,0,0,0,0,0,0,0,0,0,0,0,0,0,0,0,0,0,0,0,0,0,0,0,0,0,0,0,0,0,0,0,0,0,0,0,0,0,0,0,0,0,0,0,0,0,0,0,0,0,0,0,0,0,0,0,0,0,0,0,0,0,0,0,0,0,0,0,0,0],"id":6,"left_children":[1,3,5,7,9,11,13,15,17,19,21,23,25,27,29,31,33,35,37,39,41,43,45,47,49,51,53,55,57,59,61,-1,-1,63,65,67,-1,69,71,73,-1,75,77,79,81,83,85,-1,87,-1,-1,89,-1,-1,91,93,95,97,99,101,103,105,107,-1,-1,-1,-1,-1,-1,-1,-1,-1,-1,-1,-1,-1,-1,-1,-1,-1,-1,-1,-1,-1,-1,-1,-1,-1,-1,-1,-1,-1,-1,-1,-1,-1,-1,-1,-1,-1,-1,-1,-1,-1,-1,-1,-1,-1,-1],"loss_changes":[7.0285874E3,2.8500647E3,1.7953594E3,2.491128E2,8.662243E2,3.297945E2,7.232676E2,4.5573975E1,5.58114E1,1.9328357E2,1.0969003E3,2.0068738E2,3.3634155E1,3.625191E2,2.976328E2,5.1553965E0,1.09687744E2,1.7189941E1,1.5699585E1,6.397766E0,3.8871655E2,9.105737E1,4.6527393E2,3.3970442E0,6.556595E0,2.0345703E1,6.699672E1,1.3105406E2,1.453338E2,1.2330071E2,1.0774463E2,0E0,0E0,5.9151E0,3.237622E1,1.4515625E1,0E0,1.4954437E1,4.7964325E0,6.499878E0,0E0,5.461709E1,1.1313257E2,5.2726746E1,4.501889E1,2.3032812E2,1.955037E2,0E0,1.0247731E-1,0E0,0E0,7.475647E0,0E0,0E0,5.444336E-2,1.2329285E1,5.8269913E1,1.0713257E1,7.005723E1,4.64465E1,4.6899208E1,5.2435547E1,7.6076515E1,0E0,0E0,0E0,0E0,0E0,0E0,0E0,0E0,0E0,0E0,0E0,0E0,0E0,0E0,0E0,0E0,0E0,0E0,0E0,0E0,0E0,0E0,0E0,0E0,0E0,0E0,0E0,0E0,0E0,0E0,0E0,0E0,0E0,0E0,0E0,0E0,0E0,0E0,0E0,0E0,0E0,0E0,0E0,0E0,0E0,0E0],"parents":[2147483647,0,0,1,1,2,2,3,3,4,4,5,5,6,6,7,7,8,8,9,9,10,10,11,11,12,12,13,13,14,14,15,15,16,16,17,17,18,18,19,19,20,20,21,21,22,22,23,23,24,24,25,25,26,26,27,27,28,28,29,29,30,30,33,33,34,34,35,35,37,37,38,38,39,39,41,41,42,42,43,43,44,44,45,45,46,46,48,48,51,51,54,54,55,55,56,56,57,57,58,58,59,59,60,60,61,61,62,62],"right_children":[2,4,6,8,10,12,14,16,18,20,22,24,26,28,30,32,34,36,38,40,42,44,46,48,50,52,54,56,58,60,62,-1,-1,64,66,68,-1,70,72,74,-1,76,78,80,82,84,86,-1,88,-1,-1,90,-1,-1,92,94,96,98,100,102,104,106,108,-1,-1,-1,-1,-1,-1,-1,-1,-1,-1,-1,-1,-1,-1,-1,-1,-1,-1,-1,-1,-1,-1,-1,-1,-1,-1,-1,-1,-1,-1,-1,-1,-1,-1,-1,-1,-1,-1,-1,-1,-1,-1,-1,-1,-1,-1],"split_conditions":[1.4252386E-3,-1.4172418E0,-2.9997375E0,-1.7733989E0,-2.6880711E-2,-3.1657467E0,2.5088006E-1,-1.9486135E0,1.0328807E0,-1.4020344E0,8.169849E-1,-2.2001278E0,-3.9227908E0,-4.1284996E-1,-1.1806252E0,-4.1873384E-1,9.263701E-1,1.8714706E0,1.4778446E0,1.7545302E0,-9.51453E-1,-5.037204E-1,-6.731541E-1,1.3209491E0,-1.1119754E0,1.4031628E0,-2.8690286E0,-9.4622225E-1,6.1818504E-1,-4.3517122E-1,5.099457E-1,2.4626283E-2,-1.6963243E-2,-1.4020344E0,1.0734221E0,-1.4471351E0,8.273617E-2,-2.1216502E0,-1.6044636E0,-1.8090914E0,1.3932368E-1,-8.9177525E-1,-1.8192546E-1,6.666331E-1,3.7401333E-2,-6.560443E-1,-1.3929557E0,-1.7071E-2,-1.0937308E0,1.5129031E-1,9.227184E-2,-1.0995644E0,1.5610255E-1,-2.3082139E-2,3.8076672E-1,-1.6552461E0,6.05448E-1,-5.3863937E-1,3.1490842E-1,7.0826423E-1,-1.1519412E0,9.987887E-1,8.298297E-1,6.717606E-2,1.4721982E-1,5.9928138E-2,7.467221E-2,5.4406203E-2,3.767219E-2,-1.881916E-2,4.4374444E-2,3.967663E-2,2.8251419E-2,5.944071E-2,1.8405104E-2,2.9925171E-2,-1.3360786E-2,3.816557E-2,1.989792E-2,-4.054065E-3,-1.7357914E-2,-4.9443714E-2,-2.3182468E-2,8.763387E-3,3.4578092E-2,3.559288E-2,-8.934032E-3,4.9401284E-3,2.9405976E-2,1.3965614E-1,9.790012E-2,4.6438407E-2,9.455678E-2,4.0944032E-2,2.2794867E-2,2.655745E-3,-3.0604217E-2,-5.226183E-2,-3.554167E-2,2.4042958E-2,-1.557068E-2,2.2604978E-2,-2.6207406E-2,5.3616375E-2,-2.9507497E-2,-3.6753464E-2,-5.872926E-2,-4.419036E-2,-5.7034576E-3],"split_indices":[5,5,2,5,6,3,5,6,4,6,2,6,2,6,8,8,6,3,6,8,2,5,1,5,1,5,3,4,3,6,2,0,0,6,2,5,0,3,5,3,0,4,5,6,2,8,8,0,1,0,0,1,0,0,5,8,8,2,6,5,1,1,3,0,0,0,0,0,0,0,0,0,0,0,0,0,0,0,0,0,0,0,0,0,0,0,0,0,0,0,0,0,0,0,0,0,0,0,0,0,0,0,0,0,0,0,0,0,0],"split_type":[0,0,0,0,0,0,0,0,0,0,0,0,0,0,0,0,0,0,0,0,0,0,0,0,0,0,0,0,0,0,0,0,0,0,0,0,0,0,0,0,0,0,0,0,0,0,0,0,0,0,0,0,0,0,0,0,0,0,0,0,0,0,0,0,0,0,0,0,0,0,0,0,0,0,0,0,0,0,0,0,0,0,0,0,0,0,0,0,0,0,0,0,0,0,0,0,0,0,0,0,0,0,0,0,0,0,0,0,0],"sum_hessian":[3.4904E4,1.9507E4,1.5397E4,4.124E3,1.5383E4,4.97E2,1.49E4,1.81E3,2.314E3,4.79E3,1.0593E4,1.77E2,3.2E2,3.15E3,1.175E4,3E1,1.78E3,1.203E3,1.111E3,4.43E2,4.347E3,4.547E3,6.046E3,1.37E2,4E1,2.53E2,6.7E1,1.652E3,1.498E3,7.39E2,1.1011E4,1.9E1,1.1E1,5.5E1,1.725E3,1.153E3,5E1,5.95E2,5.16E2,4.41E2,2E0,7.38E2,3.609E3,3.015E3,1.532E3,3.937E3,2.109E3,1.33E2,4E0,1E1,3E1,2.31E2,2.2E1,1.6E1,5.1E1,6.8E2,9.72E2,8.89E2,6.09E2,3.96E2,3.43E2,1.0366E4,6.45E2,5E0,5E1,6.09E2,1.116E3,9.92E2,1.61E2,9E0,5.86E2,1.33E2,3.83E2,4.3E2,1.1E1,8.1E1,6.57E2,2.239E3,1.37E3,1.345E3,1.67E3,1.86E2,1.346E3,1.282E3,2.655E3,2.84E2,1.825E3,1E0,3E0,1.7E1,2.14E2,3E0,4.8E1,1.14E2,5.66E2,8.16E2,1.56E2,1.15E2,7.74E2,1.46E2,4.63E2,3.4E2,5.6E1,1.7E1,3.26E2,1.0085E4,2.81E2,1.76E2,4.69E2],"tree_param":{"num_deleted":"0","num_feature":"9","num_nodes":"109","size_leaf_vector":"1"}},{"base_weights":[2.585832E-3,8.7499624E-1,-2.0366137E-1,1.2388376E0,6.423124E-1,5.3441817E-1,-3.776355E-1,1.4254661E0,1.0695716E0,5.3048915E-1,1.0261726E0,1.3949611E0,4.3727013E-1,-9.993054E-2,-6.5269524E-1,1.3594701E0,2.3250787E0,1.174665E0,9.384314E-1,6.1607575E-1,9.62814E-2,1.5653615E-1,1.0018914E0,6.893273E-1,2.0200772E0,5.1352036E-1,-3.117408E-1,4.3563354E-1,-1.9560024E-1,-5.4000482E-2,-6.9435453E-1,2.5397591E-2,1.3853978E0,2.6086483E0,1.2325994E0,9.6963125E-1,1.2652855E0,1.8405911E0,9.0809673E-1,5.200341E-1,9.6578676E-1,4.7805075E-2,1.0981535E0,8.8533676E-1,1.3694973E0,5.238906E-1,1.3713866E-1,2.3211005E0,1.7797865E0,6.584811E-1,2.7054858E-1,-3.9397702E-1,2.0884104E0,1.018735E0,1.7026481E-1,-6.9368297E-1,-1.1162799E-1,4.219792E-1,-5.906764E-1,-7.199759E-1,-3.1025887E-1,1.8619664E-2,-1.6185729E-2,6.50317E-2,7.3787935E-2,4.4417E-2,1.4346316E-1,7.51435E-2,1.982673E-2,5.4120984E-2,2.696365E-2,7.206146E-2,5.9580512E-2,-1.8479396E-2,1.13904946E-1,2.7734643E-2,4.6592277E-2,3.057665E-2,1.8135173E-2,6.932865E-2,4.2724174E-2,4.2505963E-3,-6.2067206E-3,3.6582813E-2,6.346373E-2,4.530447E-2,1.0559819E-2,8.098377E-2,6.1571162E-2,-1.3886618E-2,5.4923113E-2,8.908455E-2,1.4118336E-1,7.036247E-2,9.1362946E-2,2.4139049E-2,4.428267E-2,2.2915997E-2,-1.4421495E-2,-2.4009569E-2,6.2120456E-2,1.2813841E-1,5.9008896E-2,1.08540334E-1,4.8391934E-2,4.6705168E-2,4.760366E-3,-4.4561025E-2,-3.1182587E-2,-7.5013055E-3,4.2229116E-2,6.404292E-3,3.174072E-2,-3.257941E-2,1.1605675E-2,-3.5617825E-2,-6.483091E-2,-5.6904554E-3,-4.3217976E-2],"categories":[],"categories_nodes":[],"categories_segments":[],"categories_sizes":[],"default_left":[0,0,0,0,0,0,0,0,0,0,0,0,0,0,0,0,0,0,0,0,0,0,0,0,0,0,0,0,0,0,0,0,0,0,0,0,0,0,0,0,0,0,0,0,0,0,0,0,0,0,0,0,0,0,0,0,0,0,0,0,0,0,0,0,0,0,0,0,0,0,0,0,0,0,0,0,0,0,0,0,0,0,0,0,0,0,0,0,0,0,0,0,0,0,0,0,0,0,0,0,0,0,0,0,0,0,0,0,0,0,0,0,0,0,0,0,0,0,0],"id":7,"left_children":[1,3,5,7,9,11,13,15,17,19,21,23,25,27,29,31,33,35,37,39,41,-1,43,45,47,49,51,53,55,57,59,61,63,65,67,69,71,73,75,77,79,81,83,85,87,89,-1,91,93,95,97,99,101,103,105,107,109,111,113,115,117,-1,-1,-1,-1,-1,-1,-1,-1,-1,-1,-1,-1,-1,-1,-1,-1,-1,-1,-1,-1,-1,-1,-1,-1,-1,-1,-1,-1,-1,-1,-1,-1,-1,-1,-1,-1,-1,-1,-1,-1,-1,-1,-1,-1,-1,-1,-1,-1,-1,-1,-1,-1,-1,-1,-1,-1,-1,-1],"loss_changes":[6.2823315E3,5.6439453E2,3.6262803E3,8.070361E1,1.7433008E2,4.4974353E2,1.7455718E3,7.016211E1,1.7765259E1,1.1726221E2,4.377411E1,2.3944983E2,2.7669757E2,5.8280646E2,2.863125E2,3.9846436E1,2.2497467E1,1.2819824E1,1.5131653E1,8.806622E1,2.525095E1,0E0,3.773474E1,8.620964E1,1.6773193E1,1.5461975E2,8.9248764E1,2.6659293E2,4.0353513E2,1.9132349E2,1.0541016E2,2.9067788E0,6.743408E0,2.6593079E1,3.6973724E0,1.0871597E1,5.036194E0,1.9214394E1,4.485321E0,2.959143E1,2.5370544E1,3.1964216E0,5.764961E-1,9.503784E0,5.501343E0,1.1084664E2,0E0,2.8855286E1,3.4661865E-1,1.0941626E2,1.7268668E2,6.1825287E1,3.437889E0,2.9503967E1,6.7906586E1,1.8700745E1,3.0336975E2,2.4751373E1,1.7792656E1,4.3285645E1,7.315966E1,0E0,0E0,0E0,0E0,0E0,0E0,0E0,0E0,0E0,0E0,0E0,0E0,0E0,0E0,0E0,0E0,0E0,0E0,0E0,0E0,0E0,0E0,0E0,0E0,0E0,0E0,0E0,0E0,0E0,0E0,0E0,0E0,0E0,0E0,0E0,0E0,0E0,0E0,0E0,0E0,0E0,0E0,0E0,0E0,0E0,0E0,0E0,0E0,0E0,0E0,0E0,0E0,0E0,0E0,0E0,0E0,0E0,0E0],"parents":[2147483647,0,0,1,1,2,2,3,3,4,4,5,5,6,6,7,7,8,8,9,9,10,10,11,11,12,12,13,13,14,14,15,15,16,16,17,17,18,18,19,19,20,20,22,22,23,23,24,24,25,25,26,26,27,27,28,28,29,29,30,30,31,31,32,32,33,33,34,34,35,35,36,36,37,37,38,38,39,39,40,40,41,41,42,42,43,43,44,44,45,45,47,47,48,48,49,49,50,50,51,51,52,52,53,53,54,54,55,55,56,56,57,57,58,58,59,59,60,60],"right_children":[2,4,6,8,10,12,14,16,18,20,22,24,26,28,30,32,34,36,38,40,42,-1,44,46,48,50,52,54,56,58,60,62,64,66,68,70,72,74,76,78,80,82,84,86,88,90,-1,92,94,96,98,100,102,104,106,108,110,112,114,116,118,-1,-1,-1,-1,-1,-1,-1,-1,-1,-1,-1,-1,-1,-1,-1,-1,-1,-1,-1,-1,-1,-1,-1,-1,-1,-1,-1,-1,-1,-1,-1,-1,-1,-1,-1,-1,-1,-1,-1,-1,-1,-1,-1,-1,-1,-1,-1,-1,-1,-1,-1,-1,-1,-1,-1,-1,-1,-1],"split_conditions":[-1.1530892E0,-1.6044636E0,-8.0840135E-1,-1.8899195E0,1.5580721E-1,-3.9227908E0,2.5088006E-1,1.2437731E0,1.109098E0,-5.6523178E-2,-6.563428E-1,-3.3769987E0,1.5421997E0,-7.033385E-1,-1.1806252E0,-9.51453E-1,-1.9232714E0,-3.3817816E-1,5.620748E-1,-3.6877376E-1,1.3005284E0,1.5653615E-1,3.5362893E-1,-3.1657467E0,-2.5950875E0,-1.0481066E-1,1.501839E0,-4.5383576E-1,-3.385616E-2,2.2387652E-1,5.099457E-1,-2.8578883E-1,-1.7589805E0,-1.4020344E0,5.9923226E-1,1.4625859E0,-1.7733989E0,-1.0553193E0,-2.0424368E0,-1.3524833E0,1.2019825E0,-1.2414294E0,-6.690652E-2,4.3256482E-1,1.5532248E0,2.250924E-1,1.3713866E-1,5.794652E-1,-2.2001278E0,-2.938336E-1,-8.9177525E-1,9.9709123E-1,-4.8049507E-1,2.4307461E-1,1.7415528E-1,6.026166E-2,1.3164518E0,-4.6828353E-1,-3.1030595E-1,1.8311415E0,1.3346208E0,1.8619664E-2,-1.6185729E-2,6.50317E-2,7.3787935E-2,4.4417E-2,1.4346316E-1,7.51435E-2,1.982673E-2,5.4120984E-2,2.696365E-2,7.206146E-2,5.9580512E-2,-1.8479396E-2,1.13904946E-1,2.7734643E-2,4.6592277E-2,3.057665E-2,1.8135173E-2,6.932865E-2,4.2724174E-2,4.2505963E-3,-6.2067206E-3,3.6582813E-2,6.346373E-2,4.530447E-2,1.0559819E-2,8.098377E-2,6.1571162E-2,-1.3886618E-2,5.4923113E-2,8.908455E-2,1.4118336E-1,7.036247E-2,9.1362946E-2,2.4139049E-2,4.428267E-2,2.2915997E-2,-1.4421495E-2,-2.4009569E-2,6.2120456E-2,1.2813841E-1,5.9008896E-2,1.08540334E-1,4.8391934E-2,4.6705168E-2,4.760366E-3,-4.4561025E-2,-3.1182587E-2,-7.5013055E-3,4.2229116E-2,6.404292E-3,3.174072E-2,-3.257941E-2,1.1605675E-2,-3.5617825E-2,-6.483091E-2,-5.6904554E-3,-4.3217976E-2],"split_indices":[5,5,7,5,8,2,5,4,4,8,4,7,8,4,8,2,5,3,6,8,2,0,7,3,7,5,4,5,4,7,2,4,3,6,7,6,5,2,8,5,6,5,3,3,6,4,0,5,6,8,4,5,3,3,6,2,2,2,4,7,7,0,0,0,0,0,0,0,0,0,0,0,0,0,0,0,0,0,0,0,0,0,0,0,0,0,0,0,0,0,0,0,0,0,0,0,0,0,0,0,0,0,0,0,0,0,0,0,0,0,0,0,0,0,0,0,0,0,0],"split_type":[0,0,0,0,0,0,0,0,0,0,0,0,0,0,0,0,0,0,0,0,0,0,0,0,0,0,0,0,0,0,0,0,0,0,0,0,0,0,0,0,0,0,0,0,0,0,0,0,0,0,0,0,0,0,0,0,0,0,0,0,0,0,0,0,0,0,0,0,0,0,0,0,0,0,0,0,0,0,0,0,0,0,0,0,0,0,0,0,0,0,0,0,0,0,0,0,0,0,0,0,0,0,0,0,0,0,0,0,0,0,0,0,0,0,0,0,0,0,0],"sum_hessian":[3.4913E4,6.675E3,2.8238E4,2.602E3,4.073E3,5.386E3,2.2852E4,1.234E3,1.368E3,3.156E3,9.17E2,5.45E2,4.841E3,1.1372E4,1.148E4,1.152E3,8.2E1,7.55E2,6.13E2,2.636E3,5.2E2,9E0,9.08E2,2.57E2,2.88E2,4.394E3,4.47E2,1.723E3,9.649E3,7.47E2,1.0733E4,2.2E1,1.13E3,6.4E1,1.8E1,2.35E2,5.2E2,1.8E1,5.95E2,2.07E3,5.66E2,4.97E2,2.3E1,6.92E2,2.16E2,2.39E2,1.8E1,1.24E2,1.64E2,2.751E3,1.643E3,4.33E2,1.4E1,5.38E2,1.185E3,1.391E3,8.258E3,3.96E2,3.51E2,1.0061E4,6.72E2,1.1E1,1.1E1,5.91E2,5.39E2,9E0,5.5E1,1.3E1,5E0,1.85E2,5E1,1.48E2,3.72E2,3E0,1.5E1,3.9E1,5.56E2,1.307E3,7.63E2,1.16E2,4.5E2,4.09E2,8.8E1,9E0,1.4E1,6.71E2,2.1E1,7.3E1,1.43E2,1E2,1.39E2,6.2E1,6.2E1,2.2E1,1.42E2,1.553E3,1.198E3,1.23E3,4.13E2,4.12E2,2.1E1,8E0,6E0,2.1E1,5.17E2,1.05E2,1.08E3,3.61E2,1.03E3,7.94E3,3.18E2,1.67E2,2.29E2,3.27E2,2.4E1,9.932E3,1.29E2,4.97E2,1.75E2],"tree_param":{"num_deleted":"0","num_feature":"9","num_nodes":"119","size_leaf_vector":"1"}},{"base_weights":[-3.4035787E-3,3.561568E-1,-4.54519E-1,8.7020385E-1,1.3201098E-1,4.50887E-1,-5.5628604E-1,1.1651567E0,6.414115E-1,5.213877E-1,-4.072725E-2,2.0499581E-1,1.3436366E0,6.7501806E-2,-6.043343E-1,1.3301369E0,1.0156205E0,8.916187E-1,4.7838414E-1,5.732085E-1,-1.8255278E-1,4.3956554E-1,-1.7172845E-1,1.4176466E-1,2.644001E0,1.7519271E0,-1.1596168E0,4.8430285E-1,-5.109961E-1,-3.277823E-1,-6.6189826E-1,1.2772225E0,2.1575587E0,8.549765E-1,1.0942029E0,6.0288256E-1,1.0242094E0,5.621974E-1,8.0578856E-2,3.9450312E-1,7.929423E-1,-3.5482642E-1,8.8580084E-1,-3.9405814E-1,6.626743E-1,-6.991471E-2,-4.5423615E-1,3.9518565E-1,-2.3998547E-1,5.2154697E-2,1.4212696E-1,1.0435833E0,1.7975703E0,-1.567359E-1,-1.3270177E0,7.2303796E-1,3.6614206E-1,-3.1070625E-2,2.8246827E-2,-7.609574E-1,-1.7003964E-1,-6.401284E-1,-1.2581136E0,2.4776624E-3,6.5055065E-2,1.1695961E-1,2.0604564E-2,4.1835856E-2,1.156361E-1,4.9974896E-2,6.0534336E-2,2.7068157E-2,4.0649254E-2,1.4549676E-1,5.0518848E-2,3.881443E-2,2.3573896E-2,9.980366E-3,6.667323E-4,2.9371439E-2,-4.4496657E-4,5.483476E-2,2.9488856E-2,7.01754E-2,-2.0977763E-2,1.2681836E-1,4.391534E-3,-2.5667712E-2,7.676068E-2,4.7663994E-2,1.4815225E-2,1.6740601E-3,-2.1155303E-2,-3.913852E-2,-1.8690063E-2,1.8756146E-2,1.1939986E-1,-1.8476645E-2,2.5483036E-2,5.4814678E-2,1.8973034E-2,1.0045836E-1,8.3440214E-2,-1.7047998E-2,5.636406E-3,-2.7638435E-2,-6.762746E-2,4.0895972E-2,2.0746738E-2,2.0695953E-2,-1.0024927E-2,-7.419298E-3,1.5555607E-2,-3.0620947E-2,-4.978426E-2,-1.4749991E-2,1.6363967E-2,-3.1585537E-2,-5.872581E-2,-8.154335E-2,-5.448493E-2],"categories":[],"categories_nodes":[],"categories_segments":[],"categories_sizes":[],"default_left":[0,0,0,0,0,0,0,0,0,0,0,0,0,0,0,0,0,0,0,0,0,0,0,0,0,0,0,0,0,0,0,0,0,0,0,0,0,0,0,0,0,0,0,0,0,0,0,0,0,0,0,0,0,0,0,0,0,0,0,0,0,0,0,0,0,0,0,0,0,0,0,0,0,0,0,0,0,0,0,0,0,0,0,0,0,0,0,0,0,0,0,0,0,0,0,0,0,0,0,0,0,0,0,0,0,0,0,0,0,0,0,0,0,0,0,0,0,0,0,0,0],"id":8,"left_children":[1,3,5,7,9,11,13,15,17,19,21,23,25,27,29,31,33,35,37,39,41,43,45,47,49,51,53,55,57,59,61,63,65,67,69,71,73,75,77,79,81,83,85,87,89,91,93,95,97,-1,-1,99,101,103,105,107,109,-1,111,113,115,117,119,-1,-1,-1,-1,-1,-1,-1,-1,-1,-1,-1,-1,-1,-1,-1,-1,-1,-1,-1,-1,-1,-1,-1,-1,-1,-1,-1,-1,-1,-1,-1,-1,-1,-1,-1,-1,-1,-1,-1,-1,-1,-1,-1,-1,-1,-1,-1,-1,-1,-1,-1,-1,-1,-1,-1,-1,-1,-1],"loss_changes":[5.6659204E3,2.2395605E3,1.4277834E3,3.9753662E2,9.105232E2,3.434917E2,4.1748975E2,6.222534E1,1.3524304E2,1.5185632E2,5.901292E2,1.8916292E2,3.4748602E2,2.4064267E2,2.0565283E2,5.0746582E1,1.6182251E1,4.957251E1,6.71709E1,1.5184912E2,5.295237E1,3.7409845E2,2.1192401E2,1.16090294E2,6.8880615E0,7.5324097E0,7.8503876E0,1.6096558E1,2.49058E1,1.5224696E2,1.3811426E2,3.367737E1,2.186261E1,1.0042847E1,8.795532E0,4.9239197E0,2.0457458E1,3.1972046E1,2.8147373E0,1.664765E2,1.06546875E2,2.870113E1,5.2461338E1,9.86038E1,1.6857751E2,1.9787161E2,5.129019E1,2.7930725E1,4.670629E1,0E0,0E0,2.8412056E-1,4.0581665E0,4.3556976E-1,6.2828064E-2,5.244179E0,1.064122E1,0E0,3.6435215E0,2.013556E1,1.01765884E2,4.571631E1,2.1827087E1,0E0,0E0,0E0,0E0,0E0,0E0,0E0,0E0,0E0,0E0,0E0,0E0,0E0,0E0,0E0,0E0,0E0,0E0,0E0,0E0,0E0,0E0,0E0,0E0,0E0,0E0,0E0,0E0,0E0,0E0,0E0,0E0,0E0,0E0,0E0,0E0,0E0,0E0,0E0,0E0,0E0,0E0,0E0,0E0,0E0,0E0,0E0,0E0,0E0,0E0,0E0,0E0,0E0,0E0,0E0,0E0,0E0,0E0],"parents":[2147483647,0,0,1,1,2,2,3,3,4,4,5,5,6,6,7,7,8,8,9,9,10,10,11,11,12,12,13,13,14,14,15,15,16,16,17,17,18,18,19,19,20,20,21,21,22,22,23,23,24,24,25,25,26,26,27,27,28,28,29,29,30,30,31,31,32,32,33,33,34,34,35,35,36,36,37,37,38,38,39,39,40,40,41,41,42,42,43,43,44,44,45,45,46,46,47,47,48,48,51,51,52,52,53,53,54,54,55,55,56,56,58,58,59,59,60,60,61,61,62,62],"right_children":[2,4,6,8,10,12,14,16,18,20,22,24,26,28,30,32,34,36,38,40,42,44,46,48,50,52,54,56,58,60,62,64,66,68,70,72,74,76,78,80,82,84,86,88,90,92,94,96,98,-1,-1,100,102,104,106,108,110,-1,112,114,116,118,120,-1,-1,-1,-1,-1,-1,-1,-1,-1,-1,-1,-1,-1,-1,-1,-1,-1,-1,-1,-1,-1,-1,-1,-1,-1,-1,-1,-1,-1,-1,-1,-1,-1,-1,-1,-1,-1,-1,-1,-1,-1,-1,-1,-1,-1,-1,-1,-1,-1,-1,-1,-1,-1,-1,-1,-1,-1,-1],"split_conditions":[1.4252386E-3,-1.2736559E0,-8.6558634E-1,-1.6044636E0,-6.945751E-1,-6.387939E-1,-1.1806252E0,-1.8899195E0,3.6816442E-1,1.5421997E0,-2.9229283E-1,1.3588542E0,-1.0150286E0,2.3059885E-1,2.629312E-1,2.3969065E-2,-1.3180155E0,-1.005765E0,1.3355979E0,-2.313835E-1,-1.0470417E0,-1.5335615E0,-5.037204E-1,6.8038815E-1,-2.6771615E0,2.272947E-1,-9.378349E-1,-4.3784297E-1,8.16084E-1,1.22895904E-1,1.5390978E0,-2.3937886E0,5.9923226E-1,9.3433803E-1,4.655405E-2,-1.0540455E-1,-1.1074233E0,1.0164056E0,-2.4779162E0,-7.6807016E-1,4.8054782E-1,-1.896946E0,1.6064935E0,-1.4395334E-1,-5.037204E-1,1.582936E0,1.2586318E-1,5.794652E-1,-9.2867327E-1,5.2154697E-2,1.4212696E-1,-1.7589805E0,-2.4779162E0,-1.0582559E0,1.5318996E-2,4.4031224E-1,6.851094E-1,-3.1070625E-2,1.4503638E0,1.5390978E0,1.3056886E0,1.8311415E0,-1.0957143E0,2.4776624E-3,6.5055065E-2,1.1695961E-1,2.0604564E-2,4.1835856E-2,1.156361E-1,4.9974896E-2,6.0534336E-2,2.7068157E-2,4.0649254E-2,1.4549676E-1,5.0518848E-2,3.881443E-2,2.3573896E-2,9.980366E-3,6.667323E-4,2.9371439E-2,-4.4496657E-4,5.483476E-2,2.9488856E-2,7.01754E-2,-2.0977763E-2,1.2681836E-1,4.391534E-3,-2.5667712E-2,7.676068E-2,4.7663994E-2,1.4815225E-2,1.6740601E-3,-2.1155303E-2,-3.913852E-2,-1.8690063E-2,1.8756146E-2,1.1939986E-1,-1.8476645E-2,2.5483036E-2,5.4814678E-2,1.8973034E-2,1.0045836E-1,8.3440214E-2,-1.7047998E-2,5.636406E-3,-2.7638435E-2,-6.762746E-2,4.0895972E-2,2.0746738E-2,2.0695953E-2,-1.0024927E-2,-7.419298E-3,1.5555607E-2,-3.0620947E-2,-4.978426E-2,-1.4749991E-2,1.6363967E-2,-3.1585537E-2,-5.872581E-2,-8.154335E-2,-5.448493E-2],"split_indices":[5,5,7,5,7,0,8,5,0,8,0,5,6,7,5,0,8,8,1,8,1,0,5,8,6,5,6,7,1,3,0,6,7,0,7,3,0,6,3,0,8,3,0,8,5,0,0,5,0,0,0,3,3,1,0,5,5,0,3,0,0,7,1,0,0,0,0,0,0,0,0,0,0,0,0,0,0,0,0,0,0,0,0,0,0,0,0,0,0,0,0,0,0,0,0,0,0,0,0,0,0,0,0,0,0,0,0,0,0,0,0,0,0,0,0,0,0,0,0,0,0],"split_type":[0,0,0,0,0,0,0,0,0,0,0,0,0,0,0,0,0,0,0,0,0,0,0,0,0,0,0,0,0,0,0,0,0,0,0,0,0,0,0,0,0,0,0,0,0,0,0,0,0,0,0,0,0,0,0,0,0,0,0,0,0,0,0,0,0,0,0,0,0,0,0,0,0,0,0,0,0,0,0,0,0,0,0,0,0,0,0,0,0,0,0,0,0,0,0,0,0,0,0,0,0,0,0,0,0,0,0,0,0,0,0,0,0,0,0,0,0,0,0,0,0],"sum_hessian":[3.4929E4,1.9437E4,1.5492E4,5.901E3,1.3536E4,1.565E3,1.3927E4,2.576E3,3.325E3,4.159E3,9.377E3,1.228E3,3.37E2,9.96E2,1.2931E4,1.221E3,1.355E3,1.31E3,2.015E3,3.874E3,2.85E2,2.009E3,7.368E3,1.198E3,3E1,2.9E2,4.7E1,5.79E2,4.17E2,2.229E3,1.0702E4,1.15E3,7.1E1,4.49E2,9.06E2,4.14E2,8.96E2,1.664E3,3.51E2,2.138E3,1.736E3,2.46E2,3.9E1,4.24E2,1.585E3,5.417E3,1.951E3,7.2E2,4.78E2,4E0,2.6E1,1.9E1,2.71E2,7E0,4E1,1.9E2,3.89E2,3.46E2,7.1E1,5.94E2,1.635E3,1.0327E4,3.75E2,2.2E1,1.128E3,6.4E1,7E0,4.45E2,4E0,5.05E2,4.01E2,3.23E2,9.1E1,5E0,8.91E2,4.93E2,1.171E3,1.26E2,2.25E2,1.446E3,6.92E2,6.94E2,1.042E3,8E0,2.38E2,1.2E1,2.7E1,4E2,2.4E1,8.83E2,7.02E2,4.191E3,1.226E3,3.82E2,1.569E3,7.14E2,6E0,4.08E2,7E1,1.7E1,2E0,9.7E1,1.74E2,4E0,3E0,2E0,3.8E1,1.44E2,4.6E1,3.59E2,3E1,4.4E1,2.7E1,3.66E2,2.28E2,1.307E3,3.28E2,1.0169E4,1.58E2,1.14E2,2.61E2],"tree_param":{"num_deleted":"0","num_feature":"9","num_nodes":"121","size_leaf_vector":"1"}},{"base_weights":[2.7606916E-3,7.61015E-1,-1.9338877E-1,1.1213361E0,5.5582994E-1,4.6253237E-1,-3.4791425E-1,1.2880682E0,9.681432E-1,8.3814174E-1,3.9564645E-1,1.1458955E0,3.69033E-1,-1.0509943E-1,-5.9335583E-1,1.2328534E0,2.1421578E0,1.0717679E0,8.2896984E-1,5.235941E-1,9.7696453E-1,3.4142265E-1,8.706875E-1,5.590122E-1,1.6900512E0,4.4691738E-1,-3.2722312E-1,3.9154443E-1,-1.9473927E-1,-5.3356983E-2,-6.297609E-1,2.2059234E-2,1.2560781E0,2.2910223E0,1.9501222E-2,8.6192477E-1,1.1648583E0,-2.067978E-2,8.3825237E-1,6.1255383E-1,2.6555297E-1,1.4625E-1,9.520092E-1,4.2522815E-1,8.0129266E-2,5.6736577E-1,1.1052251E0,5.4844197E-2,4.9628492E-2,-1.5063368E-2,1.7279744E0,4.9375513E-1,-3.7451363E-1,3.6781153E-1,-6.0426015E-1,6.665637E-1,-2.187436E-1,-6.170823E-1,-1.16600506E-1,3.750558E-1,-5.303516E-1,-6.109451E-1,-1.1657467E0,1.7671539E-2,-1.5557528E-2,1.3721703E-1,6.242311E-2,1.3336582E-1,6.272751E-2,2.8397534E-2,4.6872344E-2,6.7797266E-2,5.3937163E-2,4.1266672E-2,1.07943155E-1,3.7865177E-2,2.671035E-2,3.6806804E-3,3.7819035E-2,5.317376E-2,3.8514428E-2,2.2441689E-2,-1.334254E-2,2.3320345E-3,5.3011995E-2,2.5829136E-2,1.2894212E-1,5.1783342E-2,6.781448E-2,-1.3939095E-2,1.1234331E-1,4.2971786E-2,8.7648876E-2,2.1667784E-2,5.2467026E-2,-2.553447E-2,4.895697E-2,1.2098572E-2,1.3081715E-1,-2.7118845E-2,-7.100696E-2,2.443297E-2,5.0210673E-2,7.2114104E-3,-1.4278339E-2,5.0502926E-2,-3.1604383E-2,8.266059E-4,-2.3806674E-2,4.116388E-3,2.8623706E-2,-2.9369658E-2,1.1545516E-2,1.0597117E-1,-3.0720344E-2,-7.188724E-2,-4.868413E-2],"categories":[],"categories_nodes":[],"categories_segments":[],"categories_sizes":[],"default_left":[0,0,0,0,0,0,0,0,0,0,0,0,0,0,0,0,0,0,0,0,0,0,0,0,0,0,0,0,0,0,0,0,0,0,0,0,0,0,0,0,0,0,0,0,0,0,0,0,0,0,0,0,0,0,0,0,0,0,0,0,0,0,0,0,0,0,0,0,0,0,0,0,0,0,0,0,0,0,0,0,0,0,0,0,0,0,0,0,0,0,0,0,0,0,0,0,0,0,0,0,0,0,0,0,0,0,0,0,0,0,0,0,0,0,0,0,0],"id":9,"left_children":[1,3,5,7,9,11,13,15,17,19,21,23,25,27,29,31,33,35,37,39,41,43,45,47,49,51,53,55,57,59,61,63,65,67,-1,69,71,-1,73,75,77,-1,79,81,83,85,87,89,-1,-1,91,93,95,97,99,101,103,105,107,109,111,113,115,-1,-1,-1,-1,-1,-1,-1,-1,-1,-1,-1,-1,-1,-1,-1,-1,-1,-1,-1,-1,-1,-1,-1,-1,-1,-1,-1,-1,-1,-1,-1,-1,-1,-1,-1,-1,-1,-1,-1,-1,-1,-1,-1,-1,-1,-1,-1,-1,-1,-1,-1,-1,-1,-1],"loss_changes":[5.1837266E3,5.289551E2,2.8067227E3,6.511157E1,2.0615063E2,3.3693762E2,1.3355627E3,5.5882324E1,1.869629E1,7.162537E1,7.478882E1,2.0184631E2,2.520871E2,5.0167267E2,2.1906274E2,3.2816772E1,1.8407867E1,1.4135193E1,7.0826416E0,1.1498596E1,5.2878296E1,5.7294434E1,2.0572754E1,6.705144E1,2.5365662E1,1.6096765E2,9.0335815E1,2.8933572E2,3.149261E2,1.4426607E2,1.0458545E2,2.6495435E0,9.56311E0,2.3174988E1,0E0,4.8403473E0,7.324463E0,0E0,8.113495E0,3.8708954E0,1.2379927E1,0E0,2.211023E1,3.2499634E1,2.085849E1,1.215147E1,1.511734E0,1.0520453E2,0E0,0E0,5.5077515E0,1.3222992E2,4.2159676E1,3.7282936E1,1.6143654E1,7.087164E1,1.3041824E1,3.7018005E1,3.8561288E2,2.145071E1,1.4639107E1,9.666138E1,1.7041199E1,0E0,0E0,0E0,0E0,0E0,0E0,0E0,0E0,0E0,0E0,0E0,0E0,0E0,0E0,0E0,0E0,0E0,0E0,0E0,0E0,0E0,0E0,0E0,0E0,0E0,0E0,0E0,0E0,0E0,0E0,0E0,0E0,0E0,0E0,0E0,0E0,0E0,0E0,0E0,0E0,0E0,0E0,0E0,0E0,0E0,0E0,0E0,0E0,0E0,0E0,0E0,0E0,0E0,0E0],"parents":[2147483647,0,0,1,1,2,2,3,3,4,4,5,5,6,6,7,7,8,8,9,9,10,10,11,11,12,12,13,13,14,14,15,15,16,16,17,17,18,18,19,19,20,20,21,21,22,22,23,23,24,24,25,25,26,26,27,27,28,28,29,29,30,30,31,31,32,32,33,33,35,35,36,36,38,38,39,39,40,40,42,42,43,43,44,44,45,45,46,46,47,47,50,50,51,51,52,52,53,53,54,54,55,55,56,56,57,57,58,58,59,59,60,60,61,61,62,62],"right_children":[2,4,6,8,10,12,14,16,18,20,22,24,26,28,30,32,34,36,38,40,42,44,46,48,50,52,54,56,58,60,62,64,66,68,-1,70,72,-1,74,76,78,-1,80,82,84,86,88,90,-1,-1,92,94,96,98,100,102,104,106,108,110,112,114,116,-1,-1,-1,-1,-1,-1,-1,-1,-1,-1,-1,-1,-1,-1,-1,-1,-1,-1,-1,-1,-1,-1,-1,-1,-1,-1,-1,-1,-1,-1,-1,-1,-1,-1,-1,-1,-1,-1,-1,-1,-1,-1,-1,-1,-1,-1,-1,-1,-1,-1,-1,-1,-1,-1],"split_conditions":[-1.1033816E0,-1.6044636E0,-7.9235715E-1,-1.8899195E0,4.0365973E-1,-2.9997375E0,2.7482092E-1,2.3969065E-2,1.1197364E0,-1.005765E0,6.8038815E-1,-3.3769987E0,2.1797302E-1,-7.5595653E-1,-1.1806252E0,-9.51453E-1,5.9923226E-1,-3.3817816E-1,-1.0553193E0,-1.322539E0,-6.563428E-1,-5.6523178E-2,-8.441073E-1,2.250924E-1,-1.0790389E0,1.5421997E0,-8.9177525E-1,-9.684723E-1,-3.385616E-2,2.3059885E-1,1.5390978E0,-2.3921287E-1,-1.542836E0,1.501839E0,1.9501222E-2,-1.2680554E0,-1.7733989E0,-2.067978E-2,7.1785825E-1,-1.4621077E0,2.5196669E-1,1.4625E-1,1.1050489E0,1.9727241E0,1.3005284E0,8.6169815E-1,1.2658343E0,1.3588542E0,4.9628492E-2,-1.5063368E-2,-9.684723E-1,1.3805667E0,-8.441073E-1,-9.9018764E-1,8.30883E-1,-1.0412931E0,-3.606546E-2,-7.1711165E-1,1.5006694E0,-4.6828353E-1,8.812668E-1,-9.51453E-1,9.298087E-1,1.7671539E-2,-1.5557528E-2,1.3721703E-1,6.242311E-2,1.3336582E-1,6.272751E-2,2.8397534E-2,4.6872344E-2,6.7797266E-2,5.3937163E-2,4.1266672E-2,1.07943155E-1,3.7865177E-2,2.671035E-2,3.6806804E-3,3.7819035E-2,5.317376E-2,3.8514428E-2,2.2441689E-2,-1.334254E-2,2.3320345E-3,5.3011995E-2,2.5829136E-2,1.2894212E-1,5.1783342E-2,6.781448E-2,-1.3939095E-2,1.1234331E-1,4.2971786E-2,8.7648876E-2,2.1667784E-2,5.2467026E-2,-2.553447E-2,4.895697E-2,1.2098572E-2,1.3081715E-1,-2.7118845E-2,-7.100696E-2,2.443297E-2,5.0210673E-2,7.2114104E-3,-1.4278339E-2,5.0502926E-2,-3.1604383E-2,8.266059E-4,-2.3806674E-2,4.116388E-3,2.8623706E-2,-2.9369658E-2,1.1545516E-2,1.0597117E-1,-3.0720344E-2,-7.188724E-2,-4.868413E-2],"split_indices":[5,5,7,5,0,2,5,0,4,8,8,7,5,4,8,2,7,3,2,5,4,8,2,4,0,8,4,0,4,7,0,4,8,4,0,8,5,0,8,5,7,0,8,0,2,0,4,5,0,0,0,0,2,4,0,4,5,5,0,2,2,2,4,0,0,0,0,0,0,0,0,0,0,0,0,0,0,0,0,0,0,0,0,0,0,0,0,0,0,0,0,0,0,0,0,0,0,0,0,0,0,0,0,0,0,0,0,0,0,0,0,0,0,0,0,0,0],"split_type":[0,0,0,0,0,0,0,0,0,0,0,0,0,0,0,0,0,0,0,0,0,0,0,0,0,0,0,0,0,0,0,0,0,0,0,0,0,0,0,0,0,0,0,0,0,0,0,0,0,0,0,0,0,0,0,0,0,0,0,0,0,0,0,0,0,0,0,0,0,0,0,0,0,0,0,0,0,0,0,0,0,0,0,0,0,0,0,0,0,0,0,0,0,0,0,0,0,0,0,0,0,0,0,0,0,0,0,0,0,0,0,0,0,0,0,0,0],"sum_hessian":[3.4851E4,7.162E3,2.7689E4,2.597E3,4.565E3,5.279E3,2.241E4,1.24E3,1.357E3,1.651E3,2.914E3,6.34E2,4.645E3,1.1266E4,1.1144E4,1.167E3,7.3E1,7.74E2,5.83E2,5.07E2,1.144E3,2.617E3,2.97E2,3.06E2,3.28E2,4.178E3,4.67E2,1.722E3,9.544E3,7.04E2,1.044E4,2.2E1,1.145E3,6.7E1,6E0,2.41E2,5.33E2,4E0,5.79E2,3.76E2,1.31E2,1.3E1,1.131E3,1.981E3,6.36E2,1.31E2,1.66E2,1.42E2,1.64E2,6E0,3.22E2,3.953E3,2.25E2,1.33E2,3.34E2,1.187E3,5.35E2,1.489E3,8.055E3,3.71E2,3.33E2,1.0088E4,3.52E2,1.1E1,1.1E1,4E0,1.141E3,4.8E1,1.9E1,5.1E1,1.9E2,1.61E2,3.72E2,5.75E2,4E0,1.29E2,2.47E2,9.5E1,3.6E1,6.98E2,4.33E2,1.916E3,6.5E1,6.16E2,2E1,1.29E2,2E0,1.34E2,3.2E1,1.24E2,1.8E1,1E1,3.12E2,3.567E3,3.86E2,2.05E2,2E1,1.27E2,6E0,3.12E2,2.2E1,7.79E2,4.08E2,8.3E1,4.52E2,1.3E1,1.476E3,5.879E3,2.176E3,1.5E2,2.21E2,3.1E2,2.3E1,1.2E1,1.0076E4,1.43E2,2.09E2],"tree_param":{"num_deleted":"0","num_feature":"9","num_nodes":"117","size_leaf_vector":"1"}},{"base_weights":[2.4855619E-3,-2.1397334E-1,4.753894E-1,4.6811056E-1,-4.362628E-1,2.812145E-1,8.191983E-1,1.1751035E0,3.980892E-1,-5.3203225E-2,-4.8400775E-1,8.7014437E-1,1.5703075E-1,1.1103643E0,6.96374E-1,5.850461E-1,1.7454379E0,6.310145E-2,5.15991E-1,4.403565E-1,-2.1507126E-1,-5.6928515E-1,-3.2486674E-1,1.055297E0,-1.5181991E-2,5.460223E-1,5.9937887E-2,1.2306979E0,1.022713E0,5.657636E-1,1.0260731E0,4.5887133E-1,1.1882273E-1,2.4665346E0,1.6411499E0,6.3228095E-1,-2.6727432E-1,4.5368183E-1,1.0282216E0,5.188411E-1,-3.9671025E-1,3.4270495E-1,-2.750698E-1,1.3126774E0,-5.770012E-1,-1.7123124E-1,-6.621716E-1,2.8333738E-1,1.1003615E0,-5.4112174E-2,1.7040974E-1,6.407006E-1,1.06288984E-1,2.1659711E-1,-1.9474497E-1,1.1610427E0,1.3388823E0,9.303147E-1,1.1201626E0,4.7376359E-1,7.051401E-1,9.893241E-1,2.1095507E0,-1.21219205E-2,4.704405E-2,7.6643564E-2,1.3569431E-1,1.1524948E-1,7.881793E-2,4.3337554E-2,-5.5132206E-3,-1.010972E-3,-2.700815E-2,3.58147E-2,1.6255748E-2,1.2412999E-1,4.955727E-2,3.3023946E-2,1.8745882E-2,-3.756807E-2,-7.93592E-3,4.089879E-3,3.3083506E-2,-2.8578524E-2,-8.563589E-3,8.8377014E-2,-4.491451E-2,-3.0499393E-2,-1.4342904E-2,-2.7174659E-3,-2.1081729E-2,-5.124241E-2,-2.5193367E-2,3.4169294E-3,2.4428295E-2,7.167885E-2,4.934076E-2,4.200472E-4,-7.2262795E-3,4.5207264E-3,1.4768614E-2,-2.7400611E-2,3.2568313E-2,1.3631456E-2,-2.1612113E-2,2.51827E-2,1.0588745E-3,-1.6321078E-2,6.87524E-5,5.9983104E-2,4.0318605E-2,7.853937E-2,6.428513E-2,3.4385595E-2,4.8611008E-2,4.7216605E-2,5.9495408E-2,2.3052802E-2,1.1595438E-1,3.3462238E-2,8.3033554E-2,4.7173873E-2,6.22753E-2,1.2371995E-1,7.912146E-2],"categories":[],"categories_nodes":[],"categories_segments":[],"categories_sizes":[],"default_left":[0,0,0,0,0,0,0,0,0,0,0,0,0,0,0,0,0,0,0,0,0,0,0,0,0,0,0,0,0,0,0,0,0,0,0,0,0,0,0,0,0,0,0,0,0,0,0,0,0,0,0,0,0,0,0,0,0,0,0,0,0,0,0,0,0,0,0,0,0,0,0,0,0,0,0,0,0,0,0,0,0,0,0,0,0,0,0,0,0,0,0,0,0,0,0,0,0,0,0,0,0,0,0,0,0,0,0,0,0,0,0,0,0,0,0,0,0,0,0,0,0,0,0,0,0],"id":10,"left_children":[1,3,5,7,9,11,13,15,17,19,21,23,25,27,29,31,33,35,37,39,41,43,45,47,49,51,53,55,57,59,61,63,-1,65,67,69,71,73,75,77,79,81,83,85,87,89,91,93,95,97,99,101,103,105,107,109,111,113,115,117,119,121,123,-1,-1,-1,-1,-1,-1,-1,-1,-1,-1,-1,-1,-1,-1,-1,-1,-1,-1,-1,-1,-1,-1,-1,-1,-1,-1,-1,-1,-1,-1,-1,-1,-1,-1,-1,-1,-1,-1,-1,-1,-1,-1,-1,-1,-1,-1,-1,-1,-1,-1,-1,-1,-1,-1,-1,-1,-1,-1,-1,-1,-1,-1],"loss_changes":[3.573638E3,3.6313525E3,7.315823E2,2.9096582E2,3.303313E2,5.123239E2,1.407024E2,1.7733966E2,2.1158514E2,1.6011745E2,2.1778125E2,1.9999902E2,2.1857019E2,1.1102905E1,1.19347534E2,5.8129517E1,1.6181335E1,2.626772E2,1.26019165E2,3.272577E1,5.0594116E1,1.5259229E2,2.9040088E2,3.4789185E1,1.5409468E0,4.8059875E1,1.8489157E2,2.130371E0,5.1167603E0,2.5272766E1,2.932837E1,8.338548E1,0E0,3.230133E0,6.6032104E0,8.9411285E1,5.9587013E1,1.1912024E2,2.0672272E1,8.986771E0,3.5101204E0,1.217927E1,4.185003E1,4.48323E1,9.949609E1,1.1274523E2,1.0018646E2,2.4816732E0,3.4642456E1,9.959704E-1,3.43161E-1,1.2414124E1,1.8571192E1,1.6093034E2,4.5580544E1,3.2102966E0,2.619629E-1,2.9608154E0,2.8987427E0,2.7210907E1,2.6053558E1,7.8098755E0,8.9242554E-1,0E0,0E0,0E0,0E0,0E0,0E0,0E0,0E0,0E0,0E0,0E0,0E0,0E0,0E0,0E0,0E0,0E0,0E0,0E0,0E0,0E0,0E0,0E0,0E0,0E0,0E0,0E0,0E0,0E0,0E0,0E0,0E0,0E0,0E0,0E0,0E0,0E0,0E0,0E0,0E0,0E0,0E0,0E0,0E0,0E0,0E0,0E0,0E0,0E0,0E0,0E0,0E0,0E0,0E0,0E0,0E0,0E0,0E0,0E0,0E0,0E0,0E0],"parents":[2147483647,0,0,1,1,2,2,3,3,4,4,5,5,6,6,7,7,8,8,9,9,10,10,11,11,12,12,13,13,14,14,15,15,16,16,17,17,18,18,19,19,20,20,21,21,22,22,23,23,24,24,25,25,26,26,27,27,28,28,29,29,30,30,31,31,33,33,34,34,35,35,36,36,37,37,38,38,39,39,40,40,41,41,42,42,43,43,44,44,45,45,46,46,47,47,48,48,49,49,50,50,51,51,52,52,53,53,54,54,55,55,56,56,57,57,58,58,59,59,60,60,61,61,62,62],"right_children":[2,4,6,8,10,12,14,16,18,20,22,24,26,28,30,32,34,36,38,40,42,44,46,48,50,52,54,56,58,60,62,64,-1,66,68,70,72,74,76,78,80,82,84,86,88,90,92,94,96,98,100,102,104,106,108,110,112,114,116,118,120,122,124,-1,-1,-1,-1,-1,-1,-1,-1,-1,-1,-1,-1,-1,-1,-1,-1,-1,-1,-1,-1,-1,-1,-1,-1,-1,-1,-1,-1,-1,-1,-1,-1,-1,-1,-1,-1,-1,-1,-1,-1,-1,-1,-1,-1,-1,-1,-1,-1,-1,-1,-1,-1,-1,-1,-1,-1,-1,-1,-1,-1,-1,-1],"split_conditions":[7.521013E-1,-7.9235715E-1,1.3005284E0,-3.9227908E0,-1.3305055E0,-1.4972773E-1,-6.689549E-1,-3.3769987E0,-9.51453E-1,-3.1169623E-1,4.696131E-1,3.2105705E-1,-1.3929557E0,-2.4224287E-1,1.9858335E0,-3.1657467E0,-8.502434E-1,-1.8618102E0,1.06914E0,1.9552051E0,-5.451006E-1,-9.001648E-1,1.5006694E0,-1.0613894E0,1.1237396E0,7.124351E-1,-5.712032E-1,-1.7589805E0,8.226597E-1,-6.185742E-1,2.586382E-1,2.250924E-1,1.1882273E-1,-3.1657467E0,-1.1033567E0,1.7545302E0,-3.6877376E-1,-1.3701766E0,-1.3515036E0,-4.6841675E-1,2.2059586E0,9.42427E-1,6.150179E-1,-2.0756328E-2,5.099457E-1,4.500109E-1,-3.7535027E-1,9.2879087E-1,-1.0777657E0,1.8563265E0,1.8563265E0,-3.927982E-1,1.2497808E0,3.1598642E-1,1.1665974E0,-9.634094E-1,-1.1293118E0,-4.0177456E-1,-1.3393845E-1,1.325778E0,1.4162201E0,-1.8836848E-1,2.7216515E-1,-1.21219205E-2,4.704405E-2,7.6643564E-2,1.3569431E-1,1.1524948E-1,7.881793E-2,4.3337554E-2,-5.5132206E-3,-1.010972E-3,-2.700815E-2,3.58147E-2,1.6255748E-2,1.2412999E-1,4.955727E-2,3.3023946E-2,1.8745882E-2,-3.756807E-2,-7.93592E-3,4.089879E-3,3.3083506E-2,-2.8578524E-2,-8.563589E-3,8.8377014E-2,-4.491451E-2,-3.0499393E-2,-1.4342904E-2,-2.7174659E-3,-2.1081729E-2,-5.124241E-2,-2.5193367E-2,3.4169294E-3,2.4428295E-2,7.167885E-2,4.934076E-2,4.200472E-4,-7.2262795E-3,4.5207264E-3,1.4768614E-2,-2.7400611E-2,3.2568313E-2,1.3631456E-2,-2.1612113E-2,2.51827E-2,1.0588745E-3,-1.6321078E-2,6.87524E-5,5.9983104E-2,4.0318605E-2,7.853937E-2,6.428513E-2,3.4385595E-2,4.8611008E-2,4.7216605E-2,5.9495408E-2,2.3052802E-2,1.1595438E-1,3.3462238E-2,8.3033554E-2,4.7173873E-2,6.22753E-2,1.2371995E-1,7.912146E-2],"split_indices":[2,7,2,2,8,7,0,7,2,7,4,1,8,7,2,3,0,3,0,0,1,2,0,4,2,3,1,3,4,8,0,4,0,3,1,8,8,7,7,7,0,3,0,0,2,3,2,2,1,1,1,4,7,7,1,1,1,3,7,0,4,0,3,0,0,0,0,0,0,0,0,0,0,0,0,0,0,0,0,0,0,0,0,0,0,0,0,0,0,0,0,0,0,0,0,0,0,0,0,0,0,0,0,0,0,0,0,0,0,0,0,0,0,0,0,0,0,0,0,0,0,0,0,0,0],"split_type":[0,0,0,0,0,0,0,0,0,0,0,0,0,0,0,0,0,0,0,0,0,0,0,0,0,0,0,0,0,0,0,0,0,0,0,0,0,0,0,0,0,0,0,0,0,0,0,0,0,0,0,0,0,0,0,0,0,0,0,0,0,0,0,0,0,0,0,0,0,0,0,0,0,0,0,0,0,0,0,0,0,0,0,0,0,0,0,0,0,0,0,0,0,0,0,0,0,0,0,0,0,0,0,0,0,0,0,0,0,0,0,0,0,0,0,0,0,0,0,0,0,0,0,0,0],"sum_hessian":[3.4909E4,2.3948E4,1.0961E4,5.886E3,1.8062E4,7.006E3,3.955E3,5.29E2,5.357E3,2.002E3,1.606E4,1.219E3,5.787E3,1.171E3,2.784E3,2.61E2,2.68E2,1.395E3,3.962E3,4.94E2,1.508E3,1.0455E4,5.605E3,1.008E3,2.11E2,1.155E3,4.632E3,4.88E2,6.83E2,1.996E3,7.88E2,2.45E2,1.6E1,3.1E1,2.37E2,5.12E2,8.83E2,3.534E3,4.28E2,4.52E2,4.2E1,1.46E2,1.362E3,4.2E1,1.0413E4,3.852E3,1.753E3,5.6E1,9.52E2,1.75E2,3.6E1,9.5E2,2.05E2,2.868E3,1.764E3,3.04E2,1.84E2,3.56E2,3.27E2,1.205E3,7.91E2,7.64E2,2.4E1,1E2,1.45E2,8E0,2.3E1,1.8E1,2.19E2,3.89E2,1.23E2,4.64E2,4.19E2,1.16E3,2.374E3,9E0,4.19E2,2.26E2,2.26E2,1.6E1,2.6E1,8.1E1,6.5E1,3.52E2,1.01E3,3.5E1,7E0,9.349E3,1.064E3,2.627E3,1.225E3,5.31E2,1.222E3,2.8E1,2.8E1,2.39E2,7.13E2,1.04E2,7.1E1,2.3E1,1.3E1,8E0,9.42E2,1.57E2,4.8E1,1.161E3,1.707E3,1.055E3,7.09E2,2.72E2,3.2E1,2.9E1,1.55E2,5.5E1,3.01E2,9.7E1,2.3E2,1.198E3,7E0,7.64E2,2.7E1,6.52E2,1.12E2,1.2E1,1.2E1],"tree_param":{"num_deleted":"0","num_feature":"9","num_nodes":"125","size_leaf_vector":"1"}},{"base_weights":[8.454552E-4,3.1072894E-1,-3.9415818E-1,9.0731597E-1,1.6482079E-1,1.0597984E0,-4.419843E-1,1.1667006E0,7.824365E-1,4.782315E-1,2.7463531E-2,1.2375646E-2,1.5395688E0,-1.208039E-1,-5.36077E-1,1.111879E0,1.9490863E0,6.83505E-1,9.0355015E-1,-3.4196433E-1,5.5791515E-1,4.320862E-1,-8.685228E-2,-2.5874057E-1,2.0751839E0,3.9667106E-1,1.5920665E0,3.216371E-1,-3.006978E-1,-6.138941E-2,-5.6789416E-1,6.137449E-2,1.1311427E0,2.0992367E0,1.6766429E-2,8.111307E-1,5.733896E-1,-4.3681812E-1,9.1676235E-1,-4.6308845E-1,1.1035357E0,7.65951E-1,4.0193585E-1,-2.748575E-3,6.4091593E-1,1.3433512E-1,-2.4751824E-1,-2.7629036E-1,1.969309E-2,4.5861475E-2,1.1702558E-1,8.288285E-2,-1.6360022E-2,2.0861082E0,1.5178328E0,-1.3620865E-1,4.5929614E-1,-1.8462788E-1,-6.716739E-1,3.1782684E-1,-4.837964E-1,-5.491143E-1,-1.0949426E0,1.784282E-2,-1.6444473E-2,5.6090713E-2,1.355189E-1,1.9104958E-2,1.0966217E-1,1.827646E-2,4.251496E-2,2.2864547E-2,3.325458E-2,-2.499569E-2,-4.04466E-3,9.057013E-2,4.5046125E-2,-1.5073264E-2,-3.0564202E-2,7.671889E-2,-1.0793156E-2,1.4180741E-2,4.252122E-2,2.2090053E-2,4.370025E-3,-5.629815E-3,2.3123197E-2,3.9705843E-2,4.9321554E-3,1.0372306E-2,-1.7255595E-2,-7.898461E-3,-2.2042245E-2,-1.2750173E-2,-2.2740334E-2,1.2699333E-1,7.6402225E-2,7.374227E-2,1.21945016E-1,-2.444925E-2,6.993136E-3,3.0686945E-2,1.2588814E-2,-1.774266E-2,7.611224E-3,-4.432716E-2,-2.7109751E-2,3.0143585E-3,2.4002511E-2,-2.6554042E-2,9.65266E-3,-2.8035624E-2,-1.3333431E-3,-6.4597145E-2,-4.223713E-2],"categories":[],"categories_nodes":[],"categories_segments":[],"categories_sizes":[],"default_left":[0,0,0,0,0,0,0,0,0,0,0,0,0,0,0,0,0,0,0,0,0,0,0,0,0,0,0,0,0,0,0,0,0,0,0,0,0,0,0,0,0,0,0,0,0,0,0,0,0,0,0,0,0,0,0,0,0,0,0,0,0,0,0,0,0,0,0,0,0,0,0,0,0,0,0,0,0,0,0,0,0,0,0,0,0,0,0,0,0,0,0,0,0,0,0,0,0,0,0,0,0,0,0,0,0,0,0,0,0,0,0,0,0,0,0],"id":11,"left_children":[1,3,5,7,9,11,13,15,17,19,21,23,25,27,29,31,33,35,37,39,41,43,45,47,49,51,53,55,57,59,61,63,65,67,-1,69,71,73,75,77,79,81,83,85,87,89,91,93,-1,-1,-1,-1,-1,95,97,99,101,103,105,107,109,111,113,-1,-1,-1,-1,-1,-1,-1,-1,-1,-1,-1,-1,-1,-1,-1,-1,-1,-1,-1,-1,-1,-1,-1,-1,-1,-1,-1,-1,-1,-1,-1,-1,-1,-1,-1,-1,-1,-1,-1,-1,-1,-1,-1,-1,-1,-1,-1,-1,-1,-1,-1,-1],"loss_changes":[4.255291E3,1.695611E3,1.0632036E3,1.2308276E2,6.7387964E2,2.4470935E2,4.4711133E2,5.110437E1,3.037976E1,3.1193994E2,5.0352066E2,8.66631E1,1.9408325E1,2.6704974E2,1.7280591E2,2.3465942E1,1.8680573E1,1.9603394E1,2.0943237E1,7.457196E1,1.4078162E2,2.1775562E2,3.0167374E2,1.6778841E0,3.383484E0,1.5147055E1,8.532837E0,6.119837E1,1.0257208E2,1.15485954E2,1.0555371E2,2.6543171E0,1.3783325E1,1.0945801E1,0E0,1.1191071E1,7.8936462E0,2.2904825E-1,1.4650513E1,9.180885E0,1.9090149E1,7.562512E1,3.1145905E1,3.986095E1,1.3450586E2,1.25280396E2,8.5054504E1,3.9323044E-1,0E0,0E0,0E0,0E0,0E0,5.9947815E0,7.5289917E0,2.1981462E1,2.375473E1,1.04299576E2,1.5321655E1,1.5847057E1,1.1016052E1,6.2748535E1,1.704715E1,0E0,0E0,0E0,0E0,0E0,0E0,0E0,0E0,0E0,0E0,0E0,0E0,0E0,0E0,0E0,0E0,0E0,0E0,0E0,0E0,0E0,0E0,0E0,0E0,0E0,0E0,0E0,0E0,0E0,0E0,0E0,0E0,0E0,0E0,0E0,0E0,0E0,0E0,0E0,0E0,0E0,0E0,0E0,0E0,0E0,0E0,0E0,0E0,0E0,0E0,0E0,0E0],"parents":[2147483647,0,0,1,1,2,2,3,3,4,4,5,5,6,6,7,7,8,8,9,9,10,10,11,11,12,12,13,13,14,14,15,15,16,16,17,17,18,18,19,19,20,20,21,21,22,22,23,23,24,24,25,25,26,26,27,27,28,28,29,29,30,30,31,31,32,32,33,33,35,35,36,36,37,37,38,38,39,39,40,40,41,41,42,42,43,43,44,44,45,45,46,46,47,47,53,53,54,54,55,55,56,56,57,57,58,58,59,59,60,60,61,61,62,62],"right_children":[2,4,6,8,10,12,14,16,18,20,22,24,26,28,30,32,34,36,38,40,42,44,46,48,50,52,54,56,58,60,62,64,66,68,-1,70,72,74,76,78,80,82,84,86,88,90,92,94,-1,-1,-1,-1,-1,96,98,100,102,104,106,108,110,112,114,-1,-1,-1,-1,-1,-1,-1,-1,-1,-1,-1,-1,-1,-1,-1,-1,-1,-1,-1,-1,-1,-1,-1,-1,-1,-1,-1,-1,-1,-1,-1,-1,-1,-1,-1,-1,-1,-1,-1,-1,-1,-1,-1,-1,-1,-1,-1,-1,-1,-1,-1,-1],"split_conditions":[1.4252386E-3,-1.4471351E0,-2.9997375E0,-1.8899195E0,-3.4017656E-3,-3.3769987E0,2.7482092E-1,2.3969065E-2,-4.1873384E-1,-1.5462154E0,-6.795459E-1,1.3588542E0,-9.684723E-1,-8.502434E-1,-1.1806252E0,-2.879962E0,5.9923226E-1,-1.6318351E0,-1.0553193E0,-1.4395334E-1,-5.037204E-1,-2.313835E-1,-8.917162E-1,1.3209491E0,1.4031628E0,-3.9227908E0,-1.0995644E0,1.9289538E-1,6.05448E-1,2.3059885E-1,1.5390978E0,-4.1873384E-1,-8.912458E-1,-1.2021104E0,1.6766429E-2,-5.047009E-1,-1.074212E0,-1.4621077E0,-7.7439713E-1,4.8941782E-1,-6.192518E-1,-1.005765E0,-1.065264E0,-4.10097E-1,1.5421997E0,1.6853483E0,-4.0690756E-1,-9.2867327E-1,1.969309E-2,4.5861475E-2,1.1702558E-1,8.288285E-2,-1.6360022E-2,-3.9525177E0,1.3588542E0,-3.3925524E-1,2.4203992E-1,1.2514839E0,-9.976833E-2,-4.7622922E-1,8.16084E-1,7.1631503E-1,6.837705E-2,1.784282E-2,-1.6444473E-2,5.6090713E-2,1.355189E-1,1.9104958E-2,1.0966217E-1,1.827646E-2,4.251496E-2,2.2864547E-2,3.325458E-2,-2.499569E-2,-4.04466E-3,9.057013E-2,4.5046125E-2,-1.5073264E-2,-3.0564202E-2,7.671889E-2,-1.0793156E-2,1.4180741E-2,4.252122E-2,2.2090053E-2,4.370025E-3,-5.629815E-3,2.3123197E-2,3.9705843E-2,4.9321554E-3,1.0372306E-2,-1.7255595E-2,-7.898461E-3,-2.2042245E-2,-1.2750173E-2,-2.2740334E-2,1.2699333E-1,7.6402225E-2,7.374227E-2,1.21945016E-1,-2.444925E-2,6.993136E-3,3.0686945E-2,1.2588814E-2,-1.774266E-2,7.611224E-3,-4.432716E-2,-2.7109751E-2,3.0143585E-3,2.4002511E-2,-2.6554042E-2,9.65266E-3,-2.8035624E-2,-1.3333431E-3,-6.4597145E-2,-4.223713E-2],"split_indices":[5,5,2,5,0,7,5,0,8,0,7,5,0,0,8,7,7,5,2,8,5,8,5,5,5,2,1,3,8,7,0,8,1,1,0,3,1,5,7,7,1,8,0,2,8,0,5,0,0,0,0,0,0,2,5,1,1,0,7,2,1,2,8,0,0,0,0,0,0,0,0,0,0,0,0,0,0,0,0,0,0,0,0,0,0,0,0,0,0,0,0,0,0,0,0,0,0,0,0,0,0,0,0,0,0,0,0,0,0,0,0,0,0,0,0],"split_type":[0,0,0,0,0,0,0,0,0,0,0,0,0,0,0,0,0,0,0,0,0,0,0,0,0,0,0,0,0,0,0,0,0,0,0,0,0,0,0,0,0,0,0,0,0,0,0,0,0,0,0,0,0,0,0,0,0,0,0,0,0,0,0,0,0,0,0,0,0,0,0,0,0,0,0,0,0,0,0,0,0,0,0,0,0,0,0,0,0,0,0,0,0,0,0,0,0,0,0,0,0,0,0,0,0,0,0,0,0,0,0,0,0,0,0],"sum_hessian":[3.4762E4,1.948E4,1.5282E4,3.827E3,1.5653E4,4.86E2,1.4796E4,1.241E3,2.586E3,4.769E3,1.0884E4,1.53E2,3.33E2,3.353E3,1.1443E4,1.162E3,7.9E1,1.427E3,1.159E3,4.22E2,4.347E3,2.397E3,8.487E3,1.36E2,1.7E1,1.5E1,3.18E2,9.69E2,2.384E3,7.19E2,1.0724E4,2.1E1,1.141E3,7.2E1,7E0,6.58E2,7.69E2,1.1E1,1.148E3,3.9E2,3.2E1,1.861E3,2.486E3,7.78E2,1.619E3,3.571E3,4.916E3,1.33E2,3E0,4E0,1.3E1,5E0,1E1,3.8E1,2.8E2,2.24E2,7.45E2,1.817E3,5.67E2,3.79E2,3.4E2,1.0357E4,3.67E2,1.2E1,9E0,1.136E3,5E0,4E0,6.8E1,5.4E1,6.04E2,3.42E2,4.27E2,9E0,2E0,1.8E1,1.13E3,1.88E2,2.02E2,2.4E1,8E0,2.78E2,1.583E3,2.206E3,2.8E2,6.3E2,1.48E2,1.262E3,3.57E2,3.099E3,4.72E2,3.361E3,1.555E3,1.21E2,1.2E1,1.9E1,1.9E1,2.7E2,1E1,9.8E1,1.26E2,4.26E2,3.19E2,1.207E3,6.1E2,2.11E2,3.56E2,1.47E2,2.32E2,3.18E2,2.2E1,1.0132E4,2.25E2,2.03E2,1.64E2],"tree_param":{"num_deleted":"0","num_feature":"9","num_nodes":"115","size_leaf_vector":"1"}},{"base_weights":[-1.2059638E-3,6.5518165E-1,-1.682753E-1,9.635476E-1,4.7513846E-1,4.068796E-1,-3.009394E-1,1.0997007E0,8.394674E-1,7.1965295E-1,3.3557948E-1,9.041411E-1,3.0456343E-1,-9.224067E-2,-5.1249975E-1,1.0486698E0,1.802113E0,9.201456E-1,7.3247343E-1,2.3567576E0,7.040214E-1,6.292728E-1,2.4407542E-1,5.945021E-1,1.3422343E0,-2.0170571E-1,4.448066E-1,3.4070575E-1,-1.7035109E-1,-4.963894E-1,-1.0167913E0,5.5714346E-2,1.0668644E0,3.5482368E-1,1.9733398E0,8.7864196E-1,1.2285775E0,8.228628E-1,6.1004204E-1,1.3517883E-1,6.828944E-2,6.1266404E-1,8.923451E-1,3.3309954E-1,7.9147524E-1,3.657543E-1,-2.1987304E-2,4.9594295E-1,2.2041962E0,1.5180615E0,8.2641214E-1,4.4841204E-2,-2.6033038E-1,9.5123905E-1,3.826921E-1,5.7860214E-1,-1.8224533E-1,-5.405533E-1,-1.0074981E-1,1.9938021E0,-4.9908188E-1,-1.2229048E0,-7.697969E-1,-1.5385777E-2,1.4268412E-2,6.993352E-2,5.175525E-2,4.627962E-2,9.428067E-3,1.0698246E-1,1.669159E-2,3.8492706E-2,4.860175E-2,7.705517E-2,5.2331474E-2,1.0331631E-1,3.9716925E-2,9.098525E-3,3.226992E-2,-1.0138511E-3,6.135559E-3,3.2975744E-2,7.573459E-3,3.404447E-2,5.0543692E-2,5.776499E-3,2.3892468E-2,5.1690407E-2,2.9174522E-2,2.024561E-2,9.847122E-3,2.129972E-2,-1.9085336E-3,4.5770373E-2,-9.5126415E-3,3.7296906E-2,1.1999269E-1,1.04467824E-1,7.169423E-2,-9.304888E-3,5.156202E-2,1.4748986E-2,-1.82214E-2,1.1719821E-1,4.409328E-2,-2.8119227E-2,2.0293523E-2,2.0710533E-2,4.2504773E-2,6.0135E-3,-1.1908161E-2,9.812365E-3,-2.8432036E-2,6.544642E-4,-2.0647546E-2,-8.7738035E-6,1.4954065E-1,-2.5985384E-2,-1.01183085E-2,-5.408105E-2,-6.9247566E-2,-3.305192E-2,-5.6453433E-2],"categories":[],"categories_nodes":[],"categories_segments":[],"categories_sizes":[],"default_left":[0,0,0,0,0,0,0,0,0,0,0,0,0,0,0,0,0,0,0,0,0,0,0,0,0,0,0,0,0,0,0,0,0,0,0,0,0,0,0,0,0,0,0,0,0,0,0,0,0,0,0,0,0,0,0,0,0,0,0,0,0,0,0,0,0,0,0,0,0,0,0,0,0,0,0,0,0,0,0,0,0,0,0,0,0,0,0,0,0,0,0,0,0,0,0,0,0,0,0,0,0,0,0,0,0,0,0,0,0,0,0,0,0,0,0,0,0,0,0,0,0,0,0],"id":12,"left_children":[1,3,5,7,9,11,13,15,17,19,21,23,25,27,29,31,33,35,37,39,41,43,45,47,49,51,53,55,57,59,61,63,65,67,69,71,73,75,77,-1,79,81,83,85,87,89,91,93,95,97,99,-1,101,103,105,107,109,111,113,115,117,119,121,-1,-1,-1,-1,-1,-1,-1,-1,-1,-1,-1,-1,-1,-1,-1,-1,-1,-1,-1,-1,-1,-1,-1,-1,-1,-1,-1,-1,-1,-1,-1,-1,-1,-1,-1,-1,-1,-1,-1,-1,-1,-1,-1,-1,-1,-1,-1,-1,-1,-1,-1,-1,-1,-1,-1,-1,-1,-1,-1,-1],"loss_changes":[3.8430042E3,3.9428394E2,2.1315542E3,4.3338867E1,1.530102E2,2.6612128E2,1.0021677E3,4.2772705E1,1.1195129E1,4.0078857E1,7.673331E1,1.2033807E2,3.085171E2,3.8652594E2,9.1072754E1,2.0969727E1,1.9868439E1,8.9053955E0,6.0936584E0,1.1720634E1,2.7273438E1,3.235556E1,7.0680954E1,8.219812E1,3.221222E1,6.0963577E1,1.066521E2,2.174465E2,2.494172E2,7.424536E1,1.6774902E1,1.924E0,1.0597168E1,7.7444255E-1,1.9462952E1,6.272217E0,3.5047455E0,1.041806E1,3.7722702E0,0E0,1.694804E-2,2.3495392E1,1.2495117E1,7.5661354E0,2.1472656E1,9.8224945E0,4.98966E0,1.4294019E2,6.7694244E0,1.0180664E1,2.010141E1,0E0,5.1902084E1,3.377829E1,6.664517E1,5.324991E1,9.281708E0,3.1816132E1,2.8969757E2,2.3856731E1,6.668848E1,2.8061829E0,5.544533E0,0E0,0E0,0E0,0E0,0E0,0E0,0E0,0E0,0E0,0E0,0E0,0E0,0E0,0E0,0E0,0E0,0E0,0E0,0E0,0E0,0E0,0E0,0E0,0E0,0E0,0E0,0E0,0E0,0E0,0E0,0E0,0E0,0E0,0E0,0E0,0E0,0E0,0E0,0E0,0E0,0E0,0E0,0E0,0E0,0E0,0E0,0E0,0E0,0E0,0E0,0E0,0E0,0E0,0E0,0E0,0E0,0E0,0E0,0E0,0E0],"parents":[2147483647,0,0,1,1,2,2,3,3,4,4,5,5,6,6,7,7,8,8,9,9,10,10,11,11,12,12,13,13,14,14,15,15,16,16,17,17,18,18,19,19,20,20,21,21,22,22,23,23,24,24,25,25,26,26,27,27,28,28,29,29,30,30,31,31,32,32,33,33,34,34,35,35,36,36,37,37,38,38,40,40,41,41,42,42,43,43,44,44,45,45,46,46,47,47,48,48,49,49,50,50,52,52,53,53,54,54,55,55,56,56,57,57,58,58,59,59,60,60,61,61,62,62],"right_children":[2,4,6,8,10,12,14,16,18,20,22,24,26,28,30,32,34,36,38,40,42,44,46,48,50,52,54,56,58,60,62,64,66,68,70,72,74,76,78,-1,80,82,84,86,88,90,92,94,96,98,100,-1,102,104,106,108,110,112,114,116,118,120,122,-1,-1,-1,-1,-1,-1,-1,-1,-1,-1,-1,-1,-1,-1,-1,-1,-1,-1,-1,-1,-1,-1,-1,-1,-1,-1,-1,-1,-1,-1,-1,-1,-1,-1,-1,-1,-1,-1,-1,-1,-1,-1,-1,-1,-1,-1,-1,-1,-1,-1,-1,-1,-1,-1,-1,-1,-1,-1,-1,-1],"split_conditions":[-1.1033816E0,-1.6044636E0,-8.0840135E-1,-1.8899195E0,4.0365973E-1,-1.7247823E0,2.7482092E-1,2.3969065E-2,1.1197364E0,-6.563428E-1,1.0164056E0,-3.1147084E0,-7.408262E-1,-7.5595653E-1,1.4713027E0,-2.3937886E0,-1.4020344E0,-1.8836848E-1,1.4108701E0,-1.0940214E0,3.0102387E-1,-8.441073E-1,-6.5185523E-1,1.3588542E0,-2.9997375E0,-2.6838048E0,-7.7685624E-1,-9.684723E-1,-3.385616E-2,-9.51453E-1,1.1866918E0,-1.141929E0,-9.684723E-1,2.4263214E-1,5.9923226E-1,-4.9855E-2,-1.7733989E0,-1.1344404E0,5.147728E-1,1.3517883E-1,-8.502434E-1,-1.2414294E0,1.380296E0,-9.51453E-1,5.955642E-1,1.8524776E0,5.2829057E-1,3.5337466E-1,-2.6771615E0,-1.0995644E0,8.202596E-2,4.4841204E-2,-9.9018764E-1,-9.9830925E-1,-1.2771223E0,-1.0613894E0,-3.606546E-2,-6.1044985E-1,1.5006694E0,-6.008679E-1,5.099457E-1,5.890546E-1,5.2857614E-1,-1.5385777E-2,1.4268412E-2,6.993352E-2,5.175525E-2,4.627962E-2,9.428067E-3,1.0698246E-1,1.669159E-2,3.8492706E-2,4.860175E-2,7.705517E-2,5.2331474E-2,1.0331631E-1,3.9716925E-2,9.098525E-3,3.226992E-2,-1.0138511E-3,6.135559E-3,3.2975744E-2,7.573459E-3,3.404447E-2,5.0543692E-2,5.776499E-3,2.3892468E-2,5.1690407E-2,2.9174522E-2,2.024561E-2,9.847122E-3,2.129972E-2,-1.9085336E-3,4.5770373E-2,-9.5126415E-3,3.7296906E-2,1.1999269E-1,1.04467824E-1,7.169423E-2,-9.304888E-3,5.156202E-2,1.4748986E-2,-1.82214E-2,1.1719821E-1,4.409328E-2,-2.8119227E-2,2.0293523E-2,2.0710533E-2,4.2504773E-2,6.0135E-3,-1.1908161E-2,9.812365E-3,-2.8432036E-2,6.544642E-4,-2.0647546E-2,-8.7738035E-6,1.4954065E-1,-2.5985384E-2,-1.01183085E-2,-5.408105E-2,-6.9247566E-2,-3.305192E-2,-5.6453433E-2],"split_indices":[5,5,7,5,0,6,5,0,4,4,6,7,2,4,0,6,6,0,6,0,7,2,1,5,2,7,6,0,4,2,1,2,0,2,7,7,5,1,0,0,0,5,2,2,6,6,0,5,6,1,4,0,4,6,1,4,5,5,0,4,2,5,5,0,0,0,0,0,0,0,0,0,0,0,0,0,0,0,0,0,0,0,0,0,0,0,0,0,0,0,0,0,0,0,0,0,0,0,0,0,0,0,0,0,0,0,0,0,0,0,0,0,0,0,0,0,0,0,0,0,0,0,0],"split_type":[0,0,0,0,0,0,0,0,0,0,0,0,0,0,0,0,0,0,0,0,0,0,0,0,0,0,0,0,0,0,0,0,0,0,0,0,0,0,0,0,0,0,0,0,0,0,0,0,0,0,0,0,0,0,0,0,0,0,0,0,0,0,0,0,0,0,0,0,0,0,0,0,0,0,0,0,0,0,0,0,0,0,0,0,0,0,0,0,0,0,0,0,0,0,0,0,0,0,0,0,0,0,0,0,0,0,0,0,0,0,0,0,0,0,0,0,0,0,0,0,0,0,0],"sum_hessian":[3.5042E4,7.109E3,2.7933E4,2.619E3,4.49E3,5.235E3,2.2698E4,1.245E3,1.374E3,1.63E3,2.86E3,8.92E2,4.343E3,1.1427E4,1.1271E4,1.163E3,8.2E1,7.79E2,5.95E2,1.4E1,1.616E3,6.78E2,2.182E3,5.24E2,3.68E2,9.42E2,3.401E3,1.746E3,9.681E3,1.0924E4,3.47E2,2.1E1,1.142E3,9E0,7.3E1,6.9E2,8.9E1,3.39E2,2.56E2,1.2E1,2E0,1.091E3,5.25E2,2.41E2,4.37E2,1.497E3,6.85E2,4.95E2,2.9E1,2.73E2,9.5E1,4.7E1,8.95E2,3.7E2,3.031E3,1.2E3,5.46E2,1.531E3,8.15E3,1.1E1,1.0913E4,1.87E2,1.6E2,8E0,1.3E1,9.6E1,1.046E3,1E0,8E0,6.6E1,7E0,3.23E2,3.67E2,3E1,5.9E1,6E0,3.33E2,2E1,2.36E2,1E0,1E0,9.9E2,1.01E2,1.91E2,3.34E2,9.7E1,1.44E2,2E2,2.37E2,1.214E3,2.83E2,2.3E1,6.62E2,3.07E2,1.88E2,4E0,2.5E1,3.2E1,2.41E2,1.6E1,7.9E1,1.41E2,7.54E2,1.6E1,3.54E2,7.2E1,2.959E3,7.49E2,4.51E2,8.5E1,4.61E2,5.6E1,1.475E3,5.973E3,2.177E3,4E0,7E0,1.0203E4,7.1E2,1.04E2,8.3E1,1.25E2,3.5E1],"tree_param":{"num_deleted":"0","num_feature":"9","num_nodes":"123","size_leaf_vector":"1"}},{"base_weights":[8.2848844E-4,6.302237E-1,-1.5773371E-1,9.1509175E-1,4.6402633E-1,3.7352195E-1,-2.812527E-1,1.0763432E0,8.21478E-1,6.934853E-1,3.3006433E-1,8.485941E-1,2.7840063E-1,-7.7251785E-2,-4.8114046E-1,1.013801E0,1.9233892E0,8.9095205E-1,7.2173584E-1,5.187077E-1,8.695597E-1,6.155456E-1,2.413723E-1,4.4788545E-1,1.1540698E0,-4.2789906E-2,4.389556E-1,3.2224438E-1,-1.515911E-1,-4.6454528E-1,-9.841939E-1,1.01346515E-1,1.0348053E0,8.776147E-3,2.1011767E0,8.51098E-1,1.2154509E0,1.6313959E0,6.9591165E-1,5.83156E-1,2.1836607E-1,1.4928799E0,7.8795314E-1,3.236031E-1,7.62438E-1,3.5940713E-1,-2.1725316E-2,2.7918616E-1,2.0568318E0,4.2063694E-2,1.4118211E0,1.6136195E-1,-4.0103236E-1,5.6673586E-1,2.7720922E-1,5.3581923E-1,-1.7996514E-1,-5.281784E-1,-8.645308E-2,-3.1404403E-1,-5.044456E-1,-1.1823517E0,-7.5858414E-1,1.3694069E-2,-1.066289E-2,4.741314E-2,5.7781745E-2,1.1212647E-1,6.8622336E-2,7.294245E-2,4.2003036E-2,7.682124E-2,5.0611593E-2,1.6177528E-2,1.0547625E-1,4.0033042E-2,2.9807879E-2,2.794212E-2,7.47112E-2,3.9161086E-2,-2.3324797E-3,1.2794988E-1,6.438242E-2,3.429602E-2,5.6515437E-2,2.482138E-2,5.970845E-3,3.5409365E-2,8.817386E-2,1.968863E-2,1.0645178E-2,1.0908331E-3,-9.8688975E-3,3.041624E-3,6.2953964E-2,4.002824E-2,1.16623156E-1,9.331327E-2,6.737538E-2,1.08082704E-1,5.8683604E-3,5.1665116E-2,-2.124741E-2,2.3246646E-2,4.3353137E-2,1.624233E-2,-5.5702265E-2,1.8217556E-2,3.949334E-2,7.1181133E-3,-1.2259948E-2,-1.8768115E-2,-3.0196784E-2,1.190768E-3,-1.948191E-2,3.371826E-3,-2.1075545E-2,-2.6252229E-2,-5.2497513E-3,-6.397653E-2,-5.0130785E-2,-5.4800976E-2,-3.4006454E-2],"categories":[],"categories_nodes":[],"categories_segments":[],"categories_sizes":[],"default_left":[0,0,0,0,0,0,0,0,0,0,0,0,0,0,0,0,0,0,0,0,0,0,0,0,0,0,0,0,0,0,0,0,0,0,0,0,0,0,0,0,0,0,0,0,0,0,0,0,0,0,0,0,0,0,0,0,0,0,0,0,0,0,0,0,0,0,0,0,0,0,0,0,0,0,0,0,0,0,0,0,0,0,0,0,0,0,0,0,0,0,0,0,0,0,0,0,0,0,0,0,0,0,0,0,0,0,0,0,0,0,0,0,0,0,0,0,0,0,0,0,0,0,0],"id":13,"left_children":[1,3,5,7,9,11,13,15,17,19,21,23,25,27,29,31,33,35,37,39,41,43,45,47,49,51,53,55,57,59,61,63,65,-1,67,69,71,73,75,77,79,81,83,85,87,89,91,93,95,-1,97,99,101,103,105,107,109,111,113,115,117,119,121,-1,-1,-1,-1,-1,-1,-1,-1,-1,-1,-1,-1,-1,-1,-1,-1,-1,-1,-1,-1,-1,-1,-1,-1,-1,-1,-1,-1,-1,-1,-1,-1,-1,-1,-1,-1,-1,-1,-1,-1,-1,-1,-1,-1,-1,-1,-1,-1,-1,-1,-1,-1,-1,-1,-1,-1,-1,-1,-1,-1],"loss_changes":[3.4834592E3,3.3212158E2,1.8296611E3,3.816748E1,1.3618994E2,2.3746057E2,9.224265E2,4.8218506E1,1.07282715E1,4.9864258E1,7.084842E1,1.0683386E2,2.260961E2,3.3258038E2,9.4930176E1,1.6837463E1,1.9519135E1,1.1419617E1,1.4815247E1,1.5803055E1,4.0178528E1,2.8228363E1,6.649588E1,1.0283988E2,3.888214E1,1.0698934E2,6.0255493E1,1.8855104E2,2.3154352E2,6.6275635E1,1.537619E1,1.1982917E0,7.938904E0,0E0,2.8967285E0,4.549988E0,5.163269E0,1.05732E1,6.440033E0,1.4161438E1,2.204179E1,1.705339E1,2.4410309E1,7.845314E0,2.2700562E1,7.3573914E0,5.082753E0,7.395469E1,1.0598312E1,0E0,5.4057007E0,8.1764465E1,1.8654144E1,4.9493896E1,8.5990135E1,5.3423004E1,1.10738945E1,1.5888367E1,2.6913483E2,9.518132E1,7.188428E1,2.0707092E0,3.834488E0,0E0,0E0,0E0,0E0,0E0,0E0,0E0,0E0,0E0,0E0,0E0,0E0,0E0,0E0,0E0,0E0,0E0,0E0,0E0,0E0,0E0,0E0,0E0,0E0,0E0,0E0,0E0,0E0,0E0,0E0,0E0,0E0,0E0,0E0,0E0,0E0,0E0,0E0,0E0,0E0,0E0,0E0,0E0,0E0,0E0,0E0,0E0,0E0,0E0,0E0,0E0,0E0,0E0,0E0,0E0,0E0,0E0,0E0,0E0,0E0],"parents":[2147483647,0,0,1,1,2,2,3,3,4,4,5,5,6,6,7,7,8,8,9,9,10,10,11,11,12,12,13,13,14,14,15,15,16,16,17,17,18,18,19,19,20,20,21,21,22,22,23,23,24,24,25,25,26,26,27,27,28,28,29,29,30,30,31,31,32,32,34,34,35,35,36,36,37,37,38,38,39,39,40,40,41,41,42,42,43,43,44,44,45,45,46,46,47,47,48,48,50,50,51,51,52,52,53,53,54,54,55,55,56,56,57,57,58,58,59,59,60,60,61,61,62,62],"right_children":[2,4,6,8,10,12,14,16,18,20,22,24,26,28,30,32,34,36,38,40,42,44,46,48,50,52,54,56,58,60,62,64,66,-1,68,70,72,74,76,78,80,82,84,86,88,90,92,94,96,-1,98,100,102,104,106,108,110,112,114,116,118,120,122,-1,-1,-1,-1,-1,-1,-1,-1,-1,-1,-1,-1,-1,-1,-1,-1,-1,-1,-1,-1,-1,-1,-1,-1,-1,-1,-1,-1,-1,-1,-1,-1,-1,-1,-1,-1,-1,-1,-1,-1,-1,-1,-1,-1,-1,-1,-1,-1,-1,-1,-1,-1,-1,-1,-1,-1,-1,-1,-1,-1],"split_conditions":[-1.1181718E0,-1.6044636E0,-8.0840135E-1,-1.9722207E0,4.0365973E-1,-1.7247823E0,2.5088006E-1,2.3969065E-2,1.1197364E0,-3.7930244E-1,1.0164056E0,-6.06548E-1,-7.390696E-2,-7.033385E-1,1.5390978E0,-2.3937886E0,-1.9486135E0,-1.8836848E-1,5.4273593E-1,-1.2876191E0,5.392836E-2,-2.2739701E0,-6.2790906E-1,1.3209491E0,-4.857667E-2,-1.952282E-1,-1.1643829E-1,-9.684723E-1,-3.385616E-2,-1.2175148E0,1.1866918E0,-3.5152535E0,-1.7589805E0,8.776147E-3,1.501839E0,-1.1642383E0,-1.7733989E0,-1.080313E0,-1.7733989E0,1.2717409E0,-1.745289E0,-1.0940214E0,1.8714706E0,-1.8090914E0,1.1674106E0,1.8524776E0,-1.1963022E0,-2.701435E0,-2.6771615E0,4.2063694E-2,-1.0995644E0,-7.6807016E-1,-2.1216502E0,-9.4622225E-1,1.4713027E0,-1.0709329E0,-3.606546E-2,-5.8537036E-1,1.5006694E0,5.710864E-1,1.1989782E0,-1.0957143E0,9.298087E-1,1.3694069E-2,-1.066289E-2,4.741314E-2,5.7781745E-2,1.1212647E-1,6.8622336E-2,7.294245E-2,4.2003036E-2,7.682124E-2,5.0611593E-2,1.6177528E-2,1.0547625E-1,4.0033042E-2,2.9807879E-2,2.794212E-2,7.47112E-2,3.9161086E-2,-2.3324797E-3,1.2794988E-1,6.438242E-2,3.429602E-2,5.6515437E-2,2.482138E-2,5.970845E-3,3.5409365E-2,8.817386E-2,1.968863E-2,1.0645178E-2,1.0908331E-3,-9.8688975E-3,3.041624E-3,6.2953964E-2,4.002824E-2,1.16623156E-1,9.331327E-2,6.737538E-2,1.08082704E-1,5.8683604E-3,5.1665116E-2,-2.124741E-2,2.3246646E-2,4.3353137E-2,1.624233E-2,-5.5702265E-2,1.8217556E-2,3.949334E-2,7.1181133E-3,-1.2259948E-2,-1.8768115E-2,-3.0196784E-2,1.190768E-3,-1.948191E-2,3.371826E-3,-2.1075545E-2,-2.6252229E-2,-5.2497513E-3,-6.397653E-2,-5.0130785E-2,-5.4800976E-2,-3.4006454E-2],"split_indices":[5,5,7,5,0,6,5,0,4,3,6,0,1,4,0,6,6,0,6,5,7,7,1,5,5,5,5,0,4,0,1,6,3,0,4,1,5,3,5,4,7,0,3,3,0,6,5,3,6,0,1,0,3,4,0,4,5,0,0,5,0,1,4,0,0,0,0,0,0,0,0,0,0,0,0,0,0,0,0,0,0,0,0,0,0,0,0,0,0,0,0,0,0,0,0,0,0,0,0,0,0,0,0,0,0,0,0,0,0,0,0,0,0,0,0,0,0,0,0,0,0,0,0],"split_type":[0,0,0,0,0,0,0,0,0,0,0,0,0,0,0,0,0,0,0,0,0,0,0,0,0,0,0,0,0,0,0,0,0,0,0,0,0,0,0,0,0,0,0,0,0,0,0,0,0,0,0,0,0,0,0,0,0,0,0,0,0,0,0,0,0,0,0,0,0,0,0,0,0,0,0,0,0,0,0,0,0,0,0,0,0,0,0,0,0,0,0,0,0,0,0,0,0,0,0,0,0,0,0,0,0,0,0,0,0,0,0,0,0,0,0,0,0,0,0,0,0,0,0],"sum_hessian":[3.4903E4,7.023E3,2.788E4,2.586E3,4.437E3,5.259E3,2.2621E4,9.46E2,1.64E3,1.634E3,2.803E3,8.76E2,4.383E3,1.1196E4,1.1425E4,8.83E2,6.3E1,9.62E2,6.78E2,8.22E2,8.12E2,6.63E2,2.14E3,3.8E2,4.96E2,1.461E3,2.922E3,1.756E3,9.44E3,1.1062E4,3.63E2,2E1,8.63E2,6E0,5.7E1,8.6E2,1.02E2,1.7E1,6.61E2,6.76E2,1.46E2,9.2E1,7.2E2,2.23E2,4.4E2,1.477E3,6.63E2,3.45E2,3.5E1,2.26E2,2.7E2,9.31E2,5.3E2,1.631E3,1.291E3,1.232E3,5.24E2,1.391E3,8.049E3,2.32E3,8.742E3,1.91E2,1.72E2,1.3E1,7E0,5.08E2,3.55E2,4.6E1,1.1E1,1.3E1,8.47E2,3.7E1,6.5E1,5E0,1.2E1,3.19E2,3.42E2,6.6E2,1.6E1,4.6E1,1E2,1.3E1,7.9E1,5.57E2,1.63E2,1.2E2,1.03E2,4.19E2,2.1E1,1.195E3,2.82E2,5.32E2,1.31E2,2.83E2,6.2E1,7E0,2.8E1,3E1,2.4E2,1.9E1,9.12E2,8E0,5.22E2,1.22E3,4.11E2,1.249E3,4.2E1,7.37E2,4.95E2,8.8E1,4.36E2,4.63E2,9.28E2,5.903E3,2.146E3,5.1E2,1.81E3,8.313E3,4.29E2,1.2E2,7.1E1,3E1,1.42E2],"tree_param":{"num_deleted":"0","num_feature":"9","num_nodes":"123","size_leaf_vector":"1"}},{"base_weights":[-4.0837462E-4,-1.7726637E-1,3.8528904E-1,3.4849375E-1,-3.6987007E-1,2.2162299E-1,6.7207754E-1,8.946117E-1,2.8346664E-1,-4.0221583E-2,-4.1158158E-1,7.0842624E-1,1.239089E-1,9.3062747E-1,5.642253E-1,4.4499063E-1,1.3364493E0,3.280905E-3,3.929893E-1,3.0819884E-1,-2.1638544E-1,-4.7161418E-1,-2.9774544E-1,8.527782E-1,-3.1215115E-2,4.615115E-1,4.2377584E-2,8.8737375E-1,1.0370814E0,4.5856264E-1,8.2736063E-1,5.0921418E-2,3.935502E-2,1.7742232E0,1.2476115E0,1.8463539E-1,-4.702631E-1,3.1404495E-1,7.311952E-1,4.4289902E-1,-3.620403E-1,-3.6239895E-1,-8.716723E-2,1.3300127E0,-4.795132E-1,-1.7513646E-1,-5.5875576E-1,8.3489263E-1,1.11596726E-1,-6.0317833E-2,1.5803382E-1,-2.3910277E-2,4.8734006E-1,1.774268E-1,-1.7440984E-1,1.1362393E0,8.5400397E-1,5.3856965E-2,7.928937E-1,2.0172381E0,4.3490592E-1,7.6060826E-1,1.1649687E0,-1.1294625E-2,1.6527949E-2,9.877718E-2,5.1457584E-2,-1.2322693E-2,6.346467E-2,1.684443E-2,-1.133708E-2,-1.8807894E-2,-5.4989953E-2,-5.3887577E-3,2.1148372E-2,3.5338208E-2,9.6910276E-2,3.1086897E-2,1.7662523E-2,-2.0885117E-2,1.6069604E-2,-2.4144625E-2,-1.1736031E-2,3.2041667E-3,-1.1035011E-2,7.740323E-2,-3.6200754E-2,-2.5440438E-2,-1.1915573E-2,1.0445839E-3,-1.2190935E-2,-4.251286E-2,-1.9743696E-2,1.0658388E-2,4.3417063E-2,3.1178128E-3,-5.1508285E-3,-1.0169744E-3,1.124104E-2,9.797202E-3,2.6546096E-2,2.0895535E-2,9.2331425E-4,-1.1967259E-2,7.6286118E-3,6.2170357E-2,3.686886E-2,3.438444E-2,4.43562E-2,4.7283966E-2,3.3631243E-2,3.7187196E-2,1.1523112E-1,1.704563E-2,2.5980258E-2,3.4121174E-2,4.232168E-2,6.8860546E-2,3.3015218E-2],"categories":[],"categories_nodes":[],"categories_segments":[],"categories_sizes":[],"default_left":[0,0,0,0,0,0,0,0,0,0,0,0,0,0,0,0,0,0,0,0,0,0,0,0,0,0,0,0,0,0,0,0,0,0,0,0,0,0,0,0,0,0,0,0,0,0,0,0,0,0,0,0,0,0,0,0,0,0,0,0,0,0,0,0,0,0,0,0,0,0,0,0,0,0,0,0,0,0,0,0,0,0,0,0,0,0,0,0,0,0,0,0,0,0,0,0,0,0,0,0,0,0,0,0,0,0,0,0,0,0,0,0,0,0,0,0,0,0,0],"id":14,"left_children":[1,3,5,7,9,11,13,15,17,19,21,23,25,27,29,31,33,35,37,39,41,43,45,47,49,51,53,55,57,59,61,63,-1,65,67,69,71,73,75,77,79,81,83,85,87,89,91,93,-1,95,97,-1,99,101,103,105,107,-1,109,111,113,115,117,-1,-1,-1,-1,-1,-1,-1,-1,-1,-1,-1,-1,-1,-1,-1,-1,-1,-1,-1,-1,-1,-1,-1,-1,-1,-1,-1,-1,-1,-1,-1,-1,-1,-1,-1,-1,-1,-1,-1,-1,-1,-1,-1,-1,-1,-1,-1,-1,-1,-1,-1,-1,-1,-1,-1,-1],"loss_changes":[2.3973696E3,2.4401704E3,5.184641E2,2.291925E2,2.4248071E2,3.3459732E2,1.11406006E2,1.3588434E2,1.772143E2,1.2172004E2,1.06843994E2,1.2558667E2,1.6130557E2,4.5131226E0,7.8443726E1,4.6066628E1,1.1242676E1,1.3955484E2,1.10626526E2,6.028771E1,2.4817036E1,1.4647803E2,1.7297006E2,2.2408875E1,1.0725102E0,