{"learner":{"attributes":{"best_iteration":"135","best_score":"3.4739419164987577","scikit_learn":"{\"_estimator_type\": \"regressor\"}"},"feature_names":[],"feature_types":[],"gradient_booster":{"model":{"gbtree_model_param":{"num_parallel_tree":"1","num_trees":"166"},"iteration_indptr":[0,1,2,3,4,5,6,7,8,9,10,11,12,13,14,15,16,17,18,19,20,21,22,23,24,25,26,27,28,29,30,31,32,33,34,35,36,37,38,39,40,41,42,43,44,45,46,47,48,49,50,51,52,53,54,55,56,57,58,59,60,61,62,63,64,65,66,67,68,69,70,71,72,73,74,75,76,77,78,79,80,81,82,83,84,85,86,87,88,89,90,91,92,93,94,95,96,97,98,99,100,101,102,103,104,105,106,107,108,109,110,111,112,113,114,115,116,117,118,119,120,121,122,123,124,125,126,127,128,129,130,131,132,133,134,135,136,137,138,139,140,141,142,143,144,145,146,147,148,149,150,151,152,153,154,155,156,157,158,159,160,161,162,163,164,165,166],"tree_info":[0,0,0,0,0,0,0,0,0,0,0,0,0,0,0,0,0,0,0,0,0,0,0,0,0,0,0,0,0,0,0,0,0,0,0,0,0,0,0,0,0,0,0,0,0,0,0,0,0,0,0,0,0,0,0,0,0,0,0,0,0,0,0,0,0,0,0,0,0,0,0,0,0,0,0,0,0,0,0,0,0,0,0,0,0,0,0,0,0,0,0,0,0,0,0,0,0,0,0,0,0,0,0,0,0,0,0,0,0,0,0,0,0,0,0,0,0,0,0,0,0,0,0,0,0,0,0,0,0,0,0,0,0,0,0,0,0,0,0,0,0,0,0,0,0,0,0,0,0,0,0,0,0,0,0,0,0,0,0,0,0,0,0,0,0,0],"trees":[{"base_weights":[9.534914E-4,1.0709035E0,-6.863996E-1,1.4729337E0,-3.668807E-1,-1.8991424E0,-2.552835E-1,2.0991476E0,6.0760397E-1,-1.8979203E0,5.33415E-2,-6.3061905E0,-1.6877009E0,-1.0005501E-1,-1.4565792E0,-2.2451563E0,2.1180825E0,1.0234618E0,2.5087672E-1,-1.3911784E0,-2.7084522E0,6.664297E-1,-1.6057365E-1,-8.00903E0,-1.5445529E0,2.1682584E-1,-1.9167889E0,-6.5416163E-1,2.0386529E-1,-2.9483726E0,-1.2232499E0,-1.5315625E-1,-8.354167E-2,2.5671995E0,1.9819064E0,1.5208353E0,8.422019E-1,3.4362474E-1,-3.6887732E-1,-2.0506487E0,-7.17184E-1,-3.1988442E0,-2.1924407E0,8.715397E-1,-2.2327182E-1,2.4984788E-2,-1.4240308E0,-9.6032363E-1,-7.2706857E0,-1.4294179E-1,-1.9204965E0,1.2354004E0,-3.0324885E-1,-7.7233326E-1,-2.3014746E0,-1.0248532E0,2.3279045E-2,4.4364762E-1,-2.3323902E-1,-2.0316818E-1,-2.498872E0,-2.1186686E0,-1.1071692E0,1.3655762E-1,1.16175786E-1,9.0697356E-2,1.1450461E-1,4.698219E-2,8.108139E-2,4.526768E-2,2.2682337E-2,-2.7677074E-2,1.9814845E-2,-1.3988547E-2,-3.8685877E-2,-9.481811E-2,-2.857122E-1,6.48076E-2,-4.2621326E-2,-1.650611E-1,-8.902618E-2,-8.966394E-2,-1.4767024E-1,1.2242906E-2,5.726493E-2,-7.371578E-2,4.5778244E-3,1.2003422E-2,-3.3121437E-2,-8.491203E-2,-4.023703E-2,-4.8674947E-1,-2.8739446E-1,9.319846E-2,-2.5515188E-2,-7.941572E-2,-1.1522897E-1,5.1290013E-2,8.9448564E-2,-6.790764E-2,-1.9706097E-3,-1.03618205E-1,-1.3776916E-3,-1.3347858E-1,-6.2374663E-2,-2.9638214E-2,-8.260005E-2,3.2105032E-2,-3.346944E-2,-1.4309691E-2,2.8637651E-2,-4.322058E-3,-4.4261914E-2,-1.3779674E-1,-9.4473474E-2,-1.6015291E-1,-5.8933396E-2,-5.7287157E-2,-7.7225775E-3],"categories":[],"categories_nodes":[],"categories_segments":[],"categories_sizes":[],"default_left":[0,0,0,0,0,0,0,0,0,0,0,0,0,0,0,0,0,0,0,0,0,0,0,0,0,0,0,0,0,0,0,0,0,0,0,0,0,0,0,0,0,0,0,0,0,0,0,0,0,0,0,0,0,0,0,0,0,0,0,0,0,0,0,0,0,0,0,0,0,0,0,0,0,0,0,0,0,0,0,0,0,0,0,0,0,0,0,0,0,0,0,0,0,0,0,0,0,0,0,0,0,0,0,0,0,0,0,0,0,0,0,0,0,0,0,0,0,0,0],"id":0,"left_children":[1,3,5,7,9,11,13,15,17,19,21,23,25,27,29,31,33,35,37,39,41,43,45,47,49,51,53,55,57,59,61,-1,-1,63,65,67,69,71,73,75,77,79,81,83,85,87,89,-1,91,93,95,97,99,101,103,105,107,109,111,-1,113,115,117,-1,-1,-1,-1,-1,-1,-1,-1,-1,-1,-1,-1,-1,-1,-1,-1,-1,-1,-1,-1,-1,-1,-1,-1,-1,-1,-1,-1,-1,-1,-1,-1,-1,-1,-1,-1,-1,-1,-1,-1,-1,-1,-1,-1,-1,-1,-1,-1,-1,-1,-1,-1,-1,-1,-1,-1],"loss_changes":[3.011747E4,9.259465E3,1.3035832E4,6.781996E3,2.2525632E3,6.0826133E3,3.430254E3,6.0212305E2,7.796078E2,3.059231E2,3.6050403E2,2.4120137E3,2.7233926E3,2.7437754E3,7.291001E2,9.914932E0,4.3715234E2,2.1752295E2,1.6285532E2,2.0565668E2,6.611743E1,1.299426E2,4.778348E2,1.6792236E3,4.1879623E1,3.5582675E2,2.4508867E3,1.4492466E3,1.1029132E3,1.321836E2,1.8703467E2,0E0,0E0,6.0734375E1,2.832832E2,3.637744E1,4.329126E1,1.1661017E2,1.3094788E1,1.2199579E2,6.42758E1,1.53220215E1,3.844342E1,9.888107E1,5.2912758E1,2.6303882E2,4.29552E1,0E0,7.245908E2,1.4221919E1,4.377487E0,2.4503296E1,1.23799904E2,1.3583784E3,1.6141074E3,1.0097893E3,8.7570825E2,6.404326E2,3.5673816E2,0E0,2.6907104E1,2.0824475E2,5.9174316E1,0E0,0E0,0E0,0E0,0E0,0E0,0E0,0E0,0E0,0E0,0E0,0E0,0E0,0E0,0E0,0E0,0E0,0E0,0E0,0E0,0E0,0E0,0E0,0E0,0E0,0E0,0E0,0E0,0E0,0E0,0E0,0E0,0E0,0E0,0E0,0E0,0E0,0E0,0E0,0E0,0E0,0E0,0E0,0E0,0E0,0E0,0E0,0E0,0E0,0E0,0E0,0E0,0E0,0E0,0E0,0E0],"parents":[2147483647,0,0,1,1,2,2,3,3,4,4,5,5,6,6,7,7,8,8,9,9,10,10,11,11,12,12,13,13,14,14,15,15,16,16,17,17,18,18,19,19,20,20,21,21,22,22,23,23,24,24,25,25,26,26,27,27,28,28,29,29,30,30,33,33,34,34,35,35,36,36,37,37,38,38,39,39,40,40,41,41,42,42,43,43,44,44,45,45,46,46,48,48,49,49,50,50,51,51,52,52,53,53,54,54,55,55,56,56,57,57,58,58,60,60,61,61,62,62],"right_children":[2,4,6,8,10,12,14,16,18,20,22,24,26,28,30,32,34,36,38,40,42,44,46,48,50,52,54,56,58,60,62,-1,-1,64,66,68,70,72,74,76,78,80,82,84,86,88,90,-1,92,94,96,98,100,102,104,106,108,110,112,-1,114,116,118,-1,-1,-1,-1,-1,-1,-1,-1,-1,-1,-1,-1,-1,-1,-1,-1,-1,-1,-1,-1,-1,-1,-1,-1,-1,-1,-1,-1,-1,-1,-1,-1,-1,-1,-1,-1,-1,-1,-1,-1,-1,-1,-1,-1,-1,-1,-1,-1,-1,-1,-1,-1,-1,-1,-1,-1],"split_conditions":[1.2163791E-1,1.8206194E-1,-3.0716744E-1,-4.16892E-3,-1.1089684E0,-3.0048313E0,9.359884E-1,-2.1523285E0,6.944723E-1,1.4823474E0,-1.1235751E0,6.413036E-1,-7.784681E-1,-5.179365E-1,-6.882165E-1,1.255575E-1,-1.7654597E0,-5.3715575E-1,1.2065705E0,-1.7178274E0,-1.6750278E0,5.7114325E-2,1.1679783E0,-1.5568038E0,-9.199688E-1,-1.2977717E0,4.2383993E-1,5.6605583E-1,1.278556E0,-4.767779E-1,-1.3555601E0,-1.5315625E-1,-8.354167E-2,-6.975817E-1,4.3057078E-1,-2.8723553E-2,-9.106987E-2,-1.0938123E0,-2.3115737E-2,-4.84668E-1,5.0779974E-1,2.593685E-1,1.8018347E0,-4.2420477E-1,8.6355664E-2,4.9454635E-1,-1.24059334E-1,-9.6032363E-1,-8.947546E-1,6.756991E-1,7.302333E-1,-1.7839212E0,-2.0173786E0,-7.5264984E-1,6.463774E-1,4.3253556E-1,1.1031075E0,-5.592882E-1,4.6600336E-1,-2.0316818E-1,3.2921275E-1,5.0220424E-1,9.9309444E-1,1.3655762E-1,1.16175786E-1,9.0697356E-2,1.1450461E-1,4.698219E-2,8.108139E-2,4.526768E-2,2.2682337E-2,-2.7677074E-2,1.9814845E-2,-1.3988547E-2,-3.8685877E-2,-9.481811E-2,-2.857122E-1,6.48076E-2,-4.2621326E-2,-1.650611E-1,-8.902618E-2,-8.966394E-2,-1.4767024E-1,1.2242906E-2,5.726493E-2,-7.371578E-2,4.5778244E-3,1.2003422E-2,-3.3121437E-2,-8.491203E-2,-4.023703E-2,-4.8674947E-1,-2.8739446E-1,9.319846E-2,-2.5515188E-2,-7.941572E-2,-1.1522897E-1,5.1290013E-2,8.9448564E-2,-6.790764E-2,-1.9706097E-3,-1.03618205E-1,-1.3776916E-3,-1.3347858E-1,-6.2374663E-2,-2.9638214E-2,-8.260005E-2,3.2105032E-2,-3.346944E-2,-1.4309691E-2,2.8637651E-2,-4.322058E-3,-4.4261914E-2,-1.3779674E-1,-9.4473474E-2,-1.6015291E-1,-5.8933396E-2,-5.7287157E-2,-7.7225775E-3],"split_indices":[1,5,3,0,7,7,5,7,0,5,0,1,5,2,6,2,5,5,0,7,7,1,5,2,0,5,1,1,0,7,2,0,0,0,3,6,5,2,5,6,5,2,5,2,1,0,2,0,2,1,1,7,3,7,1,1,0,6,5,0,7,1,3,0,0,0,0,0,0,0,0,0,0,0,0,0,0,0,0,0,0,0,0,0,0,0,0,0,0,0,0,0,0,0,0,0,0,0,0,0,0,0,0,0,0,0,0,0,0,0,0,0,0,0,0,0,0,0,0],"split_type":[0,0,0,0,0,0,0,0,0,0,0,0,0,0,0,0,0,0,0,0,0,0,0,0,0,0,0,0,0,0,0,0,0,0,0,0,0,0,0,0,0,0,0,0,0,0,0,0,0,0,0,0,0,0,0,0,0,0,0,0,0,0,0,0,0,0,0,0,0,0,0,0,0,0,0,0,0,0,0,0,0,0,0,0,0,0,0,0,0,0,0,0,0,0,0,0,0,0,0,0,0,0,0,0,0,0,0,0,0,0,0,0,0,0,0,0,0,0,0],"sum_hessian":[4.095E4,1.6017E4,2.4933E4,1.2517E4,3.5E3,6.538E3,1.8395E4,7.261E3,5.256E3,7.53E2,2.747E3,2.98E2,6.24E3,1.6291E4,2.104E3,3.1E1,7.23E3,2.426E3,2.83E3,4.65E2,2.88E2,7.1E2,2.037E3,2.19E2,7.9E1,6.7E2,5.57E3,5.77E3,1.0521E4,2.83E2,1.821E3,1.1E1,2E1,1.678E3,5.552E3,6.46E2,1.78E3,2.462E3,3.68E2,2.34E2,2.31E2,1.45E2,1.43E2,5.77E2,1.33E2,1.777E3,2.6E2,1.2E1,2.07E2,1.7E1,6.2E1,2.26E2,4.44E2,1.402E3,4.168E3,3.729E3,2.041E3,6.794E3,3.727E3,7.9E1,2.04E2,2.07E2,1.614E3,9.97E2,6.81E2,3.598E3,1.954E3,9.7E1,5.49E2,1.53E3,2.5E2,1.36E2,2.326E3,3.03E2,6.5E1,2.26E2,8E0,1.4E1,2.17E2,1.34E2,1.1E1,9.6E1,4.7E1,1.76E2,4.01E2,2.6E1,1.07E2,1.354E3,4.23E2,1.79E2,8.1E1,7.7E1,1.3E2,2E0,1.5E1,3.6E1,2.6E1,1.66E2,6E1,8.8E1,3.56E2,5.1E2,8.92E2,3.088E3,1.08E3,2.209E3,1.52E3,1.078E3,9.63E2,1.021E3,5.773E3,3.043E3,6.84E2,1.41E2,6.3E1,9.5E1,1.12E2,1.551E3,6.3E1],"tree_param":{"num_deleted":"0","num_feature":"9","num_nodes":"119","size_leaf_vector":"1"}},{"base_weights":[-6.3050236E-3,1.0160685E0,-6.59298E-1,-8.828847E-1,1.2043374E0,-1.8171251E0,-2.4432273E-1,-1.7264668E0,6.2481347E-2,1.6858715E0,4.9818814E-1,-6.1574316E0,-1.6084795E0,6.3330805E-1,-3.5650027E-1,-2.471753E0,-1.376302E0,-1.0764394E0,7.3557585E-1,9.5654655E-1,2.0682697E0,9.009952E-1,1.8070713E-1,-7.780767E0,-1.3957918E0,-1.0379941E0,-2.2525795E0,2.60354E-1,1.1289002E0,-7.9178977E-1,-1.11938804E-1,-3.926124E0,-2.0916708E0,-1.8783048E0,-6.381171E-1,-1.2884861E0,6.735255E-1,8.10374E-2,1.4471906E0,4.5589116E-1,1.7422158E0,2.339826E0,1.9295164E0,-1.4582886E-1,9.558152E-1,3.136743E-1,-4.6484712E-1,-9.816546E0,-5.2741494E0,-1.5695019E0,1.1051102E-1,-1.650341E0,-5.119635E-1,-1.1913507E0,-3.0511007E0,4.2448118E-1,-3.2898024E-1,9.891427E-1,1.4291915E0,-1.5744479E0,-4.8801705E-1,-4.271065E-1,4.2575324E-1,-2.7319905E-1,-1.7463933E-1,-6.717078E-2,-1.3631411E-1,-9.8384015E-2,1.5403322E-2,-7.897724E-2,-2.015788E-2,-6.9665655E-2,-2.3213452E-2,6.4240247E-3,7.5209394E-2,-4.71851E-3,1.5376222E-2,4.292169E-2,1.1689498E-1,8.884619E-3,5.888772E-2,1.0433345E-1,2.584823E-2,-1.6759168E-1,1.17676474E-1,1.00558124E-1,8.2973816E-2,-1.1234156E-2,3.638283E-2,9.044229E-2,4.4752568E-2,-2.9051185E-2,1.8589033E-2,-1.4982666E-2,-3.576842E-2,-3.452009E-1,-6.588947E-1,-1.9204848E-1,-2.878995E-1,-9.231425E-2,-2.5828902E-2,-2.6562005E-2,-9.9784516E-2,-3.172125E-3,-7.949114E-2,-5.2943777E-2,-2.1066506E-1,-1.9444023E-1,-1.1955029E-1,1.2361744E-3,3.329723E-2,-9.711775E-2,-1.18101E-2,6.1910838E-2,3.8692515E-2,-1.61285E-2,7.277785E-2,-4.0837746E-2,-1.0592159E-1,-3.473098E-2,3.7804737E-3,-4.2031135E-2,-8.000091E-3,3.3530556E-2,4.4104196E-3],"categories":[],"categories_nodes":[],"categories_segments":[],"categories_sizes":[],"default_left":[0,0,0,0,0,0,0,0,0,0,0,0,0,0,0,0,0,0,0,0,0,0,0,0,0,0,0,0,0,0,0,0,0,0,0,0,0,0,0,0,0,0,0,0,0,0,0,0,0,0,0,0,0,0,0,0,0,0,0,0,0,0,0,0,0,0,0,0,0,0,0,0,0,0,0,0,0,0,0,0,0,0,0,0,0,0,0,0,0,0,0,0,0,0,0,0,0,0,0,0,0,0,0,0,0,0,0,0,0,0,0,0,0,0,0,0,0,0,0,0,0,0,0,0,0],"id":1,"left_children":[1,3,5,7,9,11,13,15,17,19,21,23,25,27,29,31,33,35,37,39,41,43,45,47,49,51,53,55,57,59,61,63,65,67,69,71,73,75,77,79,81,83,85,87,89,91,93,95,97,99,-1,101,103,105,107,109,111,113,115,117,119,121,123,-1,-1,-1,-1,-1,-1,-1,-1,-1,-1,-1,-1,-1,-1,-1,-1,-1,-1,-1,-1,-1,-1,-1,-1,-1,-1,-1,-1,-1,-1,-1,-1,-1,-1,-1,-1,-1,-1,-1,-1,-1,-1,-1,-1,-1,-1,-1,-1,-1,-1,-1,-1,-1,-1,-1,-1,-1,-1,-1,-1,-1,-1],"loss_changes":[2.7333662E4,5.7062715E3,1.2004089E4,1.1484993E3,4.936127E3,5.9597207E3,1.8111234E3,1.9519849E2,5.220807E2,2.40542E3,7.528157E2,2.3235195E3,2.309288E3,3.8508307E2,1.7361934E3,1.2556079E2,1.9149829E2,9.474963E1,1.9923622E2,1.1678472E3,2.0882617E2,1.4905835E2,2.8289465E2,1.0963848E3,5.2328217E1,1.0743687E3,2.499624E3,1.1534004E2,3.6147583E1,1.3941123E3,1.7700552E3,1.3569641E1,8.845862E1,6.0987183E1,4.6257042E1,1.8879547E1,1.2483696E1,8.927991E0,1.05497345E2,3.6448245E2,4.8680176E2,1.5685742E2,7.940723E1,9.11764E0,1.2620215E2,1.4224622E2,2.3085136E1,1.1131904E3,4.930713E1,2.090361E1,0E0,5.9489307E2,8.6864526E2,5.0396204E2,9.2244727E2,8.994655E1,3.8459587E1,3.1966736E1,1.3494019E1,6.742329E2,4.9238892E2,7.271925E2,3.1897174E2,0E0,0E0,0E0,0E0,0E0,0E0,0E0,0E0,0E0,0E0,0E0,0E0,0E0,0E0,0E0,0E0,0E0,0E0,0E0,0E0,0E0,0E0,0E0,0E0,0E0,0E0,0E0,0E0,0E0,0E0,0E0,0E0,0E0,0E0,0E0,0E0,0E0,0E0,0E0,0E0,0E0,0E0,0E0,0E0,0E0,0E0,0E0,0E0,0E0,0E0,0E0,0E0,0E0,0E0,0E0,0E0,0E0,0E0,0E0,0E0,0E0,0E0],"parents":[2147483647,0,0,1,1,2,2,3,3,4,4,5,5,6,6,7,7,8,8,9,9,10,10,11,11,12,12,13,13,14,14,15,15,16,16,17,17,18,18,19,19,20,20,21,21,22,22,23,23,24,24,25,25,26,26,27,27,28,28,29,29,30,30,31,31,32,32,33,33,34,34,35,35,36,36,37,37,38,38,39,39,40,40,41,41,42,42,43,43,44,44,45,45,46,46,47,47,48,48,49,49,51,51,52,52,53,53,54,54,55,55,56,56,57,57,58,58,59,59,60,60,61,61,62,62],"right_children":[2,4,6,8,10,12,14,16,18,20,22,24,26,28,30,32,34,36,38,40,42,44,46,48,50,52,54,56,58,60,62,64,66,68,70,72,74,76,78,80,82,84,86,88,90,92,94,96,98,100,-1,102,104,106,108,110,112,114,116,118,120,122,124,-1,-1,-1,-1,-1,-1,-1,-1,-1,-1,-1,-1,-1,-1,-1,-1,-1,-1,-1,-1,-1,-1,-1,-1,-1,-1,-1,-1,-1,-1,-1,-1,-1,-1,-1,-1,-1,-1,-1,-1,-1,-1,-1,-1,-1,-1,-1,-1,-1,-1,-1,-1,-1,-1,-1,-1,-1,-1,-1,-1,-1,-1],"split_conditions":[1.2163791E-1,-1.0771179E0,-3.0716744E-1,-1.1737896E0,-5.60123E-2,-3.0048313E0,2.3925924E-1,-1.9354556E0,-2.065839E0,-7.893737E-2,4.6518147E-1,6.413036E-1,3.6799917E-1,2.8162166E-1,4.2199966E-1,1.5258147E0,1.5258147E0,-2.5809857E-1,-1.9300422E-1,4.2620414E-1,-8.0425453E-1,-1.485931E0,1.1965144E0,-3.3706012E0,3.6799917E-1,-4.914103E-1,-3.1434706E-1,9.189572E-1,5.9267247E-1,2.342377E-1,5.7656873E-2,-1.8963968E0,9.551814E-2,-7.439104E-1,-1.8246305E0,-1.2770203E0,-2.4274592E0,-8.4519583E-1,-2.436814E-1,-8.918834E-1,-1.7900614E-1,-1.7178274E0,-4.9410632E-1,7.476451E-1,-4.6090078E-1,-2.017051E0,6.1567014E-1,-1.2776952E0,1.0490618E0,1.4956168E0,1.1051102E-1,4.1784397E-1,3.60848E-1,3.3998048E0,1.2870898E0,-1.0638018E0,-4.544258E-2,-7.898163E-1,-2.6462168E-1,4.3897465E-1,9.209247E-1,-5.4367125E-1,9.8232436E-1,-2.7319905E-1,-1.7463933E-1,-6.717078E-2,-1.3631411E-1,-9.8384015E-2,1.5403322E-2,-7.897724E-2,-2.015788E-2,-6.9665655E-2,-2.3213452E-2,6.4240247E-3,7.5209394E-2,-4.71851E-3,1.5376222E-2,4.292169E-2,1.1689498E-1,8.884619E-3,5.888772E-2,1.0433345E-1,2.584823E-2,-1.6759168E-1,1.17676474E-1,1.00558124E-1,8.2973816E-2,-1.1234156E-2,3.638283E-2,9.044229E-2,4.4752568E-2,-2.9051185E-2,1.8589033E-2,-1.4982666E-2,-3.576842E-2,-3.452009E-1,-6.588947E-1,-1.9204848E-1,-2.878995E-1,-9.231425E-2,-2.5828902E-2,-2.6562005E-2,-9.9784516E-2,-3.172125E-3,-7.949114E-2,-5.2943777E-2,-2.1066506E-1,-1.9444023E-1,-1.1955029E-1,1.2361744E-3,3.329723E-2,-9.711775E-2,-1.18101E-2,6.1910838E-2,3.8692515E-2,-1.61285E-2,7.277785E-2,-4.0837746E-2,-1.0592159E-1,-3.473098E-2,3.7804737E-3,-4.2031135E-2,-8.000091E-3,3.3530556E-2,4.4104196E-3],"split_indices":[1,3,3,7,0,7,1,7,6,4,0,1,8,7,0,8,8,7,8,3,0,4,0,7,8,8,0,0,3,3,8,0,1,0,6,3,3,7,6,1,6,7,1,6,1,4,6,0,4,4,0,1,6,8,8,0,3,8,8,1,3,4,0,0,0,0,0,0,0,0,0,0,0,0,0,0,0,0,0,0,0,0,0,0,0,0,0,0,0,0,0,0,0,0,0,0,0,0,0,0,0,0,0,0,0,0,0,0,0,0,0,0,0,0,0,0,0,0,0,0,0,0,0,0,0],"split_type":[0,0,0,0,0,0,0,0,0,0,0,0,0,0,0,0,0,0,0,0,0,0,0,0,0,0,0,0,0,0,0,0,0,0,0,0,0,0,0,0,0,0,0,0,0,0,0,0,0,0,0,0,0,0,0,0,0,0,0,0,0,0,0,0,0,0,0,0,0,0,0,0,0,0,0,0,0,0,0,0,0,0,0,0,0,0,0,0,0,0,0,0,0,0,0,0,0,0,0,0,0,0,0,0,0,0,0,0,0,0,0,0,0,0,0,0,0,0,0,0,0,0,0,0,0],"sum_hessian":[4.0941E4,1.5957E4,2.4984E4,1.439E3,1.4518E4,6.591E3,1.8393E4,7.6E2,6.79E2,8.631E3,5.887E3,3.01E2,6.29E3,2.084E3,1.6309E4,2.41E2,5.19E2,2.52E2,4.27E2,2.97E3,5.661E3,2.594E3,3.293E3,2.24E2,7.7E1,3.337E3,2.953E3,1.19E3,8.94E2,5.866E3,1.0443E4,4.8E1,1.93E2,3.08E2,2.11E2,2.25E2,2.7E1,2.23E2,2.04E2,1.815E3,1.155E3,1.909E3,3.752E3,1.29E2,2.465E3,2.731E3,5.62E2,1.22E2,1.02E2,7.4E1,3E0,1.541E3,1.796E3,1.269E3,1.684E3,9.31E2,2.59E2,6.13E2,2.81E2,1.639E3,4.227E3,6.584E3,3.859E3,8E0,4E1,9E1,1.03E2,2.96E2,1.2E1,4.1E1,1.7E2,1.99E2,2.6E1,1.7E1,1E1,1.26E2,9.7E1,1.24E2,8E1,1.311E3,5.04E2,9.01E2,2.54E2,4E0,1.905E3,2.876E3,8.76E2,1.19E2,1E1,1.62E2,2.303E3,1.66E2,2.565E3,3.4E2,2.22E2,6.7E1,5.5E1,2.8E1,7.4E1,5.8E1,1.6E1,3.64E2,1.177E3,1.269E3,5.27E2,1.217E3,5.2E1,7.4E2,9.44E2,3.51E2,5.8E2,1.3E1,2.46E2,2.82E2,3.31E2,4E0,2.77E2,6.86E2,9.53E2,3.093E3,1.134E3,2.583E3,4.001E3,2.236E3,1.623E3],"tree_param":{"num_deleted":"0","num_feature":"9","num_nodes":"125","size_leaf_vector":"1"}},{"base_weights":[1.0970939E-3,9.9752206E-1,-5.9226084E-1,1.3435018E0,-2.6073617E-1,-2.7769765E-1,-1.9732407E0,1.8945224E0,5.7767123E-1,-1.2427799E0,2.1187365E-1,-1.2283574E0,7.588521E-3,-1.0569399E1,-1.8203005E0,2.1788688E0,1.6815541E0,9.3298477E-1,2.3177129E-1,-1.0857998E-1,-1.570216E0,3.604447E-1,-4.995023E-1,-1.6357591E0,-5.47849E-1,-2.7719753E0,5.8826678E-2,-8.179332E-1,-7.4860277E0,-2.9833024E0,-1.3869662E0,8.0030614E-1,2.2359087E0,1.5443895E0,2.086202E0,1.4038872E0,7.619409E-1,3.1142154E-1,-3.0706015E-1,8.7694603E-1,-3.3314896E-1,-1.718099E0,1.5610844E0,6.09774E-1,-2.158532E-1,-6.6004837E-1,2.723438E-1,-9.1469795E-1,-2.2270255E0,5.1966486E-3,-1.1120232E0,-5.442338E0,-1.8195702E0,1.0723709E0,-5.3579524E-2,-4.36596E-1,-2.4034123E-1,-2.3550012E0,-4.6198425E0,-1.0197106E-1,-1.5827861E0,3.383658E-2,6.1052382E-2,1.0670896E-1,1.20657615E-1,6.732327E-2,9.362065E-2,1.3329162E-1,9.687214E-2,8.6697996E-2,6.4629264E-2,4.3709908E-2,2.893028E-2,-3.2943387E-2,1.7735688E-2,-1.2471757E-2,-3.4159627E-2,1.3174663E-2,8.912433E-2,3.9628502E-2,-2.3241332E-2,-1.1747625E-1,-7.134972E-2,2.3999346E-2,1.12263955E-1,5.456544E-2,2.3139652E-2,-1.5539003E-2,6.2674284E-2,-2.291037E-2,-4.9547475E-2,2.9729709E-2,-9.887021E-3,-2.4621938E-1,-4.2561214E-2,-1.5655571E-1,-9.553107E-2,-2.8896673E-2,1.8320924E-2,-8.551631E-2,-4.630525E-2,-3.500966E-1,-2.4548736E-1,-1.1469698E-1,-2.1163307E-2,6.941167E-2,4.6322517E-2,5.191804E-2,-6.926956E-3,-2.3601387E-1,-1.0847235E-1,-1.4862855E-1,-2.5245884E-1,-1.1539212E-2,8.2742E-2,-1.0415304E-1,-5.271668E-2],"categories":[],"categories_nodes":[],"categories_segments":[],"categories_sizes":[],"default_left":[0,0,0,0,0,0,0,0,0,0,0,0,0,0,0,0,0,0,0,0,0,0,0,0,0,0,0,0,0,0,0,0,0,0,0,0,0,0,0,0,0,0,0,0,0,0,0,0,0,0,0,0,0,0,0,0,0,0,0,0,0,0,0,0,0,0,0,0,0,0,0,0,0,0,0,0,0,0,0,0,0,0,0,0,0,0,0,0,0,0,0,0,0,0,0,0,0,0,0,0,0,0,0,0,0,0,0,0,0,0,0,0,0,0,0,0,0],"id":2,"left_children":[1,3,5,7,9,11,13,15,17,19,21,23,25,27,29,31,33,35,37,39,41,43,45,47,49,51,53,-1,55,57,59,61,63,65,67,69,71,73,75,77,79,81,83,85,87,89,91,93,95,97,99,101,103,105,107,-1,-1,109,111,113,115,-1,-1,-1,-1,-1,-1,-1,-1,-1,-1,-1,-1,-1,-1,-1,-1,-1,-1,-1,-1,-1,-1,-1,-1,-1,-1,-1,-1,-1,-1,-1,-1,-1,-1,-1,-1,-1,-1,-1,-1,-1,-1,-1,-1,-1,-1,-1,-1,-1,-1,-1,-1,-1,-1,-1,-1],"loss_changes":[2.4203455E4,6.651785E3,1.1145426E4,5.0560156E3,1.5300143E3,5.6680283E3,6.2387266E3,4.1835547E2,6.162648E2,3.9757532E2,2.354457E2,1.3365112E3,2.2897024E3,1.359126E3,2.3534277E3,2.3261523E2,2.1818066E2,1.9819873E2,1.0923624E2,5.362993E1,3.8749048E2,2.6480484E2,4.788775E1,1.284228E3,5.6412726E2,7.30188E2,1.7985352E3,0E0,1.4495532E2,1.293957E3,8.578887E2,5.4128265E0,4.645508E1,1.9114697E2,8.1663574E1,2.1932251E1,3.6889404E1,9.331894E1,6.9388676E0,2.4528114E1,2.9570126E1,1.4259326E2,2.7030182E1,9.051352E1,7.8079765E1,2.085176E1,1.0267058E1,3.4219604E2,4.6801562E2,1.9273611E2,9.79718E1,2.875E1,1.4209967E2,7.135303E1,1.3185098E3,0E0,0E0,3.9309668E2,2.3322852E2,1.0266971E2,7.800786E2,0E0,0E0,0E0,0E0,0E0,0E0,0E0,0E0,0E0,0E0,0E0,0E0,0E0,0E0,0E0,0E0,0E0,0E0,0E0,0E0,0E0,0E0,0E0,0E0,0E0,0E0,0E0,0E0,0E0,0E0,0E0,0E0,0E0,0E0,0E0,0E0,0E0,0E0,0E0,0E0,0E0,0E0,0E0,0E0,0E0,0E0,0E0,0E0,0E0,0E0,0E0,0E0,0E0,0E0,0E0,0E0],"parents":[2147483647,0,0,1,1,2,2,3,3,4,4,5,5,6,6,7,7,8,8,9,9,10,10,11,11,12,12,13,13,14,14,15,15,16,16,17,17,18,18,19,19,20,20,21,21,22,22,23,23,24,24,25,25,26,26,28,28,29,29,30,30,31,31,32,32,33,33,34,34,35,35,36,36,37,37,38,38,39,39,40,40,41,41,42,42,43,43,44,44,45,45,46,46,47,47,48,48,49,49,50,50,51,51,52,52,53,53,54,54,57,57,58,58,59,59,60,60],"right_children":[2,4,6,8,10,12,14,16,18,20,22,24,26,28,30,32,34,36,38,40,42,44,46,48,50,52,54,-1,56,58,60,62,64,66,68,70,72,74,76,78,80,82,84,86,88,90,92,94,96,98,100,102,104,106,108,-1,-1,110,112,114,116,-1,-1,-1,-1,-1,-1,-1,-1,-1,-1,-1,-1,-1,-1,-1,-1,-1,-1,-1,-1,-1,-1,-1,-1,-1,-1,-1,-1,-1,-1,-1,-1,-1,-1,-1,-1,-1,-1,-1,-1,-1,-1,-1,-1,-1,-1,-1,-1,-1,-1,-1,-1,-1,-1,-1,-1],"split_conditions":[9.551814E-2,1.5377448E-1,9.359884E-1,-1.1282983E-2,-6.7363995E-1,-1.0093323E0,-3.3706012E0,-7.260349E-1,6.944723E-1,4.7545663E-1,4.532542E-1,5.883825E-1,-2.7118895E0,-1.1858538E0,-1.301308E0,-2.8232017E-1,6.299974E-1,-5.3715575E-1,1.2184491E0,-3.7113876E0,5.62256E-1,7.724332E-1,7.758095E-1,4.1784397E-1,1.0041801E0,-3.2865873E-1,-9.1402197E-1,-8.179332E-1,-3.7988374E0,-2.0173786E0,-1.4236598E0,-7.4797654E-1,1.518346E0,1.3516313E0,-7.831878E-1,-1.3296247E0,-2.2358912E-1,-1.149597E0,1.4240578E0,-5.179365E-1,-2.0692396E0,-1.7178274E0,-2.6419923E-1,-1.1235751E0,2.869408E0,5.873531E-1,-3.476104E-1,-2.5533757E0,-1.5234846E0,-1.4235803E0,-1.5609239E0,-8.947546E-1,2.9901364E-1,-1.2977717E0,-1.2776952E0,-4.36596E-1,-2.4034123E-1,-3.0048313E0,-1.8191178E0,1.0848821E-1,3.6799943E-1,3.383658E-2,6.1052382E-2,1.0670896E-1,1.20657615E-1,6.732327E-2,9.362065E-2,1.3329162E-1,9.687214E-2,8.6697996E-2,6.4629264E-2,4.3709908E-2,2.893028E-2,-3.2943387E-2,1.7735688E-2,-1.2471757E-2,-3.4159627E-2,1.3174663E-2,8.912433E-2,3.9628502E-2,-2.3241332E-2,-1.1747625E-1,-7.134972E-2,2.3999346E-2,1.12263955E-1,5.456544E-2,2.3139652E-2,-1.5539003E-2,6.2674284E-2,-2.291037E-2,-4.9547475E-2,2.9729709E-2,-9.887021E-3,-2.4621938E-1,-4.2561214E-2,-1.5655571E-1,-9.553107E-2,-2.8896673E-2,1.8320924E-2,-8.551631E-2,-4.630525E-2,-3.500966E-1,-2.4548736E-1,-1.1469698E-1,-2.1163307E-2,6.941167E-2,4.6322517E-2,5.191804E-2,-6.926956E-3,-2.3601387E-1,-1.0847235E-1,-1.4862855E-1,-2.5245884E-1,-1.1539212E-2,8.2742E-2,-1.0415304E-1,-5.271668E-2],"split_indices":[1,5,5,0,7,2,7,1,0,5,0,1,3,2,7,3,3,5,0,1,2,5,3,1,0,2,5,0,3,3,0,3,2,2,0,5,5,2,0,2,0,7,4,0,5,5,2,7,2,2,7,2,5,5,0,0,0,7,2,7,3,0,0,0,0,0,0,0,0,0,0,0,0,0,0,0,0,0,0,0,0,0,0,0,0,0,0,0,0,0,0,0,0,0,0,0,0,0,0,0,0,0,0,0,0,0,0,0,0,0,0,0,0,0,0,0,0],"split_type":[0,0,0,0,0,0,0,0,0,0,0,0,0,0,0,0,0,0,0,0,0,0,0,0,0,0,0,0,0,0,0,0,0,0,0,0,0,0,0,0,0,0,0,0,0,0,0,0,0,0,0,0,0,0,0,0,0,0,0,0,0,0,0,0,0,0,0,0,0,0,0,0,0,0,0,0,0,0,0,0,0,0,0,0,0,0,0,0,0,0,0,0,0,0,0,0,0,0,0,0,0,0,0,0,0,0,0,0,0,0,0,0,0,0,0,0,0],"sum_hessian":[4.0935E4,1.5278E4,2.5657E4,1.1983E4,3.295E3,2.0898E4,4.759E3,6.968E3,5.015E3,1.07E3,2.225E3,4.823E3,1.6075E4,8.2E1,4.677E3,2.98E3,3.988E3,2.473E3,2.542E3,2.4E2,8.3E2,1.841E3,3.84E2,3.016E3,1.807E3,2.9E2,1.5785E4,2.7E1,5.5E1,1.268E3,3.409E3,1.19E2,2.861E3,2.982E3,1.006E3,6.57E2,1.816E3,2.215E3,3.27E2,4.4E1,1.96E2,7.93E2,3.7E1,1.285E3,5.56E2,3.18E2,6.6E1,1.36E3,1.656E3,9.13E2,8.94E2,7.5E1,2.15E2,1.575E3,1.421E4,3.6E1,1.9E1,9.18E2,3.5E2,4.51E2,2.958E3,9.4E1,2.5E1,1.826E3,1.035E3,1.863E3,1.119E3,2.02E2,8.04E2,1.62E2,4.95E2,1.124E3,6.92E2,9.4E1,2.121E3,2.85E2,4.2E1,2.7E1,1.7E1,2E1,1.76E2,2.48E2,5.45E2,1.5E1,2.2E1,2.99E2,9.86E2,5.23E2,3.3E1,1.99E2,1.19E2,3.9E1,2.7E1,2E1,1.34E3,4.27E2,1.229E3,3.49E2,5.64E2,2.1E2,6.84E2,1.6E1,5.9E1,1.6E2,5.5E1,4.95E2,1.08E3,1.025E3,1.3185E4,6.5E1,8.53E2,7.4E1,2.76E2,4.21E2,3E1,1.518E3,1.44E3],"tree_param":{"num_deleted":"0","num_feature":"9","num_nodes":"117","size_leaf_vector":"1"}},{"base_weights":[-1.8984627E-3,9.2219776E-1,-5.963106E-1,-9.0834236E-1,1.0787796E0,-1.9698353E0,-3.640257E-1,-1.9518996E0,-3.086607E-1,1.4636439E0,4.6963224E-1,-9.205484E-1,-3.307243E0,-1.2817217E0,-1.1144772E-1,-2.4603207E0,-1.4052582E0,1.8014699E-1,-1.0341066E0,2.8986546E-1,1.6961185E0,8.180067E-1,1.8071386E-1,-2.304567E0,-5.250319E-1,-9.000337E0,-2.916757E0,-1.5865896E0,-4.700675E-1,-7.5712645E-1,9.663987E-2,-4.883254E-2,-2.5420666E0,-1.4638468E0,1.09153844E-1,-9.160577E-2,7.0920974E-1,-9.149207E-1,-2.5453565E-1,1.0855285E0,-3.2922307E-1,1.4682618E0,2.08951E0,2.2332525E-1,9.060672E-1,3.1822947E-1,-4.1975075E-1,2.4908088E-1,-2.5082283E0,1.087538E0,-7.372619E-1,-1.3132355E1,-7.153658E0,-4.656082E0,-2.3581336E0,-8.27471E-1,-2.040864E0,-1.6988622E-1,-9.993083E-1,-4.0637174E-1,-1.1477977E0,-3.3320895E-1,3.173531E-1,-1.2980676E-1,-2.4752943E-2,-5.4064143E-2,-8.592115E-2,-2.5470618E-2,8.552828E-3,5.924722E-2,3.2468416E-2,-7.90189E-2,-2.8249806E-2,2.9529143E-2,9.003548E-2,-6.513944E-2,7.305046E-3,6.178533E-2,9.2517965E-2,1.0968927E-1,9.52081E-2,-4.1360254E-3,3.1740915E-2,7.041162E-2,4.061713E-2,2.5674004E-2,-1.3069751E-3,-1.3531992E-2,-3.2503903E-2,-1.2054139E-1,2.0136978E-2,2.3497697E-2,-1.3261539E-1,7.481656E-2,3.0452907E-2,-6.620369E-2,-2.113082E-2,-7.783587E-1,1.077589E-1,-2.9595968E-1,-4.1447717E-1,-1.9553575E-1,-2.4764566E-1,-2.4347587E-1,-1.04442716E-1,-2.2243468E-2,-6.196023E-2,-1.5162954E-1,-8.75762E-2,-4.803412E-2,1.2810369E-3,-6.1351277E-2,-3.8000684E-2,-2.4222298E-2,5.971543E-2,-8.1164256E-2,2.8711099E-3,-2.7797228E-2,7.963157E-3,-2.2531455E-2,2.055817E-2],"categories":[],"categories_nodes":[],"categories_segments":[],"categories_sizes":[],"default_left":[0,0,0,0,0,0,0,0,0,0,0,0,0,0,0,0,0,0,0,0,0,0,0,0,0,0,0,0,0,0,0,0,0,0,0,0,0,0,0,0,0,0,0,0,0,0,0,0,0,0,0,0,0,0,0,0,0,0,0,0,0,0,0,0,0,0,0,0,0,0,0,0,0,0,0,0,0,0,0,0,0,0,0,0,0,0,0,0,0,0,0,0,0,0,0,0,0,0,0,0,0,0,0,0,0,0,0,0,0,0,0,0,0,0,0,0,0,0,0,0,0],"id":3,"left_children":[1,3,5,7,9,11,13,15,17,19,21,23,25,27,29,31,33,35,37,39,41,43,45,47,49,51,53,55,57,59,61,-1,63,65,-1,67,69,71,-1,73,75,77,79,81,83,85,87,89,91,93,95,97,99,101,103,105,107,109,111,113,115,117,119,-1,-1,-1,-1,-1,-1,-1,-1,-1,-1,-1,-1,-1,-1,-1,-1,-1,-1,-1,-1,-1,-1,-1,-1,-1,-1,-1,-1,-1,-1,-1,-1,-1,-1,-1,-1,-1,-1,-1,-1,-1,-1,-1,-1,-1,-1,-1,-1,-1,-1,-1,-1,-1,-1,-1,-1,-1,-1],"loss_changes":[2.2446354E4,4.5859014E3,7.9333955E3,7.885342E2,3.4540059E3,5.044713E3,4.93049E3,1.2438757E2,2.8457834E2,2.4635605E3,5.74272E2,1.1029005E3,3.4884258E3,1.1352852E3,2.2414287E3,2.6261597E1,5.028842E1,6.9076614E1,1.5150977E2,7.3628064E2,6.7252344E2,1.3527344E2,2.5784476E2,2.3362012E2,5.3811194E2,6.767378E2,1.428002E3,1.1490693E3,1.9920978E2,5.566968E2,1.1971224E3,0E0,2.3506836E1,1.9665497E1,0E0,3.498511E1,3.870926E0,7.245795E1,0E0,2.3043665E2,3.8937082E2,4.2210352E2,4.92041E1,4.224097E1,1.0489404E2,1.7079858E2,1.9812447E1,1.4867348E1,1.793208E2,3.488333E1,2.5571759E2,1.1502217E3,5.1891846E1,6.0058105E1,7.49272E2,1.9651874E2,5.935459E2,1.24018745E2,2.380658E1,2.685181E2,1.1021006E3,4.6967593E2,6.008214E2,0E0,0E0,0E0,0E0,0E0,0E0,0E0,0E0,0E0,0E0,0E0,0E0,0E0,0E0,0E0,0E0,0E0,0E0,0E0,0E0,0E0,0E0,0E0,0E0,0E0,0E0,0E0,0E0,0E0,0E0,0E0,0E0,0E0,0E0,0E0,0E0,0E0,0E0,0E0,0E0,0E0,0E0,0E0,0E0,0E0,0E0,0E0,0E0,0E0,0E0,0E0,0E0,0E0,0E0,0E0,0E0,0E0,0E0],"parents":[2147483647,0,0,1,1,2,2,3,3,4,4,5,5,6,6,7,7,8,8,9,9,10,10,11,11,12,12,13,13,14,14,15,15,16,16,17,17,18,18,19,19,20,20,21,21,22,22,23,23,24,24,25,25,26,26,27,27,28,28,29,29,30,30,32,32,33,33,35,35,36,36,37,37,39,39,40,40,41,41,42,42,43,43,44,44,45,45,46,46,47,47,48,48,49,49,50,50,51,51,52,52,53,53,54,54,55,55,56,56,57,57,58,58,59,59,60,60,61,61,62,62],"right_children":[2,4,6,8,10,12,14,16,18,20,22,24,26,28,30,32,34,36,38,40,42,44,46,48,50,52,54,56,58,60,62,-1,64,66,-1,68,70,72,-1,74,76,78,80,82,84,86,88,90,92,94,96,98,100,102,104,106,108,110,112,114,116,118,120,-1,-1,-1,-1,-1,-1,-1,-1,-1,-1,-1,-1,-1,-1,-1,-1,-1,-1,-1,-1,-1,-1,-1,-1,-1,-1,-1,-1,-1,-1,-1,-1,-1,-1,-1,-1,-1,-1,-1,-1,-1,-1,-1,-1,-1,-1,-1,-1,-1,-1,-1,-1,-1,-1,-1,-1,-1,-1],"split_conditions":[1.2163791E-1,-1.1737896E0,-1.0807254E0,-1.4973272E0,-5.60123E-2,1.2154723E0,-9.94632E-1,-1.7178274E0,-3.7752125E-1,-2.1465845E0,4.6518147E-1,4.8455983E-1,-3.3706012E0,5.883825E-1,-5.6203187E-1,-2.2556937E0,6.7223656E-1,-7.181989E-1,-1.5441109E-1,3.0831796E-1,1.4595747E0,-8.127642E-1,1.1835905E0,1.601233E-1,-8.420166E-1,-1.1858538E0,1.2870898E0,4.3897465E-1,7.07065E-2,4.4593623E-1,-4.1112527E-1,-4.883254E-2,-7.3859704E-1,-7.893737E-2,1.09153844E-1,-9.2224E-1,-1.6254317E0,-1.9354556E0,-2.5453565E-1,-1.8106797E-1,-7.1088254E-1,2.4968566E-1,-7.432294E-1,6.957012E-2,-3.5709357E-1,1.147449E0,6.1567014E-1,-1.6301781E0,-1.6775249E0,7.7163774E-1,-1.6130898E0,2.6839784E-1,-1.6301781E0,-1.5568038E0,-3.0048313E0,-3.9592034E-1,-1.5792768E0,3.1639948E-1,1.21750064E-1,2.2187703E0,5.91378E-1,5.7656873E-2,-7.3257273E-1,-1.2980676E-1,-2.4752943E-2,-5.4064143E-2,-8.592115E-2,-2.5470618E-2,8.552828E-3,5.924722E-2,3.2468416E-2,-7.90189E-2,-2.8249806E-2,2.9529143E-2,9.003548E-2,-6.513944E-2,7.305046E-3,6.178533E-2,9.2517965E-2,1.0968927E-1,9.52081E-2,-4.1360254E-3,3.1740915E-2,7.041162E-2,4.061713E-2,2.5674004E-2,-1.3069751E-3,-1.3531992E-2,-3.2503903E-2,-1.2054139E-1,2.0136978E-2,2.3497697E-2,-1.3261539E-1,7.481656E-2,3.0452907E-2,-6.620369E-2,-2.113082E-2,-7.783587E-1,1.077589E-1,-2.9595968E-1,-4.1447717E-1,-1.9553575E-1,-2.4764566E-1,-2.4347587E-1,-1.04442716E-1,-2.2243468E-2,-6.196023E-2,-1.5162954E-1,-8.75762E-2,-4.803412E-2,1.2810369E-3,-6.1351277E-2,-3.8000684E-2,-2.4222298E-2,5.971543E-2,-8.1164256E-2,2.8711099E-3,-2.7797228E-2,7.963157E-3,-2.2531455E-2,2.055817E-2],"split_indices":[1,7,7,6,0,8,2,7,1,6,0,1,7,1,6,2,2,8,6,8,2,4,0,1,0,2,8,1,6,1,4,0,0,4,0,2,7,7,0,8,2,7,1,0,1,2,6,0,6,1,2,1,0,2,7,8,2,0,4,7,0,8,2,0,0,0,0,0,0,0,0,0,0,0,0,0,0,0,0,0,0,0,0,0,0,0,0,0,0,0,0,0,0,0,0,0,0,0,0,0,0,0,0,0,0,0,0,0,0,0,0,0,0,0,0,0,0,0,0,0,0],"split_type":[0,0,0,0,0,0,0,0,0,0,0,0,0,0,0,0,0,0,0,0,0,0,0,0,0,0,0,0,0,0,0,0,0,0,0,0,0,0,0,0,0,0,0,0,0,0,0,0,0,0,0,0,0,0,0,0,0,0,0,0,0,0,0,0,0,0,0,0,0,0,0,0,0,0,0,0,0,0,0,0,0,0,0,0,0,0,0,0,0,0,0,0,0,0,0,0,0,0,0,0,0,0,0,0,0,0,0,0,0,0,0,0,0,0,0,0,0,0,0,0,0],"sum_hessian":[4.0862E4,1.5995E4,2.4867E4,1.26E3,1.4735E4,3.596E3,2.1271E4,4.59E2,8.01E2,9.029E3,5.706E3,2.016E3,1.58E3,4.59E3,1.6681E4,2.36E2,2.23E2,4.79E2,3.22E2,1.493E3,7.536E3,2.586E3,3.12E3,4.47E2,1.569E3,1E2,1.48E3,3.336E3,1.254E3,4.065E3,1.2616E4,1.3E1,2.23E2,2.2E2,3E0,3.17E2,1.62E2,3.14E2,8E0,6.53E2,8.4E2,4.775E3,2.761E3,3.34E2,2.252E3,2.539E3,5.81E2,3.3E1,4.14E2,1.82E2,1.387E3,2.9E1,7.1E1,3.58E2,1.122E3,1.25E3,2.086E3,8.01E2,4.53E2,2.143E3,1.922E3,4.28E3,8.336E3,2.17E2,6E0,9E1,1.3E2,1.22E2,1.95E2,1.6E1,1.46E2,1.07E2,2.07E2,3.87E2,2.66E2,2.75E2,5.65E2,2.971E3,1.804E3,1.76E3,1.001E3,1.92E2,1.42E2,3.52E2,1.9E3,1.62E3,9.19E2,3.54E2,2.27E2,1E0,3.2E1,1.9E1,3.95E2,9.7E1,8.5E1,4.83E2,9.04E2,2.5E1,4E0,3.7E1,3.4E1,1.06E2,2.52E2,1.07E2,1.015E3,6.49E2,6.01E2,4.69E2,1.617E3,1.58E2,6.43E2,2.3E2,2.23E2,2.044E3,9.9E1,1.378E3,5.44E2,2.947E3,1.333E3,9.07E2,7.429E3],"tree_param":{"num_deleted":"0","num_feature":"9","num_nodes":"121","size_leaf_vector":"1"}},{"base_weights":[-1.1644979E-3,8.639027E-1,-5.709291E-1,1.1962428E0,-3.1377473E-1,-1.5575501E0,-2.1968997E-1,1.7190791E0,5.054439E-1,-1.5770266E0,1.6382523E-2,-5.0829926E0,-1.3886877E0,-8.692933E-2,-1.2585127E0,-2.1679122E0,1.7350539E0,8.479964E-1,2.0920245E-1,-1.1519736E0,-2.2782722E0,2.014146E-1,-4.0422192E-1,-6.4627047E0,-1.2113444E0,4.532374E-1,-1.5605637E0,7.379936E-1,-2.0476097E-1,-2.6478736E0,-1.0443603E0,-7.905917E-2,-1.5916258E-1,2.0561695E0,1.601325E0,1.2845345E0,6.7812586E-1,2.9149508E-1,-3.1568027E-1,-1.0569308E0,-2.4849625E-1,-2.6847942E0,-1.8373166E0,3.63462E-1,-4.4687468E-1,5.5726796E-2,-9.4250125E-1,-8.282657E0,-4.5667653E0,1.0344861E-1,-1.4138808E0,1.1155665E0,-5.216653E-2,-6.238429E-1,-1.8987052E0,1.2082471E0,5.961093E-1,-6.183699E-1,-6.831185E-2,-3.6243842E0,-2.1766992E0,-1.2952653E0,-8.421312E-1,1.11708894E-1,9.3570225E-2,7.1669914E-2,9.405484E-2,3.9929952E-2,6.792097E-2,3.6796812E-2,1.6805189E-2,1.2071483E-2,5.1426917E-2,-1.06618265E-2,-3.5393152E-2,-7.775705E-2,-2.8462118E-2,-1.2482821E-1,-1.8909222E-1,-7.4986964E-2,-1.3235664E-1,2.8204132E-2,-6.5923627E-3,2.318721E-2,-2.8858775E-2,-8.444255E-3,6.692136E-2,-6.1666694E-2,-2.708835E-2,-2.7899453E-1,-5.766725E-1,-2.4021521E-1,-1.305865E-1,-4.181994E-2,-9.3618415E-2,4.7937874E-2,8.511927E-2,-1.14493586E-1,4.4504218E-4,-7.861515E-2,3.3083733E-3,-1.1147223E-1,-5.1982857E-2,5.0314583E-2,8.5927896E-2,-1.5376747E-3,4.0317383E-2,-3.3191413E-2,8.448561E-2,-1.2931207E-2,1.3173155E-2,-4.7099497E-2,-1.8221945E-1,-1.17608145E-1,-8.548149E-2,-5.7293456E-2,-1.1239763E-1,-7.3099695E-2,-3.187102E-2],"categories":[],"categories_nodes":[],"categories_segments":[],"categories_sizes":[],"default_left":[0,0,0,0,0,0,0,0,0,0,0,0,0,0,0,0,0,0,0,0,0,0,0,0,0,0,0,0,0,0,0,0,0,0,0,0,0,0,0,0,0,0,0,0,0,0,0,0,0,0,0,0,0,0,0,0,0,0,0,0,0,0,0,0,0,0,0,0,0,0,0,0,0,0,0,0,0,0,0,0,0,0,0,0,0,0,0,0,0,0,0,0,0,0,0,0,0,0,0,0,0,0,0,0,0,0,0,0,0,0,0,0,0,0,0,0,0,0,0],"id":4,"left_children":[1,3,5,7,9,11,13,15,17,19,21,23,25,27,29,31,33,35,37,39,41,43,45,47,49,51,53,55,57,59,61,-1,-1,63,65,67,69,71,73,75,-1,77,79,81,83,85,87,89,91,-1,93,95,97,99,101,103,105,107,109,111,113,115,117,-1,-1,-1,-1,-1,-1,-1,-1,-1,-1,-1,-1,-1,-1,-1,-1,-1,-1,-1,-1,-1,-1,-1,-1,-1,-1,-1,-1,-1,-1,-1,-1,-1,-1,-1,-1,-1,-1,-1,-1,-1,-1,-1,-1,-1,-1,-1,-1,-1,-1,-1,-1,-1,-1,-1,-1],"loss_changes":[2.0191021E4,6.3671084E3,8.558499E3,4.5813535E3,1.4935598E3,3.852958E3,2.5120083E3,4.5214258E2,5.5460425E2,2.1854077E2,2.211053E2,1.5733325E3,1.9600361E3,1.5701582E3,6.113467E2,1.2838562E1,3.0555078E2,1.871117E2,1.2677998E2,1.6311829E2,4.508008E1,2.0743317E2,2.1495273E2,7.143877E2,5.5411613E1,1.7713762E2,1.7919053E3,1.339906E2,7.9763226E2,1.1864026E2,8.973425E1,0E0,0E0,6.524902E1,2.3606152E2,2.4370605E1,3.5876892E1,9.333104E1,1.5839378E1,1.0942374E2,0E0,2.0087646E1,3.3482483E1,1.5697841E2,4.713613E1,1.3534953E2,4.595047E1,9.0211865E2,3.8071777E1,0E0,1.829158E1,1.9440063E1,4.1152264E1,9.837383E2,1.1793408E3,4.639966E1,2.0469562E2,3.6897668E2,6.7119226E2,1.2891846E0,1.1385925E1,1.1085962E2,1.2519934E2,0E0,0E0,0E0,0E0,0E0,0E0,0E0,0E0,0E0,0E0,0E0,0E0,0E0,0E0,0E0,0E0,0E0,0E0,0E0,0E0,0E0,0E0,0E0,0E0,0E0,0E0,0E0,0E0,0E0,0E0,0E0,0E0,0E0,0E0,0E0,0E0,0E0,0E0,0E0,0E0,0E0,0E0,0E0,0E0,0E0,0E0,0E0,0E0,0E0,0E0,0E0,0E0,0E0,0E0,0E0,0E0],"parents":[2147483647,0,0,1,1,2,2,3,3,4,4,5,5,6,6,7,7,8,8,9,9,10,10,11,11,12,12,13,13,14,14,15,15,16,16,17,17,18,18,19,19,20,20,21,21,22,22,23,23,24,24,25,25,26,26,27,27,28,28,29,29,30,30,33,33,34,34,35,35,36,36,37,37,38,38,39,39,41,41,42,42,43,43,44,44,45,45,46,46,47,47,48,48,50,50,51,51,52,52,53,53,54,54,55,55,56,56,57,57,58,58,59,59,60,60,61,61,62,62],"right_children":[2,4,6,8,10,12,14,16,18,20,22,24,26,28,30,32,34,36,38,40,42,44,46,48,50,52,54,56,58,60,62,-1,-1,64,66,68,70,72,74,76,-1,78,80,82,84,86,88,90,92,-1,94,96,98,100,102,104,106,108,110,112,114,116,118,-1,-1,-1,-1,-1,-1,-1,-1,-1,-1,-1,-1,-1,-1,-1,-1,-1,-1,-1,-1,-1,-1,-1,-1,-1,-1,-1,-1,-1,-1,-1,-1,-1,-1,-1,-1,-1,-1,-1,-1,-1,-1,-1,-1,-1,-1,-1,-1,-1,-1,-1,-1,-1,-1,-1,-1],"split_conditions":[1.293823E-1,1.8206194E-1,-3.0716744E-1,-1.1282983E-2,-1.144194E0,-3.0048313E0,9.359884E-1,-2.1523285E0,6.944723E-1,1.4823474E0,8.0585843E-1,6.413036E-1,-8.677672E-1,-8.427115E-1,-6.882165E-1,-2.0486732E0,-1.6783751E0,-5.3715575E-1,1.2065705E0,-3.5638136E-1,-1.6750278E0,4.532542E-1,-9.5108896E-1,-3.3706012E0,-2.229267E0,-1.2977717E0,4.2383993E-1,-1.2391667E0,-5.6203187E-1,-4.767779E-1,4.9700105E-1,-7.905917E-2,-1.5916258E-1,-6.975817E-1,4.2620414E-1,-2.8723553E-2,-9.106987E-2,5.810379E-1,-2.3115737E-2,-1.7178274E0,-2.4849625E-1,-1.182261E0,1.8018347E0,1.5258147E0,-8.7373316E-1,-1.9299352E0,-7.2789663E-1,1.1679783E0,-2.8698558E-1,1.0344861E-1,-1.0201236E0,-1.6750278E0,-3.4258318E0,-6.6038084E-1,6.320635E-1,-1.2776952E0,3.3903906E-1,1.3932185E0,5.7656873E-2,1.0399872E0,3.2921275E-1,1.6270523E0,-1.2433935E0,1.11708894E-1,9.3570225E-2,7.1669914E-2,9.405484E-2,3.9929952E-2,6.792097E-2,3.6796812E-2,1.6805189E-2,1.2071483E-2,5.1426917E-2,-1.06618265E-2,-3.5393152E-2,-7.775705E-2,-2.8462118E-2,-1.2482821E-1,-1.8909222E-1,-7.4986964E-2,-1.3235664E-1,2.8204132E-2,-6.5923627E-3,2.318721E-2,-2.8858775E-2,-8.444255E-3,6.692136E-2,-6.1666694E-2,-2.708835E-2,-2.7899453E-1,-5.766725E-1,-2.4021521E-1,-1.305865E-1,-4.181994E-2,-9.3618415E-2,4.7937874E-2,8.511927E-2,-1.14493586E-1,4.4504218E-4,-7.861515E-2,3.3083733E-3,-1.1147223E-1,-5.1982857E-2,5.0314583E-2,8.5927896E-2,-1.5376747E-3,4.0317383E-2,-3.3191413E-2,8.448561E-2,-1.2931207E-2,1.3173155E-2,-4.7099497E-2,-1.8221945E-1,-1.17608145E-1,-8.548149E-2,-5.7293456E-2,-1.1239763E-1,-7.3099695E-2,-3.187102E-2],"split_indices":[1,5,3,0,7,7,5,7,0,5,5,1,5,5,6,0,5,5,0,6,7,0,0,7,5,5,1,5,6,7,1,0,0,0,3,6,5,6,5,7,0,3,5,8,1,6,0,5,0,0,5,7,3,7,1,0,0,3,8,5,7,5,8,0,0,0,0,0,0,0,0,0,0,0,0,0,0,0,0,0,0,0,0,0,0,0,0,0,0,0,0,0,0,0,0,0,0,0,0,0,0,0,0,0,0,0,0,0,0,0,0,0,0,0,0,0,0,0,0],"split_type":[0,0,0,0,0,0,0,0,0,0,0,0,0,0,0,0,0,0,0,0,0,0,0,0,0,0,0,0,0,0,0,0,0,0,0,0,0,0,0,0,0,0,0,0,0,0,0,0,0,0,0,0,0,0,0,0,0,0,0,0,0,0,0,0,0,0,0,0,0,0,0,0,0,0,0,0,0,0,0,0,0,0,0,0,0,0,0,0,0,0,0,0,0,0,0,0,0,0,0,0,0,0,0,0,0,0,0,0,0,0,0,0,0,0,0,0,0,0,0],"sum_hessian":[4.0963E4,1.6266E4,2.4697E4,1.2686E4,3.58E3,6.483E3,1.8214E4,7.22E3,5.466E3,7.41E2,2.839E3,2.95E2,6.188E3,1.6151E4,2.063E3,2.9E1,7.191E3,2.534E3,2.932E3,4.63E2,2.78E2,1.972E3,8.67E2,2.17E2,7.8E1,5.28E2,5.66E3,2.018E3,1.4133E4,2.74E2,1.789E3,2E1,9E0,2.11E3,5.081E3,7.08E2,1.826E3,2.535E3,3.97E2,4.53E2,1E1,1.42E2,1.36E2,1.578E3,3.94E2,4.68E2,3.99E2,1.09E2,1.08E2,4E0,7.4E1,2.28E2,3E2,1.502E3,4.158E3,4.66E2,1.552E3,3.505E3,1.0628E4,8.7E1,1.87E2,7.96E2,9.93E2,1.069E3,1.041E3,3.179E3,1.902E3,9.5E1,6.13E2,1.561E3,2.65E2,2.375E3,1.6E2,3.16E2,8.1E1,2.23E2,2.3E2,1.24E2,1.8E1,9.8E1,3.8E1,1.123E3,4.55E2,4.9E1,3.45E2,3.99E2,6.9E1,2.3E2,1.69E2,6.1E1,4.8E1,9.5E1,1.3E1,3.4E1,4E1,1.82E2,4.6E1,7E0,2.93E2,6.32E2,8.7E2,3.001E3,1.157E3,3.36E2,1.3E2,3.9E2,1.162E3,3.438E3,6.7E1,6.754E3,3.874E3,1E0,8.6E1,1.33E2,5.4E1,6.9E2,1.06E2,2.45E2,7.48E2],"tree_param":{"num_deleted":"0","num_feature":"9","num_nodes":"119","size_leaf_vector":"1"}},{"base_weights":[-3.1362762E-4,3.4487584E-1,-1.2543192E0,1.4865233E0,6.0074463E-2,-1.0216917E0,-2.87715E0,1.0133468E0,1.7838246E0,-7.022556E-1,4.0080297E-1,-5.4065186E-1,-1.4146988E0,-2.3560288E0,-7.812809E0,1.3235037E0,5.410641E-1,2.036608E0,1.6563148E0,-1.4152266E0,-4.9494696E-1,5.71265E-1,-1.0794987E-1,-8.2868767E-1,-1.21363565E-1,-1.6171238E0,-2.1402185E-1,-1.1426467E0,-3.152994E0,-5.763334E0,-7.434527E-1,-1.5600753E-1,1.346598E0,-2.3994903E-1,5.678665E-1,1.8269142E0,2.1811056E0,1.4164124E0,1.7184156E0,-5.250863E-1,-1.569E0,-8.042915E-1,-1.8045683E-1,-2.4271286E0,6.1108387E-1,-2.1075517E-1,2.0590623E-1,9.7587975E-3,-9.4800514E-1,2.237503E-1,-6.6978383E-1,-1.8723339E0,-9.8085517E-1,1.5957507E-1,-1.6738209E0,-1.9196059E0,-6.011763E-1,-4.0200176E0,-1.5581707E0,-3.6649108E-1,-2.3691721E-1,5.8642387E-2,8.534292E-2,1.2354128E-3,3.391715E-2,4.3845795E-2,9.317966E-2,1.0935479E-1,6.0745593E-2,5.4363966E-2,8.488491E-2,9.768664E-2,8.39501E-2,9.734882E-2,-2.9506126E-2,-3.46564E-2,-8.556592E-2,-1.6087217E-2,-6.1303455E-2,-2.1236999E-2,1.4856884E-2,-7.2042145E-2,-2.0294435E-1,6.3997336E-2,2.4033135E-2,-1.5486841E-2,1.3058794E-2,-8.834428E-3,1.3739936E-2,1.604021E-2,-3.2898493E-2,-1.0845857E-1,-4.479189E-2,2.467494E-2,-1.6634075E-2,-6.53615E-2,-2.637123E-2,-6.857651E-2,-1.2223059E-1,-6.446554E-2,-2.7662853E-2,-9.047019E-3,2.9185323E-2,-6.947455E-2,-1.07420936E-1,-1.9220446E-1,-8.564913E-2,9.70839E-2,-3.7906077E-2,-2.0767815E-1,7.350321E-2,-8.661129E-2,-5.3007808E-2],"categories":[],"categories_nodes":[],"categories_segments":[],"categories_sizes":[],"default_left":[0,0,0,0,0,0,0,0,0,0,0,0,0,0,0,0,0,0,0,0,0,0,0,0,0,0,0,0,0,0,0,0,0,0,0,0,0,0,0,0,0,0,0,0,0,0,0,0,0,0,0,0,0,0,0,0,0,0,0,0,0,0,0,0,0,0,0,0,0,0,0,0,0,0,0,0,0,0,0,0,0,0,0,0,0,0,0,0,0,0,0,0,0,0,0,0,0,0,0,0,0,0,0,0,0,0,0,0,0,0,0,0,0],"id":5,"left_children":[1,3,5,7,9,11,13,15,17,19,21,23,25,27,29,31,33,35,37,39,41,43,45,47,49,51,53,55,57,59,-1,-1,61,-1,63,65,67,69,71,73,75,77,79,81,83,85,87,89,91,93,95,97,99,101,103,105,107,109,111,-1,-1,-1,-1,-1,-1,-1,-1,-1,-1,-1,-1,-1,-1,-1,-1,-1,-1,-1,-1,-1,-1,-1,-1,-1,-1,-1,-1,-1,-1,-1,-1,-1,-1,-1,-1,-1,-1,-1,-1,-1,-1,-1,-1,-1,-1,-1,-1,-1,-1,-1,-1,-1,-1],"loss_changes":[1.7667568E4,1.0406104E4,3.3229688E3,8.971113E2,6.6539756E3,1.4562588E3,2.821166E3,3.6080078E2,1.2307422E2,1.1688811E3,1.535406E3,4.186092E2,1.030417E3,9.634204E2,1.4327734E3,1.5700732E2,1.429888E2,3.5739258E1,3.649463E1,2.4309595E2,5.9641125E2,1.5847485E3,1.4343384E2,2.0559424E2,2.6758478E2,5.874492E2,3.3458286E2,1.6628467E2,8.275337E2,9.853638E1,0E0,0E0,9.076465E1,0E0,5.8549286E1,1.7216919E1,1.8049316E0,4.8425415E1,1.5927734E1,4.359321E1,1.8816113E2,6.287091E2,3.5503107E2,2.7418384E2,1.1411016E3,1.5647438E2,2.896318E1,5.358841E1,1.1266223E2,1.3044807E2,4.8858032E1,7.3865137E2,1.3658942E2,7.07286E1,1.3882568E1,5.8230957E1,9.565699E1,2.9204443E2,1.6713501E1,0E0,0E0,0E0,0E0,0E0,0E0,0E0,0E0,0E0,0E0,0E0,0E0,0E0,0E0,0E0,0E0,0E0,0E0,0E0,0E0,0E0,0E0,0E0,0E0,0E0,0E0,0E0,0E0,0E0,0E0,0E0,0E0,0E0,0E0,0E0,0E0,0E0,0E0,0E0,0E0,0E0,0E0,0E0,0E0,0E0,0E0,0E0,0E0,0E0,0E0,0E0,0E0,0E0,0E0],"parents":[2147483647,0,0,1,1,2,2,3,3,4,4,5,5,6,6,7,7,8,8,9,9,10,10,11,11,12,12,13,13,14,14,15,15,16,16,17,17,18,18,19,19,20,20,21,21,22,22,23,23,24,24,25,25,26,26,27,27,28,28,29,29,32,32,34,34,35,35,36,36,37,37,38,38,39,39,40,40,41,41,42,42,43,43,44,44,45,45,46,46,47,47,48,48,49,49,50,50,51,51,52,52,53,53,54,54,55,55,56,56,57,57,58,58],"right_children":[2,4,6,8,10,12,14,16,18,20,22,24,26,28,30,32,34,36,38,40,42,44,46,48,50,52,54,56,58,60,-1,-1,62,-1,64,66,68,70,72,74,76,78,80,82,84,86,88,90,92,94,96,98,100,102,104,106,108,110,112,-1,-1,-1,-1,-1,-1,-1,-1,-1,-1,-1,-1,-1,-1,-1,-1,-1,-1,-1,-1,-1,-1,-1,-1,-1,-1,-1,-1,-1,-1,-1,-1,-1,-1,-1,-1,-1,-1,-1,-1,-1,-1,-1,-1,-1,-1,-1,-1,-1,-1,-1,-1,-1,-1],"split_conditions":[6.410671E-1,-1.0657351E0,9.1132635E-1,-1.24059334E-1,-5.347543E-1,-8.861243E-1,3.3998048E0,-1.3296247E0,-6.975817E-1,-1.3391503E0,1.1502538E0,-2.5896821E-2,6.0945183E-1,-3.1434706E-1,1.2690637E0,-4.016398E0,-4.016398E0,1.504176E0,-1.7900614E-1,4.0105656E-1,-4.6253705E-1,-2.7118895E0,5.373481E-1,-1.5062673E-1,9.359884E-1,-2.8745478E-1,-7.2789663E-1,-3.6116257E0,-5.1739216E-1,-3.7988374E0,-7.434527E-1,-1.5600753E-1,5.857609E-1,-2.3994903E-1,-4.9102747E-1,4.534814E-2,5.786855E-1,1.4595747E0,-1.8497775E0,-2.3497505E0,-1.0533464E0,-5.60123E-2,-8.000053E-1,2.2658617E0,-8.1184405E-1,5.7656873E-2,-5.0969505E-1,-2.3155287E-1,-1.3391503E0,-3.260267E-1,-1.0093323E0,-3.1434706E-1,-1.0227997E0,-2.6116314E0,1.195087E0,-3.1236663E-1,-2.2623944E0,1.8265555E-2,1.2300761E0,-3.6649108E-1,-2.3691721E-1,5.8642387E-2,8.534292E-2,1.2354128E-3,3.391715E-2,4.3845795E-2,9.317966E-2,1.0935479E-1,6.0745593E-2,5.4363966E-2,8.488491E-2,9.768664E-2,8.39501E-2,9.734882E-2,-2.9506126E-2,-3.46564E-2,-8.556592E-2,-1.6087217E-2,-6.1303455E-2,-2.1236999E-2,1.4856884E-2,-7.2042145E-2,-2.0294435E-1,6.3997336E-2,2.4033135E-2,-1.5486841E-2,1.3058794E-2,-8.834428E-3,1.3739936E-2,1.604021E-2,-3.2898493E-2,-1.0845857E-1,-4.479189E-2,2.467494E-2,-1.6634075E-2,-6.53615E-2,-2.637123E-2,-6.857651E-2,-1.2223059E-1,-6.446554E-2,-2.7662853E-2,-9.047019E-3,2.9185323E-2,-6.947455E-2,-1.07420936E-1,-1.9220446E-1,-8.564913E-2,9.70839E-2,-3.7906077E-2,-2.0767815E-1,7.350321E-2,-8.661129E-2,-5.3007808E-2],"split_indices":[5,5,4,2,2,4,8,5,0,2,0,8,2,0,5,3,3,2,6,4,6,3,3,0,5,6,0,3,6,3,0,0,3,0,3,3,3,2,5,0,0,0,2,8,0,8,4,6,2,6,2,0,2,3,5,8,0,2,5,0,0,0,0,0,0,0,0,0,0,0,0,0,0,0,0,0,0,0,0,0,0,0,0,0,0,0,0,0,0,0,0,0,0,0,0,0,0,0,0,0,0,0,0,0,0,0,0,0,0,0,0,0,0],"split_type":[0,0,0,0,0,0,0,0,0,0,0,0,0,0,0,0,0,0,0,0,0,0,0,0,0,0,0,0,0,0,0,0,0,0,0,0,0,0,0,0,0,0,0,0,0,0,0,0,0,0,0,0,0,0,0,0,0,0,0,0,0,0,0,0,0,0,0,0,0,0,0,0,0,0,0,0,0,0,0,0,0,0,0,0,0,0,0,0,0,0,0,0,0,0,0,0,0,0,0,0,0,0,0,0,0,0,0,0,0,0,0,0,0],"sum_hessian":[4.0813E4,3.2004E4,8.809E3,6.389E3,2.5615E4,7.706E3,1.103E3,2.467E3,3.922E3,7.912E3,1.7703E4,3.466E3,4.24E3,9.99E2,1.04E2,1.488E3,9.79E2,1.31E3,2.612E3,1.781E3,6.131E3,1.326E4,4.443E3,2.054E3,1.412E3,3.628E3,6.12E2,3.97E2,6.02E2,8.2E1,2.2E1,7E0,1.481E3,4E0,9.75E2,5.4E2,7.7E2,5.42E2,2.07E3,2.63E2,1.518E3,3.09E3,3.041E3,1.73E2,1.3087E4,3.347E3,1.096E3,2.56E2,1.798E3,8.67E2,5.45E2,2.588E3,1.04E3,4.88E2,1.24E2,1.62E2,2.35E2,3.89E2,2.13E2,3E1,5.2E1,1.002E3,4.79E2,1.65E2,8.1E2,2.1E1,5.19E2,7.64E2,6E0,2.52E2,2.9E2,2.9E2,1.78E3,6E0,2.57E2,2.13E2,1.305E3,1.442E3,1.648E3,2.012E3,1.029E3,1.09E2,6.4E1,2.134E3,1.0953E4,2.767E3,5.8E2,1.67E2,9.29E2,1.75E2,8.1E1,7.2E1,1.726E3,5.84E2,2.83E2,9.8E1,4.47E2,1.382E3,1.206E3,6.03E2,4.37E2,2.71E2,2.17E2,8E1,4.4E1,1.4E1,1.48E2,1.3E1,2.22E2,3.8E2,9E0,1.56E2,5.7E1],"tree_param":{"num_deleted":"0","num_feature":"9","num_nodes":"113","size_leaf_vector":"1"}},{"base_weights":[1.292232E-3,7.944619E-1,-5.124633E-1,1.1009654E0,-2.9937428E-1,-1.4080828E0,-1.933329E-1,1.69333E0,8.2304233E-1,-1.4087816E0,-4.104203E-2,-1.2771629E0,-5.5195193E0,-6.300094E-1,7.5977646E-2,1.9096378E0,1.5320781E0,7.067702E-1,1.6260755E0,-7.9757535E-1,-1.7967247E0,1.3819017E-1,-7.3737323E-1,-9.1936195E-1,-1.9311993E0,-4.301263E0,-1.3553892E1,-9.128923E-1,-2.0317347E-1,2.5046206E-1,-8.265332E-1,-6.256981E-1,1.9159528E0,1.3224592E0,1.6081743E0,1.7368056E0,5.8354145E-1,-1.6321077E0,1.7302283E0,-6.9735247E-1,-3.5151966E0,-1.5468748E0,-2.2503407E0,6.17602E-1,-1.6674135E-2,-1.2332708E0,7.31568E-2,-1.7596233E0,-6.205947E-1,-4.1946177E0,-1.4842671E0,-4.6003222E0,1.2770157E-1,-7.4548596E-1,-4.6681267E-1,3.487565E-1,-1.0502069E0,2.0559801E-1,-7.751377E-1,1.0166897E0,1.6311814E-1,-2.2915857E0,-5.36424E-1,-7.329903E-2,6.8385795E-2,9.822985E-2,7.700417E-2,5.7574082E-2,7.802012E-2,8.5984044E-2,7.702336E-2,2.9380754E-2,9.267263E-2,2.7339974E-2,8.8833116E-2,-1.7982133E-2,-9.195485E-2,7.7219315E-2,1.0482191E-1,-4.694585E-2,-1.6345272E-2,-2.1754704E-1,-1.9669725E-2,-5.4655254E-2,-9.94507E-2,-6.830016E-2,-1.2744775E-1,3.9903163E-3,4.409741E-2,7.4571515E-3,-1.8143283E-2,-7.09197E-2,5.574783E-4,-3.0189201E-2,4.2676948E-2,-1.3348629E-1,-4.706407E-2,4.780391E-2,-3.6522012E-2,-1.7293641E-1,-2.2357063E-1,-9.256704E-2,-3.7369523E-3,-3.4667894E-1,-2.0023592E-1,2.9921273E-2,-2.0424213E-2,-3.5055757E-2,-7.048897E-2,-1.39901135E-2,2.903362E-2,-5.691539E-3,-4.3285247E-2,4.3286886E-2,6.1684437E-2,2.8737564E-2,4.056962E-3,-9.917625E-2,-1.6537835E-1,-3.7223503E-2,7.801716E-3],"categories":[],"categories_nodes":[],"categories_segments":[],"categories_sizes":[],"default_left":[0,0,0,0,0,0,0,0,0,0,0,0,0,0,0,0,0,0,0,0,0,0,0,0,0,0,0,0,0,0,0,0,0,0,0,0,0,0,0,0,0,0,0,0,0,0,0,0,0,0,0,0,0,0,0,0,0,0,0,0,0,0,0,0,0,0,0,0,0,0,0,0,0,0,0,0,0,0,0,0,0,0,0,0,0,0,0,0,0,0,0,0,0,0,0,0,0,0,0,0,0,0,0,0,0,0,0,0,0,0,0,0,0,0,0,0,0,0,0,0,0],"id":6,"left_children":[1,3,5,7,9,11,13,15,17,19,21,23,25,27,29,31,33,35,37,39,41,43,45,47,49,51,53,55,57,59,61,63,65,67,69,71,73,75,77,79,81,83,85,87,89,91,93,95,97,99,101,103,-1,-1,-1,105,107,109,111,113,115,117,119,-1,-1,-1,-1,-1,-1,-1,-1,-1,-1,-1,-1,-1,-1,-1,-1,-1,-1,-1,-1,-1,-1,-1,-1,-1,-1,-1,-1,-1,-1,-1,-1,-1,-1,-1,-1,-1,-1,-1,-1,-1,-1,-1,-1,-1,-1,-1,-1,-1,-1,-1,-1,-1,-1,-1,-1,-1,-1],"loss_changes":[1.6671855E4,5.3923887E3,7.096624E3,2.066876E3,1.0090457E3,3.50408E3,2.153098E3,1.3697852E2,7.9744775E2,1.5624731E2,3.566697E2,1.4779014E3,1.9090752E3,8.430945E2,1.783601E3,2.8561035E1,3.4608887E1,9.475342E2,3.6966016E2,6.836429E1,4.2533325E1,1.6876637E2,2.3522507E2,1.0254211E3,2.2546885E3,3.7257446E2,9.477051E0,7.279868E2,6.512998E2,6.3502234E2,7.786919E2,1.0380198E1,2.814795E1,2.3385986E1,1.0072266E1,1.0588281E2,2.9168872E2,8.293709E0,6.8086426E1,2.2243752E1,2.1769623E1,5.0992493E1,3.4016907E1,7.883078E1,9.8732445E1,8.364044E1,1.1832013E2,7.958855E2,5.2338696E2,5.9492188E1,9.663657E2,2.0709155E2,0E0,0E0,0E0,7.832602E1,4.744956E2,2.9601193E2,6.943695E1,3.0738403E1,2.8749643E2,8.827344E1,2.20965E2,0E0,0E0,0E0,0E0,0E0,0E0,0E0,0E0,0E0,0E0,0E0,0E0,0E0,0E0,0E0,0E0,0E0,0E0,0E0,0E0,0E0,0E0,0E0,0E0,0E0,0E0,0E0,0E0,0E0,0E0,0E0,0E0,0E0,0E0,0E0,0E0,0E0,0E0,0E0,0E0,0E0,0E0,0E0,0E0,0E0,0E0,0E0,0E0,0E0,0E0,0E0,0E0,0E0,0E0,0E0,0E0,0E0,0E0],"parents":[2147483647,0,0,1,1,2,2,3,3,4,4,5,5,6,6,7,7,8,8,9,9,10,10,11,11,12,12,13,13,14,14,15,15,16,16,17,17,18,18,19,19,20,20,21,21,22,22,23,23,24,24,25,25,26,26,27,27,28,28,29,29,30,30,31,31,32,32,33,33,34,34,35,35,36,36,37,37,38,38,39,39,40,40,41,41,42,42,43,43,44,44,45,45,46,46,47,47,48,48,49,49,50,50,51,51,55,55,56,56,57,57,58,58,59,59,60,60,61,61,62,62],"right_children":[2,4,6,8,10,12,14,16,18,20,22,24,26,28,30,32,34,36,38,40,42,44,46,48,50,52,54,56,58,60,62,64,66,68,70,72,74,76,78,80,82,84,86,88,90,92,94,96,98,100,102,104,-1,-1,-1,106,108,110,112,114,116,118,120,-1,-1,-1,-1,-1,-1,-1,-1,-1,-1,-1,-1,-1,-1,-1,-1,-1,-1,-1,-1,-1,-1,-1,-1,-1,-1,-1,-1,-1,-1,-1,-1,-1,-1,-1,-1,-1,-1,-1,-1,-1,-1,-1,-1,-1,-1,-1,-1,-1,-1,-1,-1,-1,-1,-1,-1,-1,-1],"split_conditions":[1.2163791E-1,1.8206194E-1,-3.0716744E-1,-1.3572158E0,-1.2201301E0,3.3998048E0,-5.347543E-1,-1.7654597E0,5.5897903E-1,8.5270214E-1,1.1679783E0,1.2154723E0,1.2300761E0,5.782282E-1,5.873531E-1,-7.5579125E-1,-3.564691E-1,-3.5948532E0,-2.5672445E-1,1.5560333E0,-4.290572E0,-2.28775E0,4.855302E-1,-1.5792768E0,1.2870898E0,2.9984376E-1,-1.3391503E0,-9.1402197E-1,1.0421601E-1,-9.1402197E-1,-9.556062E-1,2.0449178E-1,5.828515E-1,5.430647E-1,-7.260349E-1,-7.4797654E-1,1.4697443E0,-7.3257273E-1,6.06724E-1,-5.7340974E-1,-2.1033971E0,-7.893737E-2,1.0929483E0,-4.2420477E-1,6.180434E-1,2.5881166E0,-7.194388E-1,5.558672E-1,-1.3296247E0,-1.5568038E0,4.855302E-1,-3.7988374E0,1.2770157E-1,-7.4548596E-1,-4.6681267E-1,2.844455E-1,4.3253556E-1,-9.751428E-2,-3.6484577E-2,5.7656873E-2,2.5755522E-1,1.338386E0,5.4461396E-1,-7.329903E-2,6.8385795E-2,9.822985E-2,7.700417E-2,5.7574082E-2,7.802012E-2,8.5984044E-2,7.702336E-2,2.9380754E-2,9.267263E-2,2.7339974E-2,8.8833116E-2,-1.7982133E-2,-9.195485E-2,7.7219315E-2,1.0482191E-1,-4.694585E-2,-1.6345272E-2,-2.1754704E-1,-1.9669725E-2,-5.4655254E-2,-9.94507E-2,-6.830016E-2,-1.2744775E-1,3.9903163E-3,4.409741E-2,7.4571515E-3,-1.8143283E-2,-7.09197E-2,5.574783E-4,-3.0189201E-2,4.2676948E-2,-1.3348629E-1,-4.706407E-2,4.780391E-2,-3.6522012E-2,-1.7293641E-1,-2.2357063E-1,-9.256704E-2,-3.7369523E-3,-3.4667894E-1,-2.0023592E-1,2.9921273E-2,-2.0424213E-2,-3.5055757E-2,-7.048897E-2,-1.39901135E-2,2.903362E-2,-5.691539E-3,-4.3285247E-2,4.3286886E-2,6.1684437E-2,2.8737564E-2,4.056962E-3,-9.917625E-2,-1.6537835E-1,-3.7223503E-2,7.801716E-3],"split_indices":[1,5,3,5,2,8,2,5,8,5,5,8,5,1,5,2,2,1,6,4,1,6,2,2,8,1,2,5,6,5,6,6,8,3,1,3,2,2,8,6,2,4,5,2,5,5,4,1,5,2,2,3,0,0,0,8,1,8,5,8,1,5,1,0,0,0,0,0,0,0,0,0,0,0,0,0,0,0,0,0,0,0,0,0,0,0,0,0,0,0,0,0,0,0,0,0,0,0,0,0,0,0,0,0,0,0,0,0,0,0,0,0,0,0,0,0,0,0,0,0,0],"split_type":[0,0,0,0,0,0,0,0,0,0,0,0,0,0,0,0,0,0,0,0,0,0,0,0,0,0,0,0,0,0,0,0,0,0,0,0,0,0,0,0,0,0,0,0,0,0,0,0,0,0,0,0,0,0,0,0,0,0,0,0,0,0,0,0,0,0,0,0,0,0,0,0,0,0,0,0,0,0,0,0,0,0,0,0,0,0,0,0,0,0,0,0,0,0,0,0,0,0,0,0,0,0,0,0,0,0,0,0,0,0,0,0,0,0,0,0,0,0,0,0,0],"sum_hessian":[4.0911E4,1.6082E4,2.4829E4,1.2562E4,3.52E3,6.522E3,1.8307E4,4.01E3,8.552E3,6.64E2,2.856E3,6.322E3,2E2,6.983E3,1.1324E4,1.708E3,2.302E3,7.472E3,1.08E3,2.59E2,4.05E2,2.272E3,5.84E2,4.088E3,2.234E3,1.75E2,2.5E1,4.199E3,2.784E3,9.49E3,1.834E3,4E0,1.704E3,6.18E2,1.684E3,7.97E2,6.675E3,3.3E1,1.047E3,2.51E2,8E0,2.64E2,1.41E2,5.54E2,1.718E3,3.62E2,2.22E2,1.071E3,3.017E3,3.67E2,1.867E3,1.68E2,7E0,1.7E1,8E0,4.12E2,3.787E3,1.624E3,1.16E3,9.7E2,8.52E3,3.02E2,1.532E3,3E0,1E0,1.505E3,1.99E2,3.63E2,2.55E2,6.27E2,1.057E3,7.4E1,7.23E2,6.477E3,1.98E2,5E0,2.8E1,6.98E2,3.49E2,1.51E2,1E2,6E0,2E0,1.32E2,1.32E2,3.7E1,1.04E2,1.83E2,3.71E2,1.162E3,5.56E2,3.15E2,4.7E1,1.19E2,1.03E2,5.06E2,5.65E2,1.96E2,2.821E3,1.04E2,2.63E2,1.481E3,3.86E2,3.2E1,1.36E2,3.1E2,1.02E2,1.923E3,1.864E3,7.08E2,9.16E2,1.4E2,1.02E3,5.75E2,3.95E2,1.414E3,7.106E3,2.34E2,6.8E1,1.178E3,3.54E2],"tree_param":{"num_deleted":"0","num_feature":"9","num_nodes":"121","size_leaf_vector":"1"}},{"base_weights":[-2.2455947E-3,3.0943444E-1,-1.1379083E0,1.3466192E0,5.0700027E-2,-8.373988E0,-1.059944E0,9.433504E-1,1.6318297E0,-6.5108836E-1,3.6502263E-1,-6.934943E-1,-6.2915382E0,-1.9972211E0,-7.423794E-1,1.229667E0,5.274822E-1,1.8098191E0,1.5054648E0,-1.3909101E0,-4.7033387E-1,-2.2715566E0,3.989254E-1,-3.533398E-1,-1.8296528E-1,-1.7631364E0,-2.6680455E0,-2.1973767E0,-6.304449E-1,-1.5119056E-1,1.2478367E0,-2.3914318E-1,5.564153E-1,1.8555897E0,1.500636E0,1.212025E0,1.56394E0,-1.8078436E0,-1.0256766E0,-7.5693816E-1,-1.7375065E-1,-1.5652404E0,-3.1781204E0,2.3114742E-1,6.336592E-1,-1.2794186E0,-2.0303514E0,-1.6853441E0,-3.5406747E0,-6.0386336E-1,-2.6366673E0,-3.7325487E-1,-9.150293E-1,5.487604E-2,7.805639E-2,-7.6988E-3,3.2589566E-2,9.663933E-2,8.351552E-2,-3.1828437E-2,7.951014E-2,3.3071753E-2,6.854344E-2,7.708728E-2,9.1501705E-2,-1.1469977E-2,-1.023433E-1,-7.800128E-3,-5.9061866E-2,6.4477185E-3,-4.5078725E-2,-1.9956157E-2,1.4784405E-2,-1.3265292E-1,-7.257663E-2,-2.0663495E-1,-1.3032135E-1,-5.5750757E-3,1.8036371E-2,8.007382E-2,2.9146893E-2,-2.9479811E-2,-6.999446E-2,-1.3178542E-1,-7.3004045E-2,-7.37026E-2,-1.6053823E-1,-1.0484245E-1,-2.0831008E-1,-1.9178724E-2,-5.5988546E-2,-1.4878908E-1,-9.0645745E-2,-3.3332013E-2,-2.0590934E-3,-1.5112502E-3,-5.498535E-2],"categories":[],"categories_nodes":[],"categories_segments":[],"categories_sizes":[],"default_left":[0,0,0,0,0,0,0,0,0,0,0,0,0,0,0,0,0,0,0,0,0,0,0,0,0,0,0,0,0,0,0,0,0,0,0,0,0,0,0,0,0,0,0,0,0,0,0,0,0,0,0,0,0,0,0,0,0,0,0,0,0,0,0,0,0,0,0,0,0,0,0,0,0,0,0,0,0,0,0,0,0,0,0,0,0,0,0,0,0,0,0,0,0,0,0,0,0],"id":7,"left_children":[1,3,5,7,9,11,13,15,17,19,21,-1,23,25,27,29,31,33,35,37,39,41,43,-1,-1,45,47,49,51,-1,53,-1,55,57,59,61,63,65,67,69,71,73,75,77,79,81,83,85,87,89,91,93,95,-1,-1,-1,-1,-1,-1,-1,-1,-1,-1,-1,-1,-1,-1,-1,-1,-1,-1,-1,-1,-1,-1,-1,-1,-1,-1,-1,-1,-1,-1,-1,-1,-1,-1,-1,-1,-1,-1,-1,-1,-1,-1,-1,-1],"loss_changes":[1.4517098E4,8.635877E3,4.973744E3,7.374414E2,5.681922E3,9.8856055E2,2.5996465E3,3.165537E2,8.188867E1,1.0648757E3,1.5911062E3,0E0,1.1698633E2,3.4248926E2,1.0619573E3,1.2565137E2,1.69827E2,1.9249512E1,3.595752E1,2.3630884E2,5.443064E2,1.3973804E2,6.9161865E2,0E0,0E0,2.096416E2,4.8282715E2,3.2461475E2,4.4349634E2,0E0,7.226929E1,0E0,7.347824E1,1.6108887E1,4.0445282E1,3.15401E1,8.021973E0,2.7457007E2,1.1291583E2,4.17443E2,3.332777E2,1.2105438E1,4.2709717E1,4.549228E2,3.5844678E2,4.79563E1,3.6070117E2,8.229059E1,2.631128E2,1.1162659E1,9.656665E1,3.104671E2,4.702422E2,0E0,0E0,0E0,0E0,0E0,0E0,0E0,0E0,0E0,0E0,0E0,0E0,0E0,0E0,0E0,0E0,0E0,0E0,0E0,0E0,0E0,0E0,0E0,0E0,0E0,0E0,0E0,0E0,0E0,0E0,0E0,0E0,0E0,0E0,0E0,0E0,0E0,0E0,0E0,0E0,0E0,0E0,0E0,0E0],"parents":[2147483647,0,0,1,1,2,2,3,3,4,4,5,5,6,6,7,7,8,8,9,9,10,10,12,12,13,13,14,14,15,15,16,16,17,17,18,18,19,19,20,20,21,21,22,22,25,25,26,26,27,27,28,28,30,30,32,32,33,33,34,34,35,35,36,36,37,37,38,38,39,39,40,40,41,41,42,42,43,43,44,44,45,45,46,46,47,47,48,48,49,49,50,50,51,51,52,52],"right_children":[2,4,6,8,10,12,14,16,18,20,22,-1,24,26,28,30,32,34,36,38,40,42,44,-1,-1,46,48,50,52,-1,54,-1,56,58,60,62,64,66,68,70,72,74,76,78,80,82,84,86,88,90,92,94,96,-1,-1,-1,-1,-1,-1,-1,-1,-1,-1,-1,-1,-1,-1,-1,-1,-1,-1,-1,-1,-1,-1,-1,-1,-1,-1,-1,-1,-1,-1,-1,-1,-1,-1,-1,-1,-1,-1,-1,-1,-1,-1,-1,-1],"split_conditions":[6.410671E-1,-1.0657351E0,-3.3706012E0,-1.1037836E-2,-5.347543E-1,-1.2201301E0,-1.144194E0,-1.3296247E0,-1.7654597E0,-1.3699018E0,-1.9354556E0,-6.934943E-1,-3.7988374E0,1.0490618E0,-1.5568038E0,-4.016398E0,-4.016398E0,5.828515E-1,-1.5441109E-1,-5.4356766E-1,-4.6253705E-1,-4.7706014E-1,2.1848148E-2,-3.533398E-1,-1.8296528E-1,1.4823474E0,-1.1748649E0,-1.182261E0,1.0929483E0,-1.5119056E-1,6.299974E-1,-2.3914318E-1,-1.5932775E0,-1.8497775E0,2.3052807E-1,2.1042244E-1,1.5635009E0,-1.5932775E0,3.9348686E-1,-1.1717637E0,-8.000053E-1,-3.6116257E0,-2.679595E-1,-3.5638136E-1,-2.1174753E0,-2.28775E0,1.9555194E0,1.6270523E0,-1.4973272E0,1.978751E0,-5.252832E-1,-2.5896821E-2,-2.0173786E0,5.487604E-2,7.805639E-2,-7.6988E-3,3.2589566E-2,9.663933E-2,8.351552E-2,-3.1828437E-2,7.951014E-2,3.3071753E-2,6.854344E-2,7.708728E-2,9.1501705E-2,-1.1469977E-2,-1.023433E-1,-7.800128E-3,-5.9061866E-2,6.4477185E-3,-4.5078725E-2,-1.9956157E-2,1.4784405E-2,-1.3265292E-1,-7.257663E-2,-2.0663495E-1,-1.3032135E-1,-5.5750757E-3,1.8036371E-2,8.007382E-2,2.9146893E-2,-2.9479811E-2,-6.999446E-2,-1.3178542E-1,-7.3004045E-2,-7.37026E-2,-1.6053823E-1,-1.0484245E-1,-2.0831008E-1,-1.9178724E-2,-5.5988546E-2,-1.4878908E-1,-9.0645745E-2,-3.3332013E-2,-2.0590934E-3,-1.5112502E-3,-5.498535E-2],"split_indices":[5,5,7,2,2,2,7,5,5,2,7,0,3,4,2,3,3,8,6,6,6,5,8,0,0,5,2,3,5,0,3,0,7,5,4,3,2,7,4,6,2,3,2,6,6,6,8,5,6,5,3,8,3,0,0,0,0,0,0,0,0,0,0,0,0,0,0,0,0,0,0,0,0,0,0,0,0,0,0,0,0,0,0,0,0,0,0,0,0,0,0,0,0,0,0,0,0],"split_type":[0,0,0,0,0,0,0,0,0,0,0,0,0,0,0,0,0,0,0,0,0,0,0,0,0,0,0,0,0,0,0,0,0,0,0,0,0,0,0,0,0,0,0,0,0,0,0,0,0,0,0,0,0,0,0,0,0,0,0,0,0,0,0,0,0,0,0,0,0,0,0,0,0,0,0,0,0,0,0,0,0,0,0,0,0,0,0,0,0,0,0,0,0,0,0,0,0],"sum_hessian":[4.1011E4,3.218E4,8.831E3,6.424E3,2.5756E4,9.3E1,8.738E3,2.663E3,3.761E3,7.967E3,1.7789E4,2.4E1,6.9E1,2.21E3,6.528E3,1.576E3,1.087E3,1.556E3,2.205E3,1.563E3,6.404E3,2.25E2,1.7564E4,5.2E1,1.7E1,1.641E3,5.69E2,4.65E2,6.063E3,6E0,1.57E3,5E0,1.082E3,1.351E3,2.05E2,3.7E2,1.835E3,7.28E2,8.35E2,3.256E3,3.148E3,1.28E2,9.7E1,1.0244E4,7.32E3,5.86E2,1.055E3,2.69E2,3E2,1.01E2,3.64E2,3.186E3,2.877E3,1.064E3,5.06E2,1.28E2,9.54E2,9.47E2,4.04E2,8E0,1.97E2,8.4E1,2.86E2,1.7E3,1.35E2,9.6E1,6.32E2,1.27E2,7.08E2,4.57E2,2.799E3,2.127E3,1.021E3,1E1,1.18E2,3.4E1,6.3E1,2.811E3,7.433E3,3.63E2,6.957E3,8.8E1,4.98E2,5.1E2,5.45E2,2.38E2,3.1E1,9.2E1,2.08E2,7.2E1,2.9E1,2.56E2,1.08E2,1.691E3,1.495E3,4.97E2,2.38E3],"tree_param":{"num_deleted":"0","num_feature":"9","num_nodes":"97","size_leaf_vector":"1"}},{"base_weights":[-1.6342935E-3,7.2063106E-1,-4.6540186E-1,9.734575E-1,-3.8536608E-1,-1.2907075E0,-1.7421335E-1,1.3996533E0,3.922525E-1,-1.0646428E0,7.649898E-2,-4.3775754E0,-1.1387434E0,-6.8070576E-2,-1.050976E0,-1.6939168E0,1.4126781E0,6.742034E-1,1.21179886E-1,-1.8952049E0,-8.334885E-1,2.7001563E-1,-3.3130535E-1,-5.4873724E0,-1.0201595E0,4.1882893E-1,-1.2762417E0,6.5290487E-1,-1.6786331E-1,-2.251269E0,-8.598534E-1,-7.078395E-2,-1.1758351E-1,1.6766443E0,1.3091034E0,1.0808698E0,5.1648563E-1,2.036027E-1,-3.2538095E-1,-2.6804924E0,-1.5599235E0,-4.187818E-1,-1.1512935E0,-3.9347373E-2,5.658828E-1,-4.1888657E-1,1.0668588E0,-6.902429E0,-3.8094347E0,8.966198E-2,-1.1988833E0,9.5930535E-1,1.9925933E-2,-5.085927E-1,-1.5597236E0,7.480119E-1,1.7080012E-1,-5.246188E-1,-5.068865E-2,-1.5592152E-1,-1.8756663E0,-1.083106E0,-6.781873E-1,9.191368E-2,7.5801134E-2,5.8490213E-2,7.8508794E-2,1.3845724E-2,5.586161E-2,3.0311791E-2,8.511694E-3,7.7377367E-3,5.0368942E-2,-3.5258427E-2,-1.3737614E-2,-2.178059E-1,-1.19732894E-1,-4.8434127E-2,-1.02935195E-1,5.1063164E-3,-4.994914E-2,-6.0390025E-2,2.2344248E-2,9.091373E-3,-2.5848461E-2,4.8367787E-2,1.552722E-2,-3.71883E-3,-3.2903817E-2,1.0160732E-2,5.7194095E-2,-2.3053566E-1,-4.7809845E-1,-2.0422891E-1,-1.2041656E-1,-3.9447445E-2,-8.35933E-2,1.0355585E-1,4.295009E-2,7.4440786E-3,-4.963921E-2,-6.603229E-2,3.54893E-3,-9.9062E-2,-5.1010747E-2,4.6413418E-2,2.442384E-2,6.0567033E-2,1.9856335E-3,-2.8177207E-2,8.094992E-2,-1.0537188E-2,1.16211735E-2,-1.00670055E-1,-6.958719E-2,-4.65412E-2,-9.941683E-2,-6.2661685E-2,-2.4331452E-2],"categories":[],"categories_nodes":[],"categories_segments":[],"categories_sizes":[],"default_left":[0,0,0,0,0,0,0,0,0,0,0,0,0,0,0,0,0,0,0,0,0,0,0,0,0,0,0,0,0,0,0,0,0,0,0,0,0,0,0,0,0,0,0,0,0,0,0,0,0,0,0,0,0,0,0,0,0,0,0,0,0,0,0,0,0,0,0,0,0,0,0,0,0,0,0,0,0,0,0,0,0,0,0,0,0,0,0,0,0,0,0,0,0,0,0,0,0,0,0,0,0,0,0,0,0,0,0,0,0,0,0,0,0,0,0,0,0,0,0],"id":8,"left_children":[1,3,5,7,9,11,13,15,17,19,21,23,25,27,29,31,33,35,37,39,41,43,45,47,49,51,53,55,57,59,61,-1,-1,63,65,67,69,71,73,75,77,79,81,83,85,87,89,91,93,-1,95,97,99,101,103,105,107,109,111,-1,113,115,117,-1,-1,-1,-1,-1,-1,-1,-1,-1,-1,-1,-1,-1,-1,-1,-1,-1,-1,-1,-1,-1,-1,-1,-1,-1,-1,-1,-1,-1,-1,-1,-1,-1,-1,-1,-1,-1,-1,-1,-1,-1,-1,-1,-1,-1,-1,-1,-1,-1,-1,-1,-1,-1,-1,-1,-1],"loss_changes":[1.3725789E4,4.4808125E3,5.996708E3,3.230046E3,9.356367E2,3.047874E3,1.7166436E3,3.055586E2,4.2173083E2,2.301499E2,1.4024594E2,1.1308472E3,1.3292051E3,1.1840878E3,4.550354E2,2.5271683E0,2.0266504E2,1.7293652E2,1.036774E2,6.480127E1,1.2419672E2,1.10316345E2,7.048997E1,5.174375E2,4.0867126E1,1.086421E2,1.2398281E3,9.1621155E1,6.0427325E2,8.3069214E1,6.902417E1,0E0,0E0,5.1939453E1,1.9403711E2,2.1762085E1,6.0526367E1,9.317186E1,8.247402E0,2.6447815E1,5.2857056E1,1.2462137E2,4.8854736E1,6.242037E1,6.284665E1,4.43664E1,2.0292473E0,7.055864E2,3.1411987E1,0E0,1.2835091E1,2.2085907E1,3.8150856E1,7.244129E2,9.446924E2,7.77207E1,4.510089E1,2.991305E2,4.931962E2,0E0,1.0061829E1,1.0429401E2,1.0414749E2,0E0,0E0,0E0,0E0,0E0,0E0,0E0,0E0,0E0,0E0,0E0,0E0,0E0,0E0,0E0,0E0,0E0,0E0,0E0,0E0,0E0,0E0,0E0,0E0,0E0,0E0,0E0,0E0,0E0,0E0,0E0,0E0,0E0,0E0,0E0,0E0,0E0,0E0,0E0,0E0,0E0,0E0,0E0,0E0,0E0,0E0,0E0,0E0,0E0,0E0,0E0,0E0,0E0,0E0,0E0,0E0],"parents":[2147483647,0,0,1,1,2,2,3,3,4,4,5,5,6,6,7,7,8,8,9,9,10,10,11,11,12,12,13,13,14,14,15,15,16,16,17,17,18,18,19,19,20,20,21,21,22,22,23,23,24,24,25,25,26,26,27,27,28,28,29,29,30,30,33,33,34,34,35,35,36,36,37,37,38,38,39,39,40,40,41,41,42,42,43,43,44,44,45,45,46,46,47,47,48,48,50,50,51,51,52,52,53,53,54,54,55,55,56,56,57,57,58,58,60,60,61,61,62,62],"right_children":[2,4,6,8,10,12,14,16,18,20,22,24,26,28,30,32,34,36,38,40,42,44,46,48,50,52,54,56,58,60,62,-1,-1,64,66,68,70,72,74,76,78,80,82,84,86,88,90,92,94,-1,96,98,100,102,104,106,108,110,112,-1,114,116,118,-1,-1,-1,-1,-1,-1,-1,-1,-1,-1,-1,-1,-1,-1,-1,-1,-1,-1,-1,-1,-1,-1,-1,-1,-1,-1,-1,-1,-1,-1,-1,-1,-1,-1,-1,-1,-1,-1,-1,-1,-1,-1,-1,-1,-1,-1,-1,-1,-1,-1,-1,-1,-1,-1,-1,-1],"split_conditions":[1.2163791E-1,3.6308914E-1,-3.0716744E-1,-2.1979125E-2,-6.7363995E-1,-3.0048313E0,9.739263E-1,-2.1523285E0,6.944723E-1,-1.8588469E0,-5.910883E-1,6.413036E-1,-8.677672E-1,-8.555248E-1,-6.882165E-1,-2.0486732E0,-1.6783751E0,-5.129647E-1,1.1835905E0,1.5258147E0,1.2690637E0,4.478023E-2,2.5881166E0,-3.3706012E0,-2.229267E0,-1.2977717E0,4.3253556E-1,1.2932606E0,-5.6203187E-1,-4.829161E-1,4.9700105E-1,-7.078395E-2,-1.1758351E-1,-6.975817E-1,4.397265E-1,-3.0511218E-1,1.4182433E-2,5.810379E-1,1.6737051E-1,-1.8963968E0,9.551814E-2,-1.4051087E0,-4.0758485E-1,7.724332E-1,6.6142607E-1,5.767472E-1,-5.7543683E-1,1.1679783E0,2.0245438E0,8.966198E-2,-1.0008825E0,5.730727E-1,-1.12974264E-1,-6.6038084E-1,5.833769E-1,-9.8559844E-1,-1.2977717E0,1.3932185E0,5.7656873E-2,-1.5592152E-1,2.4485254E-1,1.6270523E0,-1.2433935E0,9.191368E-2,7.5801134E-2,5.8490213E-2,7.8508794E-2,1.3845724E-2,5.586161E-2,3.0311791E-2,8.511694E-3,7.7377367E-3,5.0368942E-2,-3.5258427E-2,-1.3737614E-2,-2.178059E-1,-1.19732894E-1,-4.8434127E-2,-1.02935195E-1,5.1063164E-3,-4.994914E-2,-6.0390025E-2,2.2344248E-2,9.091373E-3,-2.5848461E-2,4.8367787E-2,1.552722E-2,-3.71883E-3,-3.2903817E-2,1.0160732E-2,5.7194095E-2,-2.3053566E-1,-4.7809845E-1,-2.0422891E-1,-1.2041656E-1,-3.9447445E-2,-8.35933E-2,1.0355585E-1,4.295009E-2,7.4440786E-3,-4.963921E-2,-6.603229E-2,3.54893E-3,-9.9062E-2,-5.1010747E-2,4.6413418E-2,2.442384E-2,6.0567033E-2,1.9856335E-3,-2.8177207E-2,8.094992E-2,-1.0537188E-2,1.16211735E-2,-1.00670055E-1,-6.958719E-2,-4.65412E-2,-9.941683E-2,-6.2661685E-2,-2.4331452E-2],"split_indices":[1,5,3,0,7,7,5,7,0,7,1,1,5,5,6,0,5,5,0,8,5,7,5,7,5,5,1,6,6,7,1,0,0,0,3,6,5,6,6,0,1,0,6,5,5,5,7,5,5,0,5,1,6,7,1,5,5,3,8,0,3,5,8,0,0,0,0,0,0,0,0,0,0,0,0,0,0,0,0,0,0,0,0,0,0,0,0,0,0,0,0,0,0,0,0,0,0,0,0,0,0,0,0,0,0,0,0,0,0,0,0,0,0,0,0,0,0,0,0],"split_type":[0,0,0,0,0,0,0,0,0,0,0,0,0,0,0,0,0,0,0,0,0,0,0,0,0,0,0,0,0,0,0,0,0,0,0,0,0,0,0,0,0,0,0,0,0,0,0,0,0,0,0,0,0,0,0,0,0,0,0,0,0,0,0,0,0,0,0,0,0,0,0,0,0,0,0,0,0,0,0,0,0,0,0,0,0,0,0,0,0,0,0,0,0,0,0,0,0,0,0,0,0,0,0,0,0,0,0,0,0,0,0,0,0,0,0,0,0,0,0],"sum_hessian":[4.0975E4,1.6022E4,2.4953E4,1.3041E4,2.981E3,6.507E3,1.8446E4,7.523E3,5.518E3,1.206E3,1.775E3,3.04E2,6.203E3,1.6455E4,1.991E3,3.1E1,7.492E3,2.704E3,2.814E3,2.61E2,9.45E2,1.204E3,5.71E2,2.28E2,7.6E1,5.03E2,5.7E3,2E3,1.4455E4,2.72E2,1.719E3,2.4E1,7E0,2.107E3,5.385E3,7.54E2,1.95E3,2.376E3,4.38E2,7.6E1,1.85E2,4.11E2,5.34E2,5.89E2,6.15E2,5.38E2,3.3E1,1.22E2,1.06E2,4E0,7.2E1,2.13E2,2.9E2,1.538E3,4.162E3,1.67E3,3.3E2,3.573E3,1.0882E4,8E1,1.92E2,7.69E2,9.5E2,1.045E3,1.062E3,3.515E3,1.87E3,3.3E1,7.21E2,1.548E3,4.02E2,2.241E3,1.35E2,5E1,3.88E2,9E0,6.7E1,8.6E1,9.9E1,2.17E2,1.94E2,5.16E2,1.8E1,4.03E2,1.86E2,2.38E2,3.77E2,2.21E2,3.17E2,3E0,3E1,6.7E1,5.5E1,8.7E1,1.9E1,4E1,3.2E1,1.6E1,1.97E2,2.58E2,3.2E1,6.4E2,8.98E2,2.335E3,1.827E3,9.84E2,6.86E2,3.6E1,2.94E2,3.51E3,6.3E1,6.952E3,3.93E3,1.47E2,4.5E1,6.6E2,1.09E2,2.36E2,7.14E2],"tree_param":{"num_deleted":"0","num_feature":"9","num_nodes":"119","size_leaf_vector":"1"}},{"base_weights":[-1.4954058E-3,2.8788033E-1,-9.959537E-1,1.2157102E0,4.9730826E-2,-7.1679373E0,-9.3570596E-1,8.2237184E-1,1.4691968E0,-5.82665E-1,3.416819E-1,-6.3489723E-1,-5.485536E0,-1.7813255E0,-6.473654E-1,-3.7530913E0,8.4740514E-1,1.648273E0,1.3510033E0,-1.2022519E0,-4.0791062E-1,-2.0810328E0,3.7237233E-1,-3.050103E-1,-1.6051887E-1,-1.3691441E0,-2.1563895E0,-1.9857559E0,-5.559957E-1,-9.140717E-2,-2.1701281E-1,1.1088146E0,4.539343E-1,1.4987059E0,1.7701648E0,-6.5508187E-1,1.3580573E0,-1.5406924E0,-8.429359E-1,5.116779E-1,-4.91262E-1,-1.402969E0,-2.8984206E0,1.1373507E0,2.6013052E-1,-1.2633525E0,-3.9624114E0,-1.2881528E0,-2.718521E0,-5.152692E-1,-2.3258824E0,2.4528181E-2,-6.9607633E-1,4.890178E-2,7.031324E-2,-1.814881E-2,2.6469707E-2,3.758828E-2,7.6136164E-2,8.887388E-2,5.24082E-2,-4.4858363E-2,-6.4091682E-3,6.274413E-2,7.197202E-2,-4.4070993E-2,-1.0244926E-1,-2.51616E-2,-1.0200322E-1,5.3599197E-2,-3.6350917E-3,-3.5856284E-2,-5.83497E-3,-1.1408126E-1,-6.5117456E-2,-1.673228E-1,-9.640479E-2,3.5000067E-2,7.0655815E-2,2.0362442E-2,-6.6409255E-3,-7.522077E-2,-5.2079584E-2,-2.0857866E-1,-4.4009592E-2,-8.1967436E-2,-3.863525E-2,-9.715213E-2,-1.810473E-1,-1.5500334E-2,-5.351576E-2,-1.3158257E-1,-3.014937E-3,-7.26856E-2,5.307169E-3,-6.41913E-2,-2.5834749E-2],"categories":[],"categories_nodes":[],"categories_segments":[],"categories_sizes":[],"default_left":[0,0,0,0,0,0,0,0,0,0,0,0,0,0,0,0,0,0,0,0,0,0,0,0,0,0,0,0,0,0,0,0,0,0,0,0,0,0,0,0,0,0,0,0,0,0,0,0,0,0,0,0,0,0,0,0,0,0,0,0,0,0,0,0,0,0,0,0,0,0,0,0,0,0,0,0,0,0,0,0,0,0,0,0,0,0,0,0,0,0,0,0,0,0,0,0,0],"id":9,"left_children":[1,3,5,7,9,11,13,15,17,19,21,-1,23,25,27,29,31,33,35,37,39,41,43,-1,-1,45,47,49,51,-1,-1,53,55,57,59,61,63,65,67,69,71,73,75,77,79,81,83,85,87,89,91,93,95,-1,-1,-1,-1,-1,-1,-1,-1,-1,-1,-1,-1,-1,-1,-1,-1,-1,-1,-1,-1,-1,-1,-1,-1,-1,-1,-1,-1,-1,-1,-1,-1,-1,-1,-1,-1,-1,-1,-1,-1,-1,-1,-1,-1],"loss_changes":[1.1773906E4,7.0026733E3,3.4224736E3,6.4418945E2,4.656533E3,7.5837354E2,2.2259575E3,2.9399487E2,8.105957E1,8.620327E2,1.2837554E3,0E0,7.830908E1,3.5601562E2,8.3204614E2,7.8890533E0,2.5931323E2,2.5787598E1,3.4512207E1,2.1175684E2,4.7662476E2,1.1564972E2,1.462802E3,0E0,0E0,2.9924365E2,5.890073E2,2.1636743E2,5.187583E2,0E0,0E0,5.763623E1,6.245256E1,1.1538574E1,2.645752E0,1.0329876E0,1.807666E1,3.001223E2,3.454555E2,1.6936002E2,4.8205225E2,7.6377716E0,3.571747E1,2.6193164E2,8.591684E2,5.5473022E1,2.404956E1,8.54433E1,5.080249E2,9.124397E0,2.443805E2,1.4987704E2,5.4114795E2,0E0,0E0,0E0,0E0,0E0,0E0,0E0,0E0,0E0,0E0,0E0,0E0,0E0,0E0,0E0,0E0,0E0,0E0,0E0,0E0,0E0,0E0,0E0,0E0,0E0,0E0,0E0,0E0,0E0,0E0,0E0,0E0,0E0,0E0,0E0,0E0,0E0,0E0,0E0,0E0,0E0,0E0,0E0,0E0],"parents":[2147483647,0,0,1,1,2,2,3,3,4,4,5,5,6,6,7,7,8,8,9,9,10,10,12,12,13,13,14,14,15,15,16,16,17,17,18,18,19,19,20,20,21,21,22,22,25,25,26,26,27,27,28,28,31,31,32,32,33,33,34,34,35,35,36,36,37,37,38,38,39,39,40,40,41,41,42,42,43,43,44,44,45,45,46,46,47,47,48,48,49,49,50,50,51,51,52,52],"right_children":[2,4,6,8,10,12,14,16,18,20,22,-1,24,26,28,30,32,34,36,38,40,42,44,-1,-1,46,48,50,52,-1,-1,54,56,58,60,62,64,66,68,70,72,74,76,78,80,82,84,86,88,90,92,94,96,-1,-1,-1,-1,-1,-1,-1,-1,-1,-1,-1,-1,-1,-1,-1,-1,-1,-1,-1,-1,-1,-1,-1,-1,-1,-1,-1,-1,-1,-1,-1,-1,-1,-1,-1,-1,-1,-1,-1,-1,-1,-1,-1,-1],"split_conditions":[6.067864E-1,-1.0657351E0,-3.3706012E0,-1.0143103E-1,-5.179365E-1,-1.2330561E0,-1.1089684E0,-4.016398E0,-6.508271E-1,-1.3391503E0,-1.9354556E0,-6.3489723E-1,-3.7988374E0,-3.1434706E-1,-1.5568038E0,-1.5707762E0,-1.3296247E0,1.504176E0,-2.2635322E0,1.2634301E-1,-8.127642E-1,-5.0042003E-1,-7.643778E-1,-3.050103E-1,-1.6051887E-1,1.4043478E0,1.2690637E0,-1.182261E0,-1.0175306E0,-9.140717E-2,-2.1701281E-1,6.299974E-1,-1.9354556E0,4.534814E-2,5.786855E-1,-8.793612E-2,1.4595747E0,-1.7399397E-1,2.7250925E-1,-1.2515232E-1,5.3308576E-1,-3.5474312E0,-1.6891996E0,4.2164338E-1,1.1965144E0,-1.7178274E0,-3.0048313E0,-1.6130898E0,-2.0173786E0,1.978751E0,6.329164E-1,-8.468931E-1,2.2232816E-1,4.890178E-2,7.031324E-2,-1.814881E-2,2.6469707E-2,3.758828E-2,7.6136164E-2,8.887388E-2,5.24082E-2,-4.4858363E-2,-6.4091682E-3,6.274413E-2,7.197202E-2,-4.4070993E-2,-1.0244926E-1,-2.51616E-2,-1.0200322E-1,5.3599197E-2,-3.6350917E-3,-3.5856284E-2,-5.83497E-3,-1.1408126E-1,-6.5117456E-2,-1.673228E-1,-9.640479E-2,3.5000067E-2,7.0655815E-2,2.0362442E-2,-6.6409255E-3,-7.522077E-2,-5.2079584E-2,-2.0857866E-1,-4.4009592E-2,-8.1967436E-2,-3.863525E-2,-9.715213E-2,-1.810473E-1,-1.5500334E-2,-5.351576E-2,-1.3158257E-1,-3.014937E-3,-7.26856E-2,5.307169E-3,-6.41913E-2,-2.5834749E-2],"split_indices":[5,5,7,2,2,2,7,3,0,2,7,0,3,0,2,0,5,2,3,0,4,5,0,0,0,4,5,3,0,0,0,3,7,3,3,0,2,0,8,0,0,3,0,3,0,7,7,2,3,5,0,2,3,0,0,0,0,0,0,0,0,0,0,0,0,0,0,0,0,0,0,0,0,0,0,0,0,0,0,0,0,0,0,0,0,0,0,0,0,0,0,0,0,0,0,0,0],"split_type":[0,0,0,0,0,0,0,0,0,0,0,0,0,0,0,0,0,0,0,0,0,0,0,0,0,0,0,0,0,0,0,0,0,0,0,0,0,0,0,0,0,0,0,0,0,0,0,0,0,0,0,0,0,0,0,0,0,0,0,0,0,0,0,0,0,0,0,0,0,0,0,0,0,0,0,0,0,0,0,0,0,0,0,0,0,0,0,0,0,0,0,0,0,0,0,0,0],"sum_hessian":[4.0912E4,3.1691E4,9.221E3,6.472E3,2.5219E4,8.8E1,9.133E3,2.538E3,3.934E3,7.965E3,1.7254E4,1.9E1,6.9E1,2.321E3,6.812E3,1.3E1,2.525E3,1.559E3,2.375E3,1.751E3,6.214E3,2.15E2,1.7039E4,5.3E1,1.6E1,1.108E3,1.213E3,4.34E2,6.378E3,4E0,9E0,1.516E3,1.009E3,7.06E2,8.53E2,8E0,2.367E3,9E2,8.51E2,5.16E2,5.698E3,1.19E2,9.6E1,2.179E3,1.486E4,1.066E3,4.2E1,4.78E2,7.35E2,8.2E1,3.52E2,1.24E3,5.138E3,1.056E3,4.6E2,8.5E1,9.24E2,2.3E1,6.83E2,8.43E2,1E1,5E0,3E0,1.051E3,1.316E3,3.93E2,5.07E2,6.64E2,1.87E2,2.63E2,2.53E2,3.554E3,2.144E3,1E1,1.09E2,6.4E1,3.2E1,8.44E2,1.335E3,1.0812E4,4.048E3,5.08E2,5.58E2,3.9E1,3E0,2.83E2,1.95E2,3.97E2,3.38E2,6.1E1,2.1E1,3.1E2,4.2E1,6.4E1,1.176E3,1.2E3,3.938E3],"tree_param":{"num_deleted":"0","num_feature":"9","num_nodes":"97","size_leaf_vector":"1"}},{"base_weights":[-2.0925656E-3,5.645295E-1,-4.938489E-1,-1.6708533E0,6.642606E-1,-1.1984967E0,-1.9032064E-1,-1.0746222E0,-3.8542845E0,5.169214E-1,1.4578617E0,-5.573009E0,-1.1241907E0,-5.126703E-1,4.0306024E-2,-1.431491E0,-2.765787E-1,-3.6435935E0,-3.6560544E-1,4.3572435E-1,1.2450935E0,1.4734411E0,-2.267788E-1,-6.281608E-1,-4.2495356E0,-7.975111E-1,-1.8306524E0,-8.052482E-1,-8.757915E-2,2.7091578E-1,-2.2362922E-1,-1.8108667E0,-1.0926679E0,-4.2248055E-1,2.321184E-1,-3.9204593E0,-1.3367276E-1,-1.2361517E-1,5.1796037E-1,1.4884721E0,6.4232624E-1,1.5748789E0,1.3731728E0,-3.3291534E-1,3.6664262E-2,-5.7231193E0,-3.0520086E0,-1.2753916E0,-2.770171E-1,-3.5208607E0,-1.440676E0,-4.695179E-1,-1.1221144E0,3.4803748E-1,-5.4645115E-1,4.5011207E-1,2.2593444E-2,-1.6694508E-1,-1.5803334E0,-1.3920704E-1,-7.201892E-2,-2.7944049E-2,-9.003061E-2,-2.660091E-2,5.825672E-3,4.898747E-2,-2.025882E-2,-2.2789016E-1,-1.8192215E-1,-1.4785111E-2,3.323471E-2,3.483274E-2,5.5572153E-3,9.736986E-2,6.476417E-2,1.1236187E-2,5.2666634E-2,6.84878E-2,8.529534E-2,3.396099E-2,6.892851E-2,-2.042842E-2,-8.928947E-3,-3.173785E-1,-2.1753465E-1,-1.2259244E-1,-2.1620737E-1,-7.202406E-2,3.513314E-2,-1.8983139E-3,-4.1128494E-2,-1.65845E-1,-2.172176E-1,-7.082794E-2,-3.4822237E-1,-1.9108407E-2,-4.392905E-2,-1.06256604E-1,-5.1279087E-2,3.159688E-2,9.9334655E-5,-4.3307837E-2,-1.7522525E-2,1.5859691E-2,3.8073845E-2,-1.5694086E-2,2.3770405E-2,-2.669385E-2,2.410955E-3,-9.137277E-2,-5.822136E-2],"categories":[],"categories_nodes":[],"categories_segments":[],"categories_sizes":[],"default_left":[0,0,0,0,0,0,0,0,0,0,0,0,0,0,0,0,0,0,0,0,0,0,0,0,0,0,0,0,0,0,0,0,0,0,0,0,0,0,0,0,0,0,0,0,0,0,0,0,0,0,0,0,0,0,0,0,0,0,0,0,0,0,0,0,0,0,0,0,0,0,0,0,0,0,0,0,0,0,0,0,0,0,0,0,0,0,0,0,0,0,0,0,0,0,0,0,0,0,0,0,0,0,0,0,0,0,0,0,0,0,0],"id":10,"left_children":[1,3,5,7,9,11,13,15,17,19,21,23,25,27,29,31,33,35,-1,37,39,41,43,-1,45,47,49,51,53,55,57,59,61,63,65,67,-1,69,71,73,75,77,79,81,-1,83,85,87,89,91,93,95,97,99,101,103,105,107,109,-1,-1,-1,-1,-1,-1,-1,-1,-1,-1,-1,-1,-1,-1,-1,-1,-1,-1,-1,-1,-1,-1,-1,-1,-1,-1,-1,-1,-1,-1,-1,-1,-1,-1,-1,-1,-1,-1,-1,-1,-1,-1,-1,-1,-1,-1,-1,-1,-1,-1,-1,-1],"loss_changes":[1.14117E4,4.2433823E3,4.689316E3,1.0542451E3,2.129335E3,2.1394082E3,1.1393927E3,1.8187408E2,1.00122314E2,9.079785E2,7.518701E1,9.64261E2,1.4968066E3,7.94917E2,5.438986E2,5.483661E1,1.4867816E1,3.41062E1,0E0,6.360305E2,2.2510938E2,2.6581055E1,2.995365E0,0E0,1.4841064E2,1.1042742E3,1.3474854E3,4.0223364E2,5.213094E2,2.1220291E2,3.2019348E2,7.0631165E1,8.8175995E1,9.213207E0,2.183773E1,6.2438965E0,0E0,2.4071791E2,8.7619727E2,9.473682E1,7.614189E1,3.523706E1,4.4160156E0,2.1893859E-1,0E0,7.521118E0,3.062613E1,7.56989E2,2.7736115E2,5.0086426E1,2.1247607E2,6.541028E1,1.8633691E2,1.3144905E2,7.927783E1,1.1439789E2,3.0487097E2,3.1590714E2,1.5036255E1,0E0,0E0,0E0,0E0,0E0,0E0,0E0,0E0,0E0,0E0,0E0,0E0,0E0,0E0,0E0,0E0,0E0,0E0,0E0,0E0,0E0,0E0,0E0,0E0,0E0,0E0,0E0,0E0,0E0,0E0,0E0,0E0,0E0,0E0,0E0,0E0,0E0,0E0,0E0,0E0,0E0,0E0,0E0,0E0,0E0,0E0,0E0,0E0,0E0,0E0,0E0,0E0],"parents":[2147483647,0,0,1,1,2,2,3,3,4,4,5,5,6,6,7,7,8,8,9,9,10,10,11,11,12,12,13,13,14,14,15,15,16,16,17,17,19,19,20,20,21,21,22,22,24,24,25,25,26,26,27,27,28,28,29,29,30,30,31,31,32,32,33,33,34,34,35,35,37,37,38,38,39,39,40,40,41,41,42,42,43,43,45,45,46,46,47,47,48,48,49,49,50,50,51,51,52,52,53,53,54,54,55,55,56,56,57,57,58,58],"right_children":[2,4,6,8,10,12,14,16,18,20,22,24,26,28,30,32,34,36,-1,38,40,42,44,-1,46,48,50,52,54,56,58,60,62,64,66,68,-1,70,72,74,76,78,80,82,-1,84,86,88,90,92,94,96,98,100,102,104,106,108,110,-1,-1,-1,-1,-1,-1,-1,-1,-1,-1,-1,-1,-1,-1,-1,-1,-1,-1,-1,-1,-1,-1,-1,-1,-1,-1,-1,-1,-1,-1,-1,-1,-1,-1,-1,-1,-1,-1,-1,-1,-1,-1,-1,-1,-1,-1,-1,-1,-1,-1,-1,-1],"split_conditions":[2.2652707E-1,-1.6750278E0,-6.584917E-2,1.146783E-1,1.4595747E0,-4.016398E0,-4.6951094E-1,-7.3859704E-1,2.1574481E-1,7.903986E-1,2.0523284E-1,-1.4235803E0,1.2154723E0,5.782282E-1,4.3262535E-1,1.5258147E0,-9.2224E-1,-2.735417E0,-3.6560544E-1,-1.0771179E0,-1.0665556E-1,-7.1074575E-1,9.518763E-1,-6.281608E-1,-8.1512636E-1,5.530227E-1,1.2870898E0,4.104232E-1,1.1031075E0,8.1989807E-1,1.2632173E0,-1.9354556E0,9.551814E-2,-1.8588469E0,-7.890142E-1,-8.631108E-1,-1.3367276E-1,-2.4203876E-1,4.532542E-1,-7.585914E-1,3.2565826E-1,1.504176E0,-8.0043775E-1,8.0738235E-1,3.6664262E-2,6.2759995E-1,1.0283594E0,5.91378E-1,9.659554E-1,-1.5143977E-1,1.9090813E0,6.305965E-1,-1.4035953E0,7.0208184E-2,-6.9823396E-1,6.305965E-1,-1.139116E-1,-6.614335E-1,2.4485254E-1,-1.3920704E-1,-7.201892E-2,-2.7944049E-2,-9.003061E-2,-2.660091E-2,5.825672E-3,4.898747E-2,-2.025882E-2,-2.2789016E-1,-1.8192215E-1,-1.4785111E-2,3.323471E-2,3.483274E-2,5.5572153E-3,9.736986E-2,6.476417E-2,1.1236187E-2,5.2666634E-2,6.84878E-2,8.529534E-2,3.396099E-2,6.892851E-2,-2.042842E-2,-8.928947E-3,-3.173785E-1,-2.1753465E-1,-1.2259244E-1,-2.1620737E-1,-7.202406E-2,3.513314E-2,-1.8983139E-3,-4.1128494E-2,-1.65845E-1,-2.172176E-1,-7.082794E-2,-3.4822237E-1,-1.9108407E-2,-4.392905E-2,-1.06256604E-1,-5.1279087E-2,3.159688E-2,9.9334655E-5,-4.3307837E-2,-1.7522525E-2,1.5859691E-2,3.8073845E-2,-1.5694086E-2,2.3770405E-2,-2.669385E-2,2.410955E-3,-9.137277E-2,-5.822136E-2],"split_indices":[1,7,3,1,2,3,2,0,1,3,0,2,8,1,2,8,2,7,0,3,0,0,0,0,2,1,8,1,0,7,8,7,1,7,1,2,0,7,0,0,4,2,7,0,0,1,4,0,0,2,4,8,2,7,4,8,2,4,3,0,0,0,0,0,0,0,0,0,0,0,0,0,0,0,0,0,0,0,0,0,0,0,0,0,0,0,0,0,0,0,0,0,0,0,0,0,0,0,0,0,0,0,0,0,0,0,0,0,0,0,0],"split_type":[0,0,0,0,0,0,0,0,0,0,0,0,0,0,0,0,0,0,0,0,0,0,0,0,0,0,0,0,0,0,0,0,0,0,0,0,0,0,0,0,0,0,0,0,0,0,0,0,0,0,0,0,0,0,0,0,0,0,0,0,0,0,0,0,0,0,0,0,0,0,0,0,0,0,0,0,0,0,0,0,0,0,0,0,0,0,0,0,0,0,0,0,0,0,0,0,0,0,0,0,0,0,0,0,0,0,0,0,0,0,0],"sum_hessian":[4.0953E4,1.9028E4,2.1925E4,8.12E2,1.8216E4,6.6E3,1.5325E4,6.39E2,1.73E2,1.5365E4,2.851E3,1.09E2,6.491E3,6.391E3,8.934E3,4.41E2,1.98E2,1.65E2,8E0,1.3825E4,1.54E3,2.825E3,2.6E1,1.6E1,9.3E1,4.44E3,2.051E3,3.785E3,2.606E3,4.768E3,4.166E3,2.06E2,2.35E2,1.54E2,4.4E1,1.26E2,3.9E1,1.772E3,1.2053E4,1.096E3,4.44E2,1.397E3,1.428E3,2.4E1,2E0,4E1,5.3E1,2.314E3,2.126E3,3.83E2,1.668E3,1.839E3,1.946E3,1.337E3,1.269E3,2.769E3,1.999E3,4E3,1.66E2,5.5E1,1.51E2,1.35E2,1E2,1.28E2,2.6E1,2E1,2.4E1,3.4E1,9.2E1,1.455E3,3.17E2,8.374E3,3.679E3,3.22E2,7.74E2,2.21E2,2.23E2,5.49E2,8.48E2,1.2E1,1.416E3,1.5E1,9E0,2.5E1,1.5E1,3.8E1,1.5E1,2.136E3,1.78E2,1.479E3,6.47E2,3.11E2,7.2E1,1.662E3,6E0,1.517E3,3.22E2,1.69E2,1.777E3,7.34E2,6.03E2,4.81E2,7.88E2,1.942E3,8.27E2,1.147E3,8.52E2,1.478E3,2.522E3,1.02E2,6.4E1],"tree_param":{"num_deleted":"0","num_feature":"9","num_nodes":"111","size_leaf_vector":"1"}},{"base_weights":[-3.4791122E-3,6.256249E-1,-4.068716E-1,8.751041E-1,-2.5988096E-1,-1.0784355E0,-1.4478697E-1,1.2569618E0,3.5717866E-1,-1.1367629E0,-2.8862333E-2,-9.7839946E-1,-4.4429436E0,-5.0240463E-1,7.126729E-2,3.6777281E-3,1.285278E0,6.319876E-1,1.10789105E-1,-8.9311326E-1,-1.9991825E0,4.0859482E-1,-1.8370979E-1,3.6885176E-2,-1.1457278E0,-3.6408482E0,-5.572337E-1,-7.3683405E-1,-1.2710525E-1,2.0794716E-1,-6.203508E-1,-1.5481747E0,3.6176926E-1,1.5248538E0,1.1512177E0,9.652111E-1,4.830711E-1,1.7604816E-1,-3.1510514E-1,-1.2986751E0,-4.8442864E-1,-1.8485389E0,-1.5424486E-1,9.923147E-1,8.116976E-3,-5.822784E-2,-9.925143E-1,-3.1115026E0,1.4541052E-1,-1.3039725E-1,-1.3319416E0,-2.770541E-1,-3.097142E0,-3.8654593E-1,-1.105513E0,2.767506E-1,-5.445029E-1,3.8334963E-1,-4.7727313E-2,-1.9976289E0,-4.4907463E-1,-1.0581968E-1,-6.0193587E-2,3.8791943E-2,7.4098236E-3,7.332588E-2,9.436137E-2,6.1296742E-2,3.454345E-2,1.3597866E-2,4.99444E-2,2.0696923E-2,3.601134E-2,-2.5605967E-2,1.0741085E-2,-1.1695381E-2,-3.2987643E-2,-1.3888705E-3,-6.996415E-2,-4.2281505E-3,-4.4751912E-2,-1.2159645E-1,-8.184797E-2,3.3580806E-2,6.712883E-2,-6.910983E-2,5.7788664E-3,4.169817E-3,-2.546753E-2,-3.61439E-2,-7.6488465E-2,-1.819283E-1,-1.0869759E-1,4.2600054E-2,-4.9084867E-3,-2.2135185E-2,2.0874437E-2,-5.0732654E-2,-9.1419876E-2,-1.63106E-1,1.0543324E-1,2.9213253E-2,-2.4219105E-2,-1.0495203E-1,-4.993162E-2,2.6316075E-2,-1.8624036E-2,5.4299673E-3,-3.21608E-2,3.1659827E-2,1.1555004E-2,2.1447597E-2,-6.054078E-3,-1.4602482E-1,-8.38475E-2,-3.167749E-2,8.6471625E-3],"categories":[],"categories_nodes":[],"categories_segments":[],"categories_sizes":[],"default_left":[0,0,0,0,0,0,0,0,0,0,0,0,0,0,0,0,0,0,0,0,0,0,0,0,0,0,0,0,0,0,0,0,0,0,0,0,0,0,0,0,0,0,0,0,0,0,0,0,0,0,0,0,0,0,0,0,0,0,0,0,0,0,0,0,0,0,0,0,0,0,0,0,0,0,0,0,0,0,0,0,0,0,0,0,0,0,0,0,0,0,0,0,0,0,0,0,0,0,0,0,0,0,0,0,0,0,0,0,0,0,0,0,0,0,0,0,0],"id":11,"left_children":[1,3,5,7,9,11,13,15,17,19,21,23,25,27,29,31,33,35,37,39,41,43,45,47,49,51,-1,53,55,57,59,61,63,65,67,69,71,73,75,77,79,81,-1,83,85,87,89,91,93,95,97,-1,99,101,103,105,107,109,111,113,115,-1,-1,-1,-1,-1,-1,-1,-1,-1,-1,-1,-1,-1,-1,-1,-1,-1,-1,-1,-1,-1,-1,-1,-1,-1,-1,-1,-1,-1,-1,-1,-1,-1,-1,-1,-1,-1,-1,-1,-1,-1,-1,-1,-1,-1,-1,-1,-1,-1,-1,-1,-1,-1,-1,-1,-1],"loss_changes":[1.03433955E4,3.5180835E3,4.3707915E3,2.4566924E3,7.09186E2,2.3418984E3,1.3802944E3,2.5377148E2,3.570327E2,1.5160803E2,1.8784792E2,1.1503398E3,1.0398853E3,5.918439E2,1.0529126E3,8.891721E1,2.2284277E2,1.2324243E2,7.737686E1,9.401233E1,2.046637E1,1.6947289E2,2.0779446E2,3.281234E2,1.0988818E3,1.6984204E2,0E0,5.343574E2,4.364059E2,4.170854E2,4.3267773E2,3.321312E0,1.1381445E1,5.0208008E1,1.5352197E2,1.7682007E1,2.7983582E1,6.449536E1,1.0199955E1,3.6529724E1,4.6882263E1,1.3669983E1,0E0,3.22352E1,6.455269E1,1.1338313E2,3.873163E1,7.90271E0,1.5980312E2,1.5452452E2,7.7188184E2,0E0,1.29693E2,2.0211642E2,2.1208667E2,2.1342647E2,8.213983E1,2.0967719E2,1.3239995E2,5.51792E1,1.8783542E2,0E0,0E0,0E0,0E0,0E0,0E0,0E0,0E0,0E0,0E0,0E0,0E0,0E0,0E0,0E0,0E0,0E0,0E0,0E0,0E0,0E0,0E0,0E0,0E0,0E0,0E0,0E0,0E0,0E0,0E0,0E0,0E0,0E0,0E0,0E0,0E0,0E0,0E0,0E0,0E0,0E0,0E0,0E0,0E0,0E0,0E0,0E0,0E0,0E0,0E0,0E0,0E0,0E0,0E0,0E0,0E0],"parents":[2147483647,0,0,1,1,2,2,3,3,4,4,5,5,6,6,7,7,8,8,9,9,10,10,11,11,12,12,13,13,14,14,15,15,16,16,17,17,18,18,19,19,20,20,21,21,22,22,23,23,24,24,25,25,27,27,28,28,29,29,30,30,31,31,32,32,33,33,34,34,35,35,36,36,37,37,38,38,39,39,40,40,41,41,43,43,44,44,45,45,46,46,47,47,48,48,49,49,50,50,52,52,53,53,54,54,55,55,56,56,57,57,58,58,59,59,60,60],"right_children":[2,4,6,8,10,12,14,16,18,20,22,24,26,28,30,32,34,36,38,40,42,44,46,48,50,52,-1,54,56,58,60,62,64,66,68,70,72,74,76,78,80,82,-1,84,86,88,90,92,94,96,98,-1,100,102,104,106,108,110,112,114,116,-1,-1,-1,-1,-1,-1,-1,-1,-1,-1,-1,-1,-1,-1,-1,-1,-1,-1,-1,-1,-1,-1,-1,-1,-1,-1,-1,-1,-1,-1,-1,-1,-1,-1,-1,-1,-1,-1,-1,-1,-1,-1,-1,-1,-1,-1,-1,-1,-1,-1,-1,-1,-1,-1,-1,-1],"split_conditions":[1.2163791E-1,1.8206194E-1,-2.0651786E-1,-5.60123E-2,-1.1737896E0,3.3998048E0,-5.179365E-1,-1.0807254E0,6.944723E-1,1.5871074E0,-1.1235751E0,-7.8924E-1,1.2690637E0,5.833769E-1,5.767472E-1,-2.4274592E0,-7.439104E-1,-5.1802087E-1,1.2065705E0,-1.7178274E0,-1.182261E0,4.6348912E-1,1.1679783E0,-3.5474312E0,3.095571E-1,-3.7988374E0,-5.572337E-1,4.104232E-1,1.1031075E0,1.1502538E0,2.342377E-1,1.255575E-1,-6.253437E-1,7.291E-1,-5.3715575E-1,-1.0457923E0,-3.3167284E-2,-1.0938123E0,-2.3115737E-2,4.6600336E-1,1.305274E0,-1.9354556E0,-1.5424486E-1,-1.8106797E-1,-2.1224601E0,4.763462E-1,-3.7323222E0,-6.0972476E-1,-1.3296247E0,-2.735112E-1,1.2154723E0,-2.770541E-1,2.9984376E-1,-1.1325562E0,-1.4235803E0,9.739263E-1,-7.686047E-2,3.311152E-1,-7.1821445E-1,3.7625125E-1,5.4461396E-1,-1.0581968E-1,-6.0193587E-2,3.8791943E-2,7.4098236E-3,7.332588E-2,9.436137E-2,6.1296742E-2,3.454345E-2,1.3597866E-2,4.99444E-2,2.0696923E-2,3.601134E-2,-2.5605967E-2,1.0741085E-2,-1.1695381E-2,-3.2987643E-2,-1.3888705E-3,-6.996415E-2,-4.2281505E-3,-4.4751912E-2,-1.2159645E-1,-8.184797E-2,3.3580806E-2,6.712883E-2,-6.910983E-2,5.7788664E-3,4.169817E-3,-2.546753E-2,-3.61439E-2,-7.6488465E-2,-1.819283E-1,-1.0869759E-1,4.2600054E-2,-4.9084867E-3,-2.2135185E-2,2.0874437E-2,-5.0732654E-2,-9.1419876E-2,-1.63106E-1,1.0543324E-1,2.9213253E-2,-2.4219105E-2,-1.0495203E-1,-4.993162E-2,2.6316075E-2,-1.8624036E-2,5.4299673E-3,-3.21608E-2,3.1659827E-2,1.1555004E-2,2.1447597E-2,-6.054078E-3,-1.4602482E-1,-8.38475E-2,-3.167749E-2,8.6471625E-3],"split_indices":[1,5,3,0,7,8,2,7,0,5,0,5,5,1,5,3,0,5,0,7,3,8,5,3,1,3,0,1,0,0,3,2,5,3,5,3,1,2,5,5,5,7,0,8,0,0,1,2,5,7,8,0,1,5,2,5,5,1,5,2,1,0,0,0,0,0,0,0,0,0,0,0,0,0,0,0,0,0,0,0,0,0,0,0,0,0,0,0,0,0,0,0,0,0,0,0,0,0,0,0,0,0,0,0,0,0,0,0,0,0,0,0,0,0,0,0,0],"split_type":[0,0,0,0,0,0,0,0,0,0,0,0,0,0,0,0,0,0,0,0,0,0,0,0,0,0,0,0,0,0,0,0,0,0,0,0,0,0,0,0,0,0,0,0,0,0,0,0,0,0,0,0,0,0,0,0,0,0,0,0,0,0,0,0,0,0,0,0,0,0,0,0,0,0,0,0,0,0,0,0,0,0,0,0,0,0,0,0,0,0,0,0,0,0,0,0,0,0,0,0,0,0,0,0,0,0,0,0,0,0,0,0,0,0,0,0,0],"sum_hessian":[4.0756E4,1.5923E4,2.4833E4,1.2423E4,3.5E3,6.97E3,1.7863E4,7.15E3,5.273E3,7.29E2,2.771E3,6.77E3,2E2,6.727E3,1.1136E4,1.58E2,6.992E3,2.492E3,2.781E3,5.7E2,1.59E2,7.24E2,2.047E3,9.58E2,5.812E3,1.8E2,2E1,4.14E3,2.587E3,9.299E3,1.837E3,2.9E1,1.29E2,2.505E3,4.487E3,7.68E2,1.724E3,2.412E3,3.69E2,2.85E2,2.85E2,1.42E2,1.7E1,2.94E2,4.3E2,1.773E3,2.74E2,3.1E1,9.27E2,9.01E2,4.911E3,3.8E1,1.42E2,2.124E3,2.016E3,1.315E3,1.272E3,5.515E3,3.784E3,2.02E2,1.635E3,9E0,2E1,4.3E1,8.6E1,2.162E3,3.43E2,3.859E3,6.28E2,3.6E1,7.32E2,1.337E3,3.87E2,1.28E2,2.284E3,3E2,6.9E1,2.1E1,2.64E2,1.45E2,1.4E2,3.5E1,1.07E2,1.55E2,1.39E2,3E1,4E2,1.35E3,4.23E2,1.84E2,9E1,1.8E1,1.3E1,2.37E2,6.9E2,5.74E2,3.27E2,2.998E3,1.913E3,1.38E2,4E0,1.94E2,1.93E3,1.94E2,1.822E3,9.5E2,3.65E2,1.67E2,1.105E3,2.087E3,3.428E3,5.04E2,3.28E3,5E1,1.52E2,1.261E3,3.74E2],"tree_param":{"num_deleted":"0","num_feature":"9","num_nodes":"117","size_leaf_vector":"1"}},{"base_weights":[-1.1513088E-3,5.0826985E-1,-4.489643E-1,7.4647874E-1,-3.379751E-1,-2.5555098E-1,-1.3257262E0,1.0526727E0,3.1902888E-1,-2.4441633E0,-1.4085878E-1,-1.0033672E0,-1.0400103E-1,-8.16973E0,-1.2429496E0,1.1784366E0,3.695896E-1,5.6020296E-1,1.4394672E-1,-1.5202911E0,-3.8917024E0,-6.275555E-1,7.982032E-2,-1.4022127E0,-4.4182977E-1,-2.843304E-1,1.8859185E-1,-5.8871436E-1,-2.964749E-1,-1.8640213E0,-9.978479E-1,7.622196E-2,1.2019392E0,-2.71533E0,4.652015E-1,8.949622E-1,4.311818E-1,2.2631939E-1,-2.8993207E-1,-9.098205E-1,-2.0506227E0,-3.6087003E0,-3.804994E-1,-7.6520693E-1,2.3779033E-1,2.121381E-1,-3.8387576E-1,-2.0550895E0,-1.095791E0,-1.11584455E-1,-7.847813E-1,-6.898931E-1,-3.705899E-2,3.613519E-1,-2.3172393E-1,-9.5703226E-1,-2.2016797E0,-1.2006861E0,-5.575815E-1,-7.3573396E-2,1.8550038E-2,7.198363E-2,5.371479E-2,-1.5629189E-1,-9.759583E-2,1.7203726E-3,3.479272E-2,2.8358418E-2,4.8379365E-2,2.8274057E-2,1.542925E-2,-5.6839915E-4,1.6714102E-2,-1.14417495E-2,-3.80678E-2,-2.5215615E-2,-6.567144E-2,-1.1718643E-1,-8.421301E-2,-1.984492E-1,-1.5402988E-1,1.524567E-2,-4.5996618E-2,1.151764E-1,-3.863594E-3,1.0654003E-3,2.9078504E-2,-8.026794E-3,-2.9602204E-2,-7.123291E-2,-1.2297451E-1,-5.7662334E-2,5.9362568E-2,8.61393E-3,-2.4936741E-2,-1.050373E-2,-4.302993E-2,-2.1547398E-2,-5.082009E-2,4.100244E-3,-2.7299086E-2,-5.8033314E-2,2.0462455E-2,1.1275368E-2,-2.0323884E-2,-5.4485846E-2,-5.6432136E-3,-1.628232E-1,-7.9791136E-2,-2.6371647E-2,-7.480987E-2,-5.5285525E-2,-2.5049213E-2],"categories":[],"categories_nodes":[],"categories_segments":[],"categories_sizes":[],"default_left":[0,0,0,0,0,0,0,0,0,0,0,0,0,0,0,0,0,0,0,0,0,0,0,0,0,0,0,0,0,0,0,0,0,0,0,0,0,0,0,0,0,0,0,0,0,0,0,0,0,0,0,0,0,0,0,0,0,0,0,0,0,0,0,0,0,0,0,0,0,0,0,0,0,0,0,0,0,0,0,0,0,0,0,0,0,0,0,0,0,0,0,0,0,0,0,0,0,0,0,0,0,0,0,0,0,0,0,0,0,0,0,0,0],"id":12,"left_children":[1,3,5,7,9,11,13,15,17,19,21,23,25,27,29,31,33,35,37,39,41,43,45,47,49,51,53,-1,-1,55,57,59,61,63,65,67,69,71,73,75,77,79,-1,81,83,85,87,89,91,93,95,97,99,101,103,105,107,109,111,-1,-1,-1,-1,-1,-1,-1,-1,-1,-1,-1,-1,-1,-1,-1,-1,-1,-1,-1,-1,-1,-1,-1,-1,-1,-1,-1,-1,-1,-1,-1,-1,-1,-1,-1,-1,-1,-1,-1,-1,-1,-1,-1,-1,-1,-1,-1,-1,-1,-1,-1,-1,-1,-1],"loss_changes":[9.364547E3,3.871455E3,3.7042495E3,1.9610703E3,1.7512328E3,2.0284163E3,2.226477E3,7.496211E2,2.640807E2,4.7686377E2,4.1452133E2,6.7486426E2,7.853795E2,3.0971118E2,5.921255E2,1.909043E2,4.0210712E2,1.1324963E2,1.2965796E2,7.000714E1,1.1985742E2,1.4359772E2,1.6304094E2,3.504458E2,1.4193813E2,9.234903E2,4.1223962E2,0E0,0E0,3.3568945E2,2.4937866E2,7.126097E1,2.1751465E2,6.747467E0,1.3103705E2,1.6853516E1,3.1124817E1,7.821962E1,1.6502502E1,1.652259E1,8.723755E0,1.2888428E1,0E0,1.7231274E2,1.0821674E2,1.457085E2,2.7335403E1,1.3977612E2,1.5904004E2,7.042043E1,2.6616425E1,2.9446484E2,3.4676538E2,2.9375317E2,1.3225104E2,3.359143E1,5.0795874E2,3.804065E2,2.6901031E1,0E0,0E0,0E0,0E0,0E0,0E0,0E0,0E0,0E0,0E0,0E0,0E0,0E0,0E0,0E0,0E0,0E0,0E0,0E0,0E0,0E0,0E0,0E0,0E0,0E0,0E0,0E0,0E0,0E0,0E0,0E0,0E0,0E0,0E0,0E0,0E0,0E0,0E0,0E0,0E0,0E0,0E0,0E0,0E0,0E0,0E0,0E0,0E0,0E0,0E0,0E0,0E0,0E0,0E0],"parents":[2147483647,0,0,1,1,2,2,3,3,4,4,5,5,6,6,7,7,8,8,9,9,10,10,11,11,12,12,13,13,14,14,15,15,16,16,17,17,18,18,19,19,20,20,21,21,22,22,23,23,24,24,25,25,26,26,29,29,30,30,31,31,32,32,33,33,34,34,35,35,36,36,37,37,38,38,39,39,40,40,41,41,43,43,44,44,45,45,46,46,47,47,48,48,49,49,50,50,51,51,52,52,53,53,54,54,55,55,56,56,57,57,58,58],"right_children":[2,4,6,8,10,12,14,16,18,20,22,24,26,28,30,32,34,36,38,40,42,44,46,48,50,52,54,-1,-1,56,58,60,62,64,66,68,70,72,74,76,78,80,-1,82,84,86,88,90,92,94,96,98,100,102,104,106,108,110,112,-1,-1,-1,-1,-1,-1,-1,-1,-1,-1,-1,-1,-1,-1,-1,-1,-1,-1,-1,-1,-1,-1,-1,-1,-1,-1,-1,-1,-1,-1,-1,-1,-1,-1,-1,-1,-1,-1,-1,-1,-1,-1,-1,-1,-1,-1,-1,-1,-1,-1,-1,-1,-1,-1],"split_conditions":[2.2652707E-1,2.5110096E-1,1.0129389E0,-4.16892E-3,-1.9354556E0,-1.1976388E0,-3.3706012E0,1.2163791E-1,7.2031313E-1,1.3752986E0,-6.7363995E-1,5.883825E-1,5.502516E-1,-1.4235803E0,-1.301308E0,-1.0807254E0,-1.2327199E0,-5.1802087E-1,1.2184491E0,1.0929483E0,-1.2776952E0,4.855302E-1,1.1798874E0,-1.5234846E0,2.9573822E-1,-4.453522E-1,1.2184491E0,-5.8871436E-1,-2.964749E-1,-3.1434706E-1,5.883825E-1,-2.1523285E0,-7.5075054E-1,-1.12957604E-1,2.6593912E-1,-2.8723553E-2,-2.7412274E-1,-4.5379135E-1,3.5999417E-2,-8.876573E-1,6.568064E-1,-6.896406E-1,-3.804994E-1,4.4645268E-1,-1.7243794E0,2.0545767E-1,5.493958E-1,-1.9860603E-1,1.4476053E0,5.3774863E-1,1.4182433E-2,4.3897465E-1,4.974923E-1,-2.735417E0,-2.7412274E-1,-3.5631457E-1,5.833769E-1,-1.1282983E-2,-8.554351E-1,-7.3573396E-2,1.8550038E-2,7.198363E-2,5.371479E-2,-1.5629189E-1,-9.759583E-2,1.7203726E-3,3.479272E-2,2.8358418E-2,4.8379365E-2,2.8274057E-2,1.542925E-2,-5.6839915E-4,1.6714102E-2,-1.14417495E-2,-3.80678E-2,-2.5215615E-2,-6.567144E-2,-1.1718643E-1,-8.421301E-2,-1.984492E-1,-1.5402988E-1,1.524567E-2,-4.5996618E-2,1.151764E-1,-3.863594E-3,1.0654003E-3,2.9078504E-2,-8.026794E-3,-2.9602204E-2,-7.123291E-2,-1.2297451E-1,-5.7662334E-2,5.9362568E-2,8.61393E-3,-2.4936741E-2,-1.050373E-2,-4.302993E-2,-2.1547398E-2,-5.082009E-2,4.100244E-3,-2.7299086E-2,-5.8033314E-2,2.0462455E-2,1.1275368E-2,-2.0323884E-2,-5.4485846E-2,-5.6432136E-3,-1.628232E-1,-7.9791136E-2,-2.6371647E-2,-7.480987E-2,-5.5285525E-2,-2.5049213E-2],"split_indices":[1,5,5,0,7,2,7,1,0,4,7,1,1,2,7,7,7,5,0,5,0,2,2,2,6,2,0,0,0,0,1,7,0,5,7,6,5,2,5,6,4,2,0,5,0,7,7,5,4,5,5,1,5,7,5,0,1,0,7,0,0,0,0,0,0,0,0,0,0,0,0,0,0,0,0,0,0,0,0,0,0,0,0,0,0,0,0,0,0,0,0,0,0,0,0,0,0,0,0,0,0,0,0,0,0,0,0,0,0,0,0,0,0],"split_type":[0,0,0,0,0,0,0,0,0,0,0,0,0,0,0,0,0,0,0,0,0,0,0,0,0,0,0,0,0,0,0,0,0,0,0,0,0,0,0,0,0,0,0,0,0,0,0,0,0,0,0,0,0,0,0,0,0,0,0,0,0,0,0,0,0,0,0,0,0,0,0,0,0,0,0,0,0,0,0,0,0,0,0,0,0,0,0,0,0,0,0,0,0,0,0,0,0,0,0,0,0,0,0,0,0,0,0,0,0,0,0,0,0],"sum_hessian":[4.1048E4,1.9203E4,2.1845E4,1.4985E4,4.218E3,1.7898E4,3.947E3,8.73E3,6.255E3,3.6E2,3.858E3,3.015E3,1.4883E4,4.6E1,3.901E3,7.372E3,1.358E3,2.63E3,3.625E3,2.21E2,1.39E2,1.203E3,2.655E3,1.762E3,1.253E3,9.208E3,5.675E3,1.6E1,3E1,1.102E3,2.799E3,1.54E2,7.218E3,4E1,1.318E3,7.3E2,1.9E3,3.047E3,5.78E2,1.04E2,1.17E2,1.31E2,8E0,1.038E3,1.65E2,2.066E3,5.89E2,5.61E2,1.201E3,6.39E2,6.14E2,3.487E3,5.721E3,4.022E3,1.653E3,3E2,8.02E2,1.915E3,8.84E2,2.4E1,1.3E2,2.518E3,4.7E3,2.4E1,1.6E1,4.6E2,8.58E2,1.34E2,5.96E2,9.05E2,9.95E2,9.52E2,2.095E3,5.13E2,6.5E1,5.3E1,5.1E1,6.2E1,5.5E1,7.4E1,5.7E1,1.31E2,9.07E2,2.1E1,1.44E2,1.363E3,7.03E2,2.85E2,3.04E2,2.21E2,3.4E2,1.172E3,2.9E1,3.69E2,2.7E2,7.2E1,5.42E2,1.946E3,1.541E3,4.637E3,1.084E3,1.22E2,3.9E3,4.57E2,1.196E3,2.59E2,4.1E1,2.91E2,5.11E2,5.85E2,1.33E3,8.1E1,8.03E2],"tree_param":{"num_deleted":"0","num_feature":"9","num_nodes":"113","size_leaf_vector":"1"}},{"base_weights":[-2.4106125E-4,4.918479E-1,-4.2803892E-1,7.127161E-1,-3.0287334E-1,-1.0323408E0,-1.6694556E-1,1.0044707E0,3.0534697E-1,-1.9405768E0,-8.7951094E-2,2.4613911E-1,-1.2243783E0,-8.5370064E-2,-7.2891754E-1,1.1213475E0,3.565312E-1,5.419421E-1,1.3475935E-1,-1.3068514E0,-3.5841546E0,-5.2687424E-1,8.7954186E-2,-2.7547145E0,3.4264675E-1,-6.991296E0,-1.1694041E0,-2.4560663E-1,1.8945497E-1,-1.0944146E0,-5.9682703E-1,5.1594904E-4,1.1477329E0,-2.6826E0,4.3852118E-1,8.715771E-1,4.1397908E-1,2.085116E-1,-2.600326E-1,-6.906799E-1,-1.6988734E0,-4.7660527E0,-3.0612266E0,-5.5988276E-1,1.07082166E-1,1.7044286E-1,-4.6214768E-1,-1.7672436E-1,-1.0440569E-1,7.735221E-1,5.0689727E-2,-4.6044273E0,-1.0008187E1,-1.3619539E0,-5.159723E-1,-4.553539E-1,1.7470071E-2,3.7355316E-1,-2.1284595E-1,-1.3227253E0,-6.259835E-1,-6.2057745E-1,5.678685E-1,-7.1225666E-2,1.6428826E-2,6.828483E-2,5.13464E-2,-1.5897904E-1,-9.468558E-2,1.3369463E-3,3.314147E-2,1.35321645E-2,4.582567E-2,2.270668E-2,4.834615E-6,7.917226E-3,3.0090228E-2,-9.773345E-3,-3.152479E-2,-2.5473556E-2,-6.231619E-2,-8.0124736E-2,-1.4289063E-1,-2.1003647E-1,-3.3751413E-1,-1.2193934E-2,-1.5595962E-1,-1.590129E-2,-4.3016687E-2,1.6469523E-2,-4.6529816E-3,1.483469E-2,-2.952518E-2,2.1879736E-2,6.4722866E-2,-3.868808E-2,1.9154977E-2,-2.7540693E-1,-8.414635E-2,-1.1825295E-1,-5.12405E-1,-1.5538222E-2,-7.448246E-2,1.1290228E-2,-3.969432E-2,-2.4122884E-2,7.405125E-2,8.3775325E-3,-1.8545719E-2,3.6362417E-2,1.2535251E-2,2.6234838E-3,-2.4910105E-2,-6.1875314E-2,-1.2037083E-1,-8.546586E-3,-4.3631982E-2,-2.815461E-2,-5.0429445E-2,7.6942765E-3,4.0615443E-2],"categories":[],"categories_nodes":[],"categories_segments":[],"categories_sizes":[],"default_left":[0,0,0,0,0,0,0,0,0,0,0,0,0,0,0,0,0,0,0,0,0,0,0,0,0,0,0,0,0,0,0,0,0,0,0,0,0,0,0,0,0,0,0,0,0,0,0,0,0,0,0,0,0,0,0,0,0,0,0,0,0,0,0,0,0,0,0,0,0,0,0,0,0,0,0,0,0,0,0,0,0,0,0,0,0,0,0,0,0,0,0,0,0,0,0,0,0,0,0,0,0,0,0,0,0,0,0,0,0,0,0,0,0,0,0,0,0,0,0,0,0],"id":13,"left_children":[1,3,5,7,9,11,13,15,17,19,21,23,25,27,29,31,33,35,37,39,41,43,45,47,49,51,53,55,57,59,61,63,65,67,69,71,73,75,77,79,81,83,85,87,-1,89,91,-1,-1,93,95,97,99,101,103,105,107,109,111,113,115,117,119,-1,-1,-1,-1,-1,-1,-1,-1,-1,-1,-1,-1,-1,-1,-1,-1,-1,-1,-1,-1,-1,-1,-1,-1,-1,-1,-1,-1,-1,-1,-1,-1,-1,-1,-1,-1,-1,-1,-1,-1,-1,-1,-1,-1,-1,-1,-1,-1,-1,-1,-1,-1,-1,-1,-1,-1,-1,-1],"loss_changes":[8.611521E3,3.3394722E3,3.4525093E3,1.76904E3,1.4563181E3,1.6211987E3,7.005127E2,6.564746E2,2.5072528E2,4.9527307E2,2.825537E2,2.5087326E2,1.811585E3,5.8776465E2,9.286255E1,2.1730469E2,3.3183606E2,1.0943646E2,1.0522409E2,8.288696E1,6.761035E1,9.342291E1,1.1864934E2,6.654114E0,1.05252975E2,3.4276782E2,7.148247E2,4.652273E2,3.641726E2,5.4036316E1,3.9770782E1,7.994236E1,1.8762793E2,7.7009735E0,1.1941171E2,1.9383728E1,3.1194305E1,5.9963913E1,1.34867935E1,1.3159233E1,1.9100159E1,1.5391357E1,1.4753723E1,7.493585E1,0E0,9.523092E1,3.3389214E1,0E0,0E0,5.8582336E1,1.3732426E2,7.521637E1,1.7937256E1,5.8908545E2,2.6734995E2,2.4691333E2,2.1812117E2,1.4637717E2,1.1692153E2,2.8818848E1,1.8931862E1,3.0592102E1,2.8096275E0,0E0,0E0,0E0,0E0,0E0,0E0,0E0,0E0,0E0,0E0,0E0,0E0,0E0,0E0,0E0,0E0,0E0,0E0,0E0,0E0,0E0,0E0,0E0,0E0,0E0,0E0,0E0,0E0,0E0,0E0,0E0,0E0,0E0,0E0,0E0,0E0,0E0,0E0,0E0,0E0,0E0,0E0,0E0,0E0,0E0,0E0,0E0,0E0,0E0,0E0,0E0,0E0,0E0,0E0,0E0,0E0,0E0,0E0],"parents":[2147483647,0,0,1,1,2,2,3,3,4,4,5,5,6,6,7,7,8,8,9,9,10,10,11,11,12,12,13,13,14,14,15,15,16,16,17,17,18,18,19,19,20,20,21,21,22,22,23,23,24,24,25,25,26,26,27,27,28,28,29,29,30,30,31,31,32,32,33,33,34,34,35,35,36,36,37,37,38,38,39,39,40,40,41,41,42,42,43,43,45,45,46,46,49,49,50,50,51,51,52,52,53,53,54,54,55,55,56,56,57,57,58,58,59,59,60,60,61,61,62,62],"right_children":[2,4,6,8,10,12,14,16,18,20,22,24,26,28,30,32,34,36,38,40,42,44,46,48,50,52,54,56,58,60,62,64,66,68,70,72,74,76,78,80,82,84,86,88,-1,90,92,-1,-1,94,96,98,100,102,104,106,108,110,112,114,116,118,120,-1,-1,-1,-1,-1,-1,-1,-1,-1,-1,-1,-1,-1,-1,-1,-1,-1,-1,-1,-1,-1,-1,-1,-1,-1,-1,-1,-1,-1,-1,-1,-1,-1,-1,-1,-1,-1,-1,-1,-1,-1,-1,-1,-1,-1,-1,-1,-1,-1,-1,-1,-1,-1,-1,-1,-1,-1,-1],"split_conditions":[2.2652707E-1,2.5110096E-1,-6.584917E-2,-1.1282983E-2,-1.7178274E0,-8.427115E-1,9.359884E-1,1.2163791E-1,6.944723E-1,1.4476053E0,-6.7363995E-1,-3.491683E0,-3.3706012E0,5.474318E-1,3.9944983E-1,-1.0807254E0,-1.2327199E0,-5.3007114E-1,1.2184491E0,1.0929483E0,-3.7988374E0,1.2721997E0,4.763462E-1,-6.7475665E-1,-1.1745842E0,-9.7545147E-1,7.4450886E-1,-3.260267E-1,1.278556E0,5.315699E-1,1.0438322E0,-2.4274592E0,-7.439104E-1,-1.59714E-1,2.4968566E-1,-1.0457923E0,4.540574E-1,5.717555E-1,-2.3115737E-2,9.551814E-2,-1.182261E0,-1.2776952E0,-2.1224601E0,-1.1052065E0,1.07082166E-1,8.0585843E-1,-8.7373316E-1,-1.7672436E-1,-1.0440569E-1,-1.9354556E0,5.84086E-2,6.3660085E-1,1.0929483E0,-2.3973532E0,2.9573822E-1,1.3932185E0,3.5999417E-2,-3.4703016E-1,1.5377448E-1,1.740545E0,1.305274E0,8.76938E-1,9.739263E-1,-7.1225666E-2,1.6428826E-2,6.828483E-2,5.13464E-2,-1.5897904E-1,-9.468558E-2,1.3369463E-3,3.314147E-2,1.35321645E-2,4.582567E-2,2.270668E-2,4.834615E-6,7.917226E-3,3.0090228E-2,-9.773345E-3,-3.152479E-2,-2.5473556E-2,-6.231619E-2,-8.0124736E-2,-1.4289063E-1,-2.1003647E-1,-3.3751413E-1,-1.2193934E-2,-1.5595962E-1,-1.590129E-2,-4.3016687E-2,1.6469523E-2,-4.6529816E-3,1.483469E-2,-2.952518E-2,2.1879736E-2,6.4722866E-2,-3.868808E-2,1.9154977E-2,-2.7540693E-1,-8.414635E-2,-1.1825295E-1,-5.12405E-1,-1.5538222E-2,-7.448246E-2,1.1290228E-2,-3.969432E-2,-2.4122884E-2,7.405125E-2,8.3775325E-3,-1.8545719E-2,3.6362417E-2,1.2535251E-2,2.6234838E-3,-2.4910105E-2,-6.1875314E-2,-1.2037083E-1,-8.546586E-3,-4.3631982E-2,-2.815461E-2,-5.0429445E-2,7.6942765E-3,4.0615443E-2],"split_indices":[1,5,3,0,7,5,5,1,0,4,7,3,7,1,3,7,7,5,0,5,3,4,0,6,5,6,0,6,0,1,3,3,0,5,7,3,3,6,5,1,3,0,0,0,0,5,1,0,0,7,0,1,5,6,6,3,5,5,5,5,5,6,5,0,0,0,0,0,0,0,0,0,0,0,0,0,0,0,0,0,0,0,0,0,0,0,0,0,0,0,0,0,0,0,0,0,0,0,0,0,0,0,0,0,0,0,0,0,0,0,0,0,0,0,0,0,0,0,0,0,0],"split_type":[0,0,0,0,0,0,0,0,0,0,0,0,0,0,0,0,0,0,0,0,0,0,0,0,0,0,0,0,0,0,0,0,0,0,0,0,0,0,0,0,0,0,0,0,0,0,0,0,0,0,0,0,0,0,0,0,0,0,0,0,0,0,0,0,0,0,0,0,0,0,0,0,0,0,0,0,0,0,0,0,0,0,0,0,0,0,0,0,0,0,0,0,0,0,0,0,0,0,0,0,0,0,0,0,0,0,0,0,0,0,0,0,0,0,0,0,0,0,0,0,0],"sum_hessian":[4.0905E4,1.9023E4,2.1882E4,1.4886E4,4.137E3,6.601E3,1.5281E4,8.673E3,6.213E3,4.79E2,3.658E3,8.62E2,5.739E3,1.3345E4,1.936E3,7.347E3,1.326E3,2.602E3,3.611E3,3.47E2,1.32E2,1.046E3,2.612E3,2.6E1,8.36E2,5.3E1,5.686E3,8.43E3,4.915E3,5.12E2,1.424E3,1.69E2,7.178E3,3.4E1,1.292E3,7.26E2,1.876E3,3.043E3,5.68E2,1.36E2,2.11E2,3.8E1,9.4E1,1.034E3,1.2E1,2.272E3,3.4E2,1E1,1.6E1,3.37E2,4.99E2,3.1E1,2.2E1,4.391E3,1.295E3,4.69E3,3.74E3,3.372E3,1.543E3,3.43E2,1.69E2,1.396E3,2.8E1,3.1E1,1.38E2,2.556E3,4.622E3,1.9E1,1.5E1,4.56E2,8.36E2,5.1E1,6.75E2,1.71E3,1.66E2,2.7E3,3.43E2,4.85E2,8.3E1,1.04E2,3.2E1,1.97E2,1.4E1,3.2E1,6E0,2E0,9.2E1,5.74E2,4.6E2,1.417E3,8.55E2,4.9E1,2.91E2,2.06E2,1.31E2,1.43E2,3.56E2,2.3E1,8E0,1E0,2.1E1,4.76E2,3.915E3,3.53E2,9.42E2,4.626E3,6.4E1,2.698E3,1.042E3,8.68E2,2.504E3,8E2,7.43E2,3.2E2,2.3E1,6E1,1.09E2,1.218E3,1.78E2,1.1E1,1.7E1],"tree_param":{"num_deleted":"0","num_feature":"9","num_nodes":"121","size_leaf_vector":"1"}},{"base_weights":[-1.1134717E-3,5.3955054E-1,-3.5058334E-1,-5.726764E-1,6.347093E-1,-8.318868E-1,-1.2100084E-1,-1.1723341E0,-2.242099E-1,8.754928E-1,2.5920632E-1,-4.655941E-1,-1.4929101E0,-7.1133596E-1,8.66137E-2,-1.5251867E0,-7.8447473E-1,-3.4748085E-2,-8.9836925E-1,1.8806086E-1,1.0068332E0,3.899043E-1,-7.733156E-2,-7.141501E-2,-6.3361186E-1,-3.9999168E0,-1.3082073E0,-1.1178051E0,-3.467298E-1,-1.7292276E-1,2.2697242E-1,-4.678904E-1,-1.6023062E0,-8.282395E-1,9.202953E-2,-2.8788322E-1,1.7061579E-1,-1.7619847E0,-6.730979E-1,6.625539E-1,-1.7974137E-1,-2.2792773E0,1.0153539E0,4.370018E-1,-4.871827E-1,4.91206E-2,-1.122265E-1,-2.9544837E0,-3.9501105E-2,-9.010383E-1,-1.2279766E-1,-6.135517E0,-3.1712897E0,-3.0805244E0,-1.0071002E0,-1.886544E0,-8.3302605E-1,8.5325986E-2,-7.215477E-1,2.6237505E-2,-4.382372E-1,-8.629099E-2,2.9104915E-1,-1.4771421E-2,-4.28603E-2,-8.200202E-2,2.0054856E-2,-9.576722E-2,-3.7572812E-2,-6.5263174E-2,-1.1900835E-2,6.468837E-2,6.51179E-3,-1.3487343E-1,-2.7888456E-2,-4.661142E-2,-3.7378357E-3,4.7144875E-2,9.489112E-3,-4.3190915E-2,6.2371143E-3,-1.4079244E-1,-2.789844E-2,4.5046773E-2,6.1321754E-2,1.7077778E-2,3.6348518E-2,-2.1186322E-2,-7.1786E-2,-2.2170013E-2,-1.2952364E-3,-5.756369E-2,-1.629326E-1,-4.6747234E-3,7.846057E-2,-8.3775E-2,-3.8679782E-2,-2.2796666E-2,6.6726515E-3,-3.3974686E-1,8.4289394E-2,-9.9290155E-2,-1.6901092E-1,-1.214275E-1,-1.674329E-1,-2.823616E-2,-6.613781E-2,-4.762972E-1,-9.211249E-2,-5.2528586E-3,-4.8198383E-2,2.7670002E-2,2.2567576E-4,-4.9297772E-2,-3.0928666E-2,6.449457E-3,-3.5472795E-2,-2.9089302E-2,-1.1526391E-2,-1.7424058E-2,1.4201866E-2,2.1695329E-2,4.816857E-3],"categories":[],"categories_nodes":[],"categories_segments":[],"categories_sizes":[],"default_left":[0,0,0,0,0,0,0,0,0,0,0,0,0,0,0,0,0,0,0,0,0,0,0,0,0,0,0,0,0,0,0,0,0,0,0,0,0,0,0,0,0,0,0,0,0,0,0,0,0,0,0,0,0,0,0,0,0,0,0,0,0,0,0,0,0,0,0,0,0,0,0,0,0,0,0,0,0,0,0,0,0,0,0,0,0,0,0,0,0,0,0,0,0,0,0,0,0,0,0,0,0,0,0,0,0,0,0,0,0,0,0,0,0,0,0,0,0,0,0,0,0,0,0],"id":14,"left_children":[1,3,5,7,9,11,13,15,17,19,21,23,25,27,29,31,33,35,37,39,41,43,45,47,49,51,53,55,57,59,61,63,65,67,-1,69,71,73,75,77,79,81,83,85,87,-1,89,91,93,95,97,99,101,103,105,107,109,111,113,115,117,119,121,-1,-1,-1,-1,-1,-1,-1,-1,-1,-1,-1,-1,-1,-1,-1,-1,-1,-1,-1,-1,-1,-1,-1,-1,-1,-1,-1,-1,-1,-1,-1,-1,-1,-1,-1,-1,-1,-1,-1,-1,-1,-1,-1,-1,-1,-1,-1,-1,-1,-1,-1,-1,-1,-1,-1,-1,-1,-1,-1,-1],"loss_changes":[7.776253E3,1.7104956E3,2.7621497E3,2.6595297E2,1.3455996E3,1.9540044E3,2.0745486E3,6.285266E1,1.0304483E2,8.186279E2,2.558898E2,3.4408105E2,1.3274297E3,6.522903E2,4.5622968E2,1.914569E1,2.7373657E1,3.2851536E1,3.3248978E1,2.5421962E2,2.155083E2,1.732959E2,6.0313194E1,1.4286679E2,4.975421E2,3.2915698E2,1.4281665E3,4.5422168E2,3.7625342E2,2.3229654E2,1.6317764E2,9.553156E-1,1.7818237E1,1.7091385E1,0E0,1.4046822E1,1.5659645E1,3.9050323E1,2.1947182E1,8.411557E1,1.7111403E2,1.690094E1,1.8232568E2,1.098208E2,1.2272446E1,0E0,4.507101E1,5.5725403E0,1.3373708E2,2.3469434E2,1.07024734E2,2.8996106E2,2.8953857E1,5.9871338E1,3.1958447E2,1.7262085E2,1.4488257E2,4.0849823E1,3.3260803E1,1.8998288E2,5.6069855E1,1.3418918E2,1.8766101E2,0E0,0E0,0E0,0E0,0E0,0E0,0E0,0E0,0E0,0E0,0E0,0E0,0E0,0E0,0E0,0E0,0E0,0E0,0E0,0E0,0E0,0E0,0E0,0E0,0E0,0E0,0E0,0E0,0E0,0E0,0E0,0E0,0E0,0E0,0E0,0E0,0E0,0E0,0E0,0E0,0E0,0E0,0E0,0E0,0E0,0E0,0E0,0E0,0E0,0E0,0E0,0E0,0E0,0E0,0E0,0E0,0E0,0E0,0E0,0E0],"parents":[2147483647,0,0,1,1,2,2,3,3,4,4,5,5,6,6,7,7,8,8,9,9,10,10,11,11,12,12,13,13,14,14,15,15,16,16,17,17,18,18,19,19,20,20,21,21,22,22,23,23,24,24,25,25,26,26,27,27,28,28,29,29,30,30,31,31,32,32,33,33,35,35,36,36,37,37,38,38,39,39,40,40,41,41,42,42,43,43,44,44,46,46,47,47,48,48,49,49,50,50,51,51,52,52,53,53,54,54,55,55,56,56,57,57,58,58,59,59,60,60,61,61,62,62],"right_children":[2,4,6,8,10,12,14,16,18,20,22,24,26,28,30,32,34,36,38,40,42,44,46,48,50,52,54,56,58,60,62,64,66,68,-1,70,72,74,76,78,80,82,84,86,88,-1,90,92,94,96,98,100,102,104,106,108,110,112,114,116,118,120,122,-1,-1,-1,-1,-1,-1,-1,-1,-1,-1,-1,-1,-1,-1,-1,-1,-1,-1,